Mr. येलप्पा 0.1250000
from येलप्पा 0.2500000
call येलप्पा 0.1250000
Yellappa येलप्पा 0.1250000
Ji येलप्पा 0.1250000
NULL येलप्पा 0.1250000
Velankar येलप्पा 0.1250000
so बढ़कर 0.0833333
magnificent बढ़कर 0.0833333
witness बढ़कर 0.0833333
any बढ़कर 0.0833333
NULL बढ़कर 0.1666667
scenes बढ़कर 0.0833333
pleasure बढ़कर 0.0833333
many बढ़कर 0.0833333
be बढ़कर 0.0833333
cannot बढ़कर 0.0833333
bigger बढ़कर 0.0833333
Brihdeshwar तंजावुर 1.0000000
of नाज़ 0.3333333
as नाज़ 0.3333333
army नाज़ 0.3333333
pilgrims तीर्थयात्री 0.6666667
warkari तीर्थयात्री 0.3333333
arms सम्मानित 0.1000000
NULL सम्मानित 0.2000000
honoured सम्मानित 0.4000000
with सम्मानित 0.2000000
esteemed सम्मानित 0.1000000
Moscow Moscow 0.5000000
, Moscow 0.5000000
on सफ़लता 0.1666667
success सफ़लता 0.5000000
achieved सफ़लता 0.3333333
felt सिस्टर 0.1666667
tributes सिस्टर 0.1666667
Sister सिस्टर 0.3333333
pay सिस्टर 0.1666667
heart सिस्टर 0.1666667
Dhurve मनीषा 1.0000000
via लाभार्थी 0.1428571
aims लाभार्थी 0.1428571
Aadhar लाभार्थी 0.1428571
bank लाभार्थी 0.1428571
beneficiaries लाभार्थी 0.1428571
at लाभार्थी 0.1428571
accounts लाभार्थी 0.1428571
boards बोर्ड 1.0000000
machines PAT 0.3333333
VVPAT PAT 0.3333333
... PAT 0.3333333
learn मिलता 0.0800000
NULL मिलता 0.3200000
scientist मिलता 0.0400000
lifestyles मिलता 0.0400000
satisfaction मिलता 0.0400000
bolstering मिलता 0.0400000
enable मिलता 0.0400000
get मिलता 0.2800000
Lion मिलता 0.0400000
prize मिलता 0.0400000
encouraged मिलता 0.0400000
a परिवर्तित 0.0909091
turn परिवर्तित 0.1818182
NULL परिवर्तित 0.2727273
into परिवर्तित 0.3636364
these परिवर्तित 0.0909091
loss नुकसान 0.0769231
deteriorated नुकसान 0.0769231
it नुकसान 0.0769231
losses नुकसान 0.0769231
damage नुकसान 0.1538462
anywhere नुकसान 0.0769231
NULL नुकसान 0.2307692
any नुकसान 0.1538462
cause नुकसान 0.0769231
young पुणे 0.1250000
watchful पुणे 0.1250000
Ameya पुणे 0.1250000
Pune पुणे 0.3750000
from पुणे 0.1250000
daughter पुणे 0.1250000
to जवाब 0.0714286
questions जवाब 0.0714286
NULL जवाब 0.2142857
the जवाब 0.1428571
No जवाब 0.0714286
answer जवाब 0.1428571
her जवाब 0.0714286
given जवाब 0.0714286
Indonesia जवाब 0.0714286
query जवाब 0.0714286
us बोध 0.2500000
NULL बोध 0.2500000
something बोध 0.2500000
teaches बोध 0.2500000
understand समझें 0.3333333
should समझें 0.2222222
it समझें 0.1111111
try समझें 0.1111111
and समझें 0.2222222
sagacity महात्म्य 0.2000000
sanctity महात्म्य 0.2000000
NULL महात्म्य 0.2000000
contributed महात्म्य 0.2000000
through महात्म्य 0.2000000
style कार्यशैली 0.3333333
amply कार्यशैली 0.3333333
working कार्यशैली 0.3333333
grit लगन 0.2500000
persistence लगन 0.2500000
perseverance लगन 0.5000000
App ऐप 0.5000000
Namo ऐप 0.5000000
season मौसम 0.3333333
due मौसम 0.0416667
NULL मौसम 0.1250000
month मौसम 0.0416667
The मौसम 0.0416667
Winter मौसम 0.0416667
abundant मौसम 0.0416667
someones मौसम 0.0416667
weather मौसम 0.2500000
season-cycle मौसम 0.0416667
machineries तब्दील 1.0000000
e email 0.3333333
emailed email 0.3333333
mails email 0.3333333
devoted पढ़ाई 0.0833333
Geetha पढ़ाई 0.0833333
during पढ़ाई 0.0833333
studied पढ़ाई 0.0833333
education पढ़ाई 0.0833333
whole पढ़ाई 0.0833333
along पढ़ाई 0.0833333
studies पढ़ाई 0.3333333
what पढ़ाई 0.0833333
1951 1951 1.0000000
Sun ढलते 0.3333333
worship ढलते 0.3333333
setting ढलते 0.3333333
formal ormal 1.0000000
NULL नन्हे 0.2500000
little नन्हे 0.2500000
friend नन्हे 0.2500000
approaching नन्हे 0.2500000
NULL management 0.2857143
management management 0.7142857
newer मुक़ाम 1.0000000
women महिलाए 0.5833333
advancement महिलाए 0.0833333
Bhavna महिलाए 0.0833333
seed-bank महिलाए 0.0833333
BSF महिलाए 0.0833333
phenomenon महिलाए 0.0833333
have देखे 0.3000000
too देखे 0.1000000
or देखे 0.1000000
observe देखे 0.1000000
NULL देखे 0.2000000
noticed देखे 0.1000000
this देखे 0.1000000
( rganiation 0.2500000
NOTO rganiation 0.2500000
Organization rganiation 0.2500000
) rganiation 0.2500000
cement सीमेंट 1.0000000
movie मिनट 0.0357143
minute मिनट 0.1071429
1-2 मिनट 0.0357143
minutes मिनट 0.6428571
NULL मिनट 0.1785714
NULL निखर 1.0000000
My My 1.0000000
preliminary मोटी 0.2000000
NULL मोटी 0.4000000
The मोटी 0.2000000
department मोटी 0.2000000
grown देसी 0.1428571
home देसी 0.1428571
indigenous देसी 0.1428571
method देसी 0.1428571
was देसी 0.1428571
a देसी 0.1428571
purely देसी 0.1428571
Mayor पालिका 1.0000000
inch inch 1.0000000
Book ऑफ़ 1.0000000
they लौटते 0.2500000
When लौटते 0.2500000
vendors लौटते 0.2500000
return लौटते 0.2500000
about शासकों 1.0000000
playful गेंहू 1.0000000
our निजी 0.5000000
personal निजी 0.5000000
loan साढ़े 0.0833333
half साढ़े 0.3333333
a साढ़े 0.2500000
5 साढ़े 0.1666667
average साढ़े 0.0833333
lac साढ़े 0.0833333
sainthood संत 0.0526316
Sant संत 0.3157895
- संत 0.0526316
saint संत 0.2105263
Saint संत 0.1052632
NULL संत 0.2105263
superstition संत 0.0526316
too असर 0.1428571
ineffective असर 0.1428571
NULL असर 0.4285714
suffered असर 0.1428571
bane असर 0.1428571
court अदालत 1.0000000
for अरसे 0.1428571
time अरसे 0.2857143
very अरसे 0.1428571
long अरसे 0.2857143
duration अरसे 0.1428571
An BS 0.2500000
NULL BS 0.2500000
essay BS 0.2500000
BSF BS 0.2500000
paying बहनों 0.0256410
mothers बहनों 0.0256410
sisters बहनों 0.7179487
Sisters बहनों 0.0256410
and बहनों 0.1538462
residing बहनों 0.0256410
our बहनों 0.0256410
NULL लक्षद्वीप 0.1666667
Lakshadweep लक्षद्वीप 0.3333333
is लक्षद्वीप 0.1666667
contributing लक्षद्वीप 0.1666667
significantly लक्षद्वीप 0.1666667
health सेहत 0.2500000
Through सेहत 0.2500000
protection सेहत 0.2500000
tobaccois सेहत 0.2500000
or ईंटें 0.2000000
bricks ईंटें 0.2000000
cement ईंटें 0.2000000
was ईंटें 0.2000000
whether ईंटें 0.2000000
Sushrut चरक 1.0000000
listeners श्रोताओं 1.0000000
anger गुस्सा 0.1111111
venting गुस्सा 0.1111111
is गुस्सा 0.2222222
How गुस्सा 0.1111111
NULL गुस्सा 0.2222222
his गुस्सा 0.1111111
he गुस्सा 0.1111111
protectors रक्षक 1.0000000
Karia करिया 0.2500000
Shri करिया 0.2500000
has करिया 0.2500000
dedicated करिया 0.2500000
Vittidaaloo गुलिबाड़ी 1.0000000
account करतब 0.5000000
NULL करतब 0.5000000
was 1869 0.3333333
1869 1869 0.3333333
born 1869 0.3333333
temperature शून्य 0.5000000
drops शून्य 0.5000000
participated athletes 0.3333333
did athletes 0.3333333
athletes athletes 0.3333333
served पिलाई 1.0000000
Recently recently 1.0000000
Organisation rganisation 1.0000000
for गिफ्ट 0.2500000
gift गिफ्ट 0.2500000
scheme गिफ्ट 0.2500000
330 गिफ्ट 0.2500000
35 35 1.0000000
members सदस्यीय 1.0000000
need माग 0.1666667
needs माग 0.0555556
changing माग 0.0555556
pending माग 0.0555556
times माग 0.1111111
the माग 0.2777778
periods माग 0.0555556
hour माग 0.1111111
is माग 0.1111111
Mehra सत्यप्रकाश 0.2000000
one सत्यप्रकाश 0.2000000
Satya सत्यप्रकाश 0.2000000
Shri सत्यप्रकाश 0.2000000
Prakash सत्यप्रकाश 0.2000000
or सिलिकन 0.3333333
Valley सिलिकन 0.3333333
Silicon सिलिकन 0.3333333
Lord भृगु 0.5000000
NULL भृगु 0.5000000
vacuum खालीपन 0.3333333
caused खालीपन 0.3333333
due खालीपन 0.3333333
affordable दवाइया 0.1666667
medicines दवाइया 0.8333333
Crediting आधार 0.0833333
basis आधार 0.3333333
NULL आधार 0.1666667
benchmark आधार 0.0833333
base आधार 0.0833333
protections आधार 0.0833333
one आधार 0.0833333
strongest आधार 0.0833333
etched एक 0.0008787
admit एक 0.0017575
Channel एक 0.0008787
organic एक 0.0008787
compiled एक 0.0008787
Dehradun एक 0.0008787
boy एक 0.0008787
Veda एक 0.0008787
conference एक 0.0008787
Soldiers एक 0.0008787
really एक 0.0017575
rarest एक 0.0008787
single एक 0.0061511
exemplary एक 0.0008787
reform एक 0.0008787
a एक 0.4727592
respect एक 0.0017575
To एक 0.0008787
par एक 0.0008787
on एक 0.0008787
could एक 0.0017575
scenes एक 0.0017575
rekindled एक 0.0008787
an एक 0.0623902
each एक 0.0087873
felt एक 0.0008787
story एक 0.0017575
self एक 0.0008787
feeling एक 0.0008787
month एक 0.0008787
Satellites एक 0.0008787
soldier एक 0.0008787
spacecraft एक 0.0008787
major एक 0.0008787
closing एक 0.0008787
China एक 0.0008787
Blossom एक 0.0008787
step एक 0.0017575
ITBP एक 0.0008787
simultaneously एक 0.0017575
satisfaction एक 0.0017575
connect एक 0.0017575
Another एक 0.0008787
two-thirds एक 0.0008787
focal एक 0.0008787
Atal एक 0.0017575
connection एक 0.0017575
Attainment एक 0.0008787
bathed एक 0.0008787
exam एक 0.0008787
again एक 0.0026362
summit एक 0.0008787
blend एक 0.0008787
collective एक 0.0017575
laureate एक 0.0008787
NULL एक 0.1467487
monk एक 0.0008787
results एक 0.0008787
nationalism एक 0.0008787
shown एक 0.0008787
prayer एक 0.0008787
Sansad एक 0.0008787
spot एक 0.0008787
study एक 0.0008787
notorious एक 0.0008787
pillars एक 0.0008787
With एक 0.0008787
reeling एक 0.0008787
seasonal एक 0.0008787
Agarwal एक 0.0008787
One एक 0.0123023
usher एक 0.0008787
CANCER एक 0.0008787
Ek एक 0.0043937
partition एक 0.0008787
A एक 0.0114236
set एक 0.0008787
becominganoble एक 0.0008787
co-existential एक 0.0008787
integral एक 0.0008787
Id एक 0.0008787
graduate एक 0.0008787
integrating एक 0.0008787
Keshla एक 0.0008787
Firstly एक 0.0008787
renewed एक 0.0017575
requested एक 0.0008787
Curiosity एक 0.0008787
Type एक 0.0008787
Bachao एक 0.0017575
shortcoming एक 0.0008787
similar एक 0.0008787
Shree एक 0.0008787
Memories एक 0.0008787
send एक 0.0008787
Once एक 0.0175747
retired एक 0.0008787
like एक 0.0008787
shloka एक 0.0008787
Jal एक 0.0008787
calling एक 0.0008787
Mass एक 0.0008787
Across एक 0.0008787
An एक 0.0008787
affection एक 0.0008787
immense एक 0.0026362
Navaratri एक 0.0008787
linked एक 0.0008787
parade एक 0.0008787
) एक 0.0008787
uniting एक 0.0008787
bliss एक 0.0008787
another एक 0.0105448
common एक 0.0008787
once एक 0.0298770
KshamavaniParva एक 0.0008787
instills एक 0.0008787
attainment एक 0.0017575
There एक 0.0008787
significance एक 0.0008787
goal एक 0.0008787
statue एक 0.0008787
experiencing एक 0.0008787
photo एक 0.0008787
unparalleled एक 0.0008787
handkerchief एक 0.0008787
phoned एक 0.0008787
fresh एक 0.0008787
PRATISPARDHA एक 0.0008787
dream एक 0.0008787
tradition एक 0.0026362
one एक 0.0746924
together एक 0.0070299
Savarkarjis एक 0.0008787
fabric एक 0.0008787
new एक 0.0017575
effective एक 0.0017575
Otherwise एक 0.0008787
nurture एक 0.0017575
educative एक 0.0008787
Kabirwad एक 0.0008787
friend एक 0.0008787
Community संवर्धन 0.5000000
mobilization संवर्धन 0.5000000
declared घोषित 0.2857143
already घोषित 0.0714286
been घोषित 0.1428571
ODF घोषित 0.0714286
NULL घोषित 0.2142857
have घोषित 0.1428571
announced घोषित 0.0714286
NULL अप्रैल 0.0555556
April अप्रैल 0.9444444
Group elp 0.2000000
Help elp 0.2000000
&apos; elp 0.2000000
extract elp 0.2000000
Self elp 0.2000000
teams टीमों 0.6666667
had टीमों 0.3333333
Hyderabad emptying 1.0000000
calm स्थिर 0.3333333
NULL स्थिर 0.3333333
steady स्थिर 0.3333333
Haripura हरीपुरा 1.0000000
ills कुरीतियों 0.3333333
evil कुरीतियों 0.1666667
order कुरीतियों 0.1666667
In कुरीतियों 0.1666667
pledge कुरीतियों 0.1666667
up खोला 0.2000000
set खोला 0.2000000
linked खोला 0.2000000
college खोला 0.2000000
for खोला 0.2000000
definitely कीजियेगा 0.5000000
should कीजियेगा 0.5000000
International अंतर्राष्ट्रीय 1.0000000
repent पछताएगा 1.0000000
as उतरने 0.2500000
test उतरने 0.5000000
treat उतरने 0.2500000
bullets सीने 0.5000000
soil सीने 0.5000000
or आगजनी 0.3333333
fire आगजनी 0.3333333
loss आगजनी 0.3333333
us साहिब 0.2000000
given साहिब 0.2000000
Saheb साहिब 0.6000000
despite तमाम 0.2000000
tribulations तमाम 0.2000000
all तमाम 0.4000000
odds तमाम 0.2000000
countries यूरोपीय 0.2000000
NULL यूरोपीय 0.2000000
European यूरोपीय 0.6000000
daughters बेटियों 0.8181818
NULL बेटियों 0.1515152
encouraged बेटियों 0.0303030
paucity बांटे 0.3333333
distributed बांटे 0.6666667
NULL जीवनशैली 0.5000000
Because जीवनशैली 0.5000000
Lord भगवान् 0.5000000
recall भगवान् 0.5000000
juggernaut juggernaut 0.5000000
dictionary juggernaut 0.5000000
in आत्मनिर्भरता 0.5000000
self-reliance आत्मनिर्भरता 0.5000000
Even चुकी 0.2500000
lashing चुकी 0.2500000
NULL चुकी 0.2500000
coming चुकी 0.2500000
ability क्षमता 0.0769231
NULL क्षमता 0.2307692
hobbies क्षमता 0.0769231
best क्षमता 0.0769231
sporting क्षमता 0.0769231
jet क्षमता 0.0769231
niche क्षमता 0.0769231
bedded क्षमता 0.0769231
capability क्षमता 0.1538462
skills क्षमता 0.0769231
shared ideo 0.3333333
being ideo 0.3333333
videos ideo 0.3333333
cant plate 1.0000000
Ours विविधताओं 0.0357143
land विविधताओं 0.0357143
diversities विविधताओं 0.2857143
of विविधताओं 0.1785714
attires विविधताओं 0.0357143
is विविधताओं 0.1428571
with विविधताओं 0.0357143
full विविधताओं 0.1071429
ours विविधताओं 0.0357143
filled विविधताओं 0.0357143
united विविधताओं 0.0357143
manifold विविधताओं 0.0357143
outfit ख़रीदिये 1.0000000
Now चिल्ला 1.0000000
NULL मां 0.3333333
so मां 0.3333333
attend मां 0.3333333
brought लाया 0.2142857
about लाया 0.0714286
which लाया 0.1428571
have लाया 0.0714286
Using लाया 0.0714286
amendment लाया 0.1428571
them लाया 0.0714286
NULL लाया 0.2142857
went ountries 0.2500000
to ountries 0.2500000
Amritsar ountries 0.2500000
eighty-five ountries 0.2500000
recite प्राथमिकता 0.0666667
for प्राथमिकता 0.0666667
has प्राथमिकता 0.0666667
accorded प्राथमिकता 0.0666667
priority प्राथमिकता 0.4666667
accord प्राथमिकता 0.0666667
his प्राथमिकता 0.0666667
been प्राथमिकता 0.0666667
NULL प्राथमिकता 0.0666667
Selfi Selie 1.0000000
notes नोटें 0.2500000
deposit नोटें 0.1250000
bank नोटें 0.1250000
currency नोटें 0.2500000
amidst नोटें 0.1250000
trillions नोटें 0.1250000
guru गुरु 0.0555556
Guru गुरु 0.7777778
NULL गुरु 0.1111111
Jagatguru गुरु 0.0555556
Yet जिसका 0.1250000
deleterious जिसका 0.1250000
Gandhi-Mandela जिसका 0.1250000
NULL जिसका 0.3750000
DhanYojna जिसका 0.1250000
passes जिसका 0.1250000
party maniesto 1.0000000
with प्रतिस्पर्द्धा 0.1428571
&apos; प्रतिस्पर्द्धा 0.2857143
competition प्रतिस्पर्द्धा 0.1428571
others प्रतिस्पर्द्धा 0.1428571
has प्रतिस्पर्द्धा 0.2857143
, शिल्पा 0.6000000
Shilpa शिल्पा 0.4000000
pride गौरव 0.1333333
NULL गौरव 0.4666667
sense गौरव 0.0666667
Charak गौरव 0.0666667
brilliant गौरव 0.0666667
bringing गौरव 0.0666667
unrealistic गौरव 0.0666667
brought गौरव 0.0666667
Sriharikota श्रीहरिकोटा 0.3333333
watched श्रीहरिकोटा 0.3333333
nation श्रीहरिकोटा 0.3333333
race दौड़ 0.4000000
ki दौड़ 0.0666667
NULL दौड़ 0.1333333
Ekta दौड़ 0.0666667
In दौड़ 0.2000000
Daud दौड़ 0.0666667
esjk दौड़ 0.0666667
95 पचानबे 1.0000000
Matunga माटुंगा 1.0000000
for कटते 0.5000000
self-annihilation कटते 0.5000000
NULL किलोमीटर 0.3076923
plogging किलोमीटर 0.0769231
a किलोमीटर 0.0769231
kilometers किलोमीटर 0.3076923
km किलोमीटर 0.1538462
Kilometres किलोमीटर 0.0769231
Ruwala गाव 0.0103093
Ganga गाव 0.0103093
NULL गाव 0.1443299
villagers गाव 0.0309278
Village गाव 0.0206186
Vizianagaram गाव 0.0103093
villages गाव 0.2783505
village गाव 0.4845361
and गाव 0.0103093
corruption काले 0.0909091
dark काले 0.0909091
money काले 0.1818182
NULL काले 0.1818182
from काले 0.0909091
black काले 0.3636364
Sarv सर्व 0.5000000
mandated सर्व 0.5000000
spared बरती 1.0000000
tried समझाने 0.5000000
NULL समझाने 0.5000000
seriously लूंगा 0.3333333
them लूंगा 0.3333333
take लूंगा 0.3333333
soon मौजूदगी 0.2000000
presence मौजूदगी 0.2000000
will मौजूदगी 0.2000000
Indias मौजूदगी 0.2000000
register मौजूदगी 0.2000000
Bizos George 1.0000000
Organ rgan 0.5000000
organ rgan 0.5000000
us Mandela 0.1666667
Mandela Mandela 0.5000000
before Mandela 0.1666667
appear Mandela 0.1666667
2020 2024 0.2500000
2024 2024 0.2500000
in 2024 0.2500000
Olympics 2024 0.2500000
like संतानों 0.2000000
own संतानों 0.2000000
them संतानों 0.2000000
children संतानों 0.2000000
rear संतानों 0.2000000
dressing कपड़े 0.0714286
clothes कपड़े 0.3571429
stitching कपड़े 0.0714286
cloth कपड़े 0.0714286
collect कपड़े 0.0714286
quality कपड़े 0.0714286
and कपड़े 0.2857143
Punri ) 0.0322581
Honnamma ) 0.0322581
Prize ) 0.0322581
machines ) 0.0645161
Amrut ) 0.0322581
Bizos ) 0.0322581
Synchronising ) 0.0322581
, ) 0.0967742
incredibleindia ) 0.0322581
NULL ) 0.2258065
Organization ) 0.0322581
BHARAT ) 0.0322581
LAMI ) 0.0322581
Kasrils ) 0.0322581
the ) 0.0322581
water-tank ) 0.0322581
Vellore ) 0.0322581
to ) 0.0645161
Gaurai ) 0.0322581
nestling ) 0.0322581
precautions ) 0.0322581
They समाहित 0.1111111
had समाहित 0.1111111
sublimated समाहित 0.1111111
their समाहित 0.1111111
NULL समाहित 0.2222222
psyche समाहित 0.1111111
all समाहित 0.1111111
dreams समाहित 0.1111111
competing अनुस्पर्द्धा 0.1666667
themselves अनुस्पर्द्धा 0.1666667
Why अनुस्पर्द्धा 0.1666667
compete अनुस्पर्द्धा 0.1666667
route अनुस्पर्द्धा 0.1666667
with अनुस्पर्द्धा 0.1666667
drive photo 0.2500000
photo photo 0.5000000
cleanliness photo 0.2500000
veins रगों 0.2500000
innate रगों 0.2500000
to रगों 0.2500000
us रगों 0.2500000
tell अनघा 0.2500000
Let अनघा 0.2500000
me अनघा 0.2500000
Anagha अनघा 0.2500000
they पृष्ठभूमि 0.5000000
enriched पृष्ठभूमि 0.5000000
worlds चोटी 1.0000000
slums झोपड़ी 0.3333333
dwelling झोपड़ी 0.3333333
NULL झोपड़ी 0.3333333
NULL उगादी 1.0000000
Gujarat Gujarat 0.5000000
students Gujarat 0.5000000
an dice 0.3333333
on dice 0.3333333
dice dice 0.3333333
All champions 0.5000000
Ten champions 0.5000000
centre centre 0.2500000
equipped centre 0.2500000
examination centre 0.2500000
NULL centre 0.2500000
outdoor out 0.1428571
Out out 0.2857143
process out 0.1428571
readmit out 0.1428571
Delivery out 0.2857143
as प्रधानों 0.1000000
NULL प्रधानों 0.2000000
well प्रधानों 0.1000000
Pradhans प्रधानों 0.4000000
who प्रधानों 0.1000000
had प्रधानों 0.1000000
have मनरेगा 0.1111111
tagged मनरेगा 0.1111111
also मनरेगा 0.2222222
MNREGA मनरेगा 0.3333333
been मनरेगा 0.1111111
Under मनरेगा 0.1111111
shines चमकेगी 0.5000000
. चमकेगी 0.5000000
stunts साहसपूर्ण 0.3333333
performed साहसपूर्ण 0.3333333
Daredevil साहसपूर्ण 0.3333333
towards मोहन 0.1250000
Mohans मोहन 0.1250000
Parida मोहन 0.1250000
Shivani मोहन 0.1250000
Mohan मोहन 0.5000000
mosquito मच्छरदानी 0.4000000
nets मच्छरदानी 0.2000000
and मच्छरदानी 0.2000000
repellent मच्छरदानी 0.2000000
no ठाकुर 0.1250000
Vikas ठाकुर 0.1250000
that ठाकुर 0.1250000
brimming ठाकुर 0.1250000
felt ठाकुर 0.1250000
Thakur ठाकुर 0.3750000
to सोचना 0.0555556
more सोचना 0.0555556
things सोचना 0.0555556
what सोचना 0.0555556
you सोचना 0.0555556
many सोचना 0.0555556
There सोचना 0.0555556
have सोचना 0.1111111
about सोचना 0.0555556
NULL सोचना 0.0555556
so सोचना 0.0555556
think सोचना 0.2222222
that सोचना 0.0555556
are सोचना 0.0555556
day day 0.2500000
one day 0.2500000
cricket day 0.2500000
fifth day 0.2500000
Fortnight पखवाड़ा 1.0000000
Nubra Shyok 1.0000000
given दे 0.0131579
following दे 0.0131579
query दे 0.0131579
vegetables दे 0.0131579
inspire दे 0.0394737
Suddenly दे 0.0131579
Tower दे 0.0131579
lends दे 0.0131579
offering दे 0.0131579
brand दे 0.0131579
NULL दे 0.4342105
. दे 0.0131579
effectively दे 0.0131579
returns दे 0.0131579
contribute दे 0.0131579
send दे 0.0263158
Rang दे 0.0131579
bursting दे 0.0131579
tender दे 0.0131579
shape दे 0.0131579
training दे 0.0131579
demographically दे 0.0131579
lease दे 0.0131579
imparting दे 0.0131579
policy दे 0.0131579
universal दे 0.0131579
tribute दे 0.0131579
recite दे 0.0131579
ceremonies दे 0.0131579
contribution दे 0.0263158
handsomely दे 0.0131579
mantra दे 0.0131579
it दे 0.0131579
for दे 0.0263158
contributing दे 0.0131579
in दे 0.0131579
scoring दे 0.0131579
gesture दे 0.0131579
scheduled दे 0.0131579
block हजारीबाग 0.5000000
Katakmasandi हजारीबाग 0.5000000
led बन्धु 0.3333333
Banga-Bandhu बन्धु 0.3333333
leadership बन्धु 0.3333333
this ढ़ेरो 0.3333333
wish ढ़ेरो 0.3333333
opportunity ढ़ेरो 0.3333333
arrows तोपों 1.0000000
jawans सशस्त्र 0.1111111
armed सशस्त्र 0.3333333
forces सशस्त्र 0.2222222
towards सशस्त्र 0.1111111
an सशस्त्र 0.1111111
NULL सशस्त्र 0.1111111
or खरीद 0.1428571
bought खरीद 0.1428571
quite खरीद 0.1428571
NULL खरीद 0.5714286
visible समारोह 0.1666667
Centenary समारोह 0.1666667
celebrations समारोह 0.1666667
NULL समारोह 0.3333333
participate समारोह 0.1666667
graduate graduate 0.5000000
herself graduate 0.5000000
Media चलाए 0.5000000
taking चलाए 0.5000000
hearts दिल 0.2352941
rending दिल 0.0588235
touch दिल 0.0588235
heartsLet दिल 0.0588235
NULL दिल 0.1176471
heart दिल 0.4705882
seas समुन्दर 0.5000000
sea समुन्दर 0.5000000
righteousness अच्छाई 1.0000000
arrows कमान 0.5000000
Hovercrafts कमान 0.5000000
a सरकारी 0.1000000
projects सरकारी 0.0250000
lifetime सरकारी 0.0250000
accountability सरकारी 0.0250000
Harda सरकारी 0.0250000
governmental सरकारी 0.0250000
NULL सरकारी 0.0500000
being सरकारी 0.0250000
event सरकारी 0.0250000
steadily सरकारी 0.0250000
confined सरकारी 0.0250000
no सरकारी 0.0500000
machinery सरकारी 0.0250000
officials सरकारी 0.0750000
longer सरकारी 0.0500000
Government सरकारी 0.0250000
disabled सरकारी 0.0250000
government सरकारी 0.3250000
sources सरकारी 0.0250000
workers सरकारी 0.0250000
financial थोड़ी 0.1666667
plate थोड़ी 0.1666667
laugh थोड़ी 0.1666667
NULL थोड़ी 0.3333333
Everybody थोड़ी 0.1666667
Monetization लाए 0.1666667
been लाए 0.1666667
have लाए 0.1666667
that लाए 0.1666667
darkness लाए 0.1666667
throw लाए 0.1666667
heartiest अनेक- 0.1666667
this अनेक- 0.1666667
greetings अनेक- 0.1666667
on अनेक- 0.1666667
My अनेक- 0.1666667
occasion अनेक- 0.1666667
pictures तस्वीरें 0.5000000
NULL तस्वीरें 0.5000000
MyGov स्वप्न 1.0000000
miniscule कम 0.0080645
complimenting कम 0.0080645
depleted कम 0.0080645
less कम 0.0483871
reduced कम 0.0080645
low कम 0.0241935
short कम 0.0725806
NULL कम 0.2338710
brief कम 0.0080645
a कम 0.0725806
attained कम 0.0080645
very कम 0.0241935
Mortality कम 0.0080645
farsightedness कम 0.0080645
minimal कम 0.0161290
down कम 0.0080645
evaluated कम 0.0080645
Till कम 0.0080645
no कम 0.0241935
little कम 0.0161290
drastically कम 0.0080645
incurred कम 0.0080645
stop कम 0.0161290
Did कम 0.0080645
commodities कम 0.0080645
mitigation कम 0.0080645
regular कम 0.0080645
least कम 0.0403226
cash कम 0.0161290
In कम 0.0161290
decreasing कम 0.0080645
meagre कम 0.0080645
reducing कम 0.0080645
age कम 0.0403226
few कम 0.0564516
underestimate कम 0.0080645
span कम 0.0564516
youngest कम 0.0161290
than कम 0.0241935
handicrafts कम 0.0080645
Less कम 0.0080645
Nations सपनों 0.0666667
dream सपनों 0.1333333
come सपनों 0.0666667
realize सपनों 0.0666667
and सपनों 0.0666667
individual सपनों 0.0666667
dreamt सपनों 0.0666667
a सपनों 0.1333333
dreams सपनों 0.3333333
at आश्चर्यचकित 0.2000000
NULL आश्चर्यचकित 0.2000000
them आश्चर्यचकित 0.2000000
be आश्चर्यचकित 0.2000000
wildered आश्चर्यचकित 0.2000000
raping रेप 1.0000000
urbanization शहरीकरण 1.0000000
reached uarter 0.3333333
quarter uarter 0.3333333
finals uarter 0.3333333
Canada anada 1.0000000
NULL भरपूर 0.3333333
use भरपूर 0.0833333
currently भरपूर 0.0833333
Make भरपूर 0.0833333
utmost भरपूर 0.0833333
Whole-hearted भरपूर 0.0833333
made भरपूर 0.0833333
follow भरपूर 0.0833333
full भरपूर 0.0833333
fitness ध्यान 0.0138889
towards ध्यान 0.0277778
NULL ध्यान 0.2500000
Dhyan ध्यान 0.0555556
focusing ध्यान 0.0138889
larger ध्यान 0.0138889
hostel ध्यान 0.0138889
immensely ध्यान 0.0138889
focus ध्यान 0.0277778
to ध्यान 0.1527778
drawn ध्यान 0.0416667
pay ध्यान 0.0416667
notice ध्यान 0.0138889
strike ध्यान 0.0138889
reminds ध्यान 0.0138889
came ध्यान 0.0138889
attention ध्यान 0.2500000
care ध्यान 0.0138889
worsens ध्यान 0.0138889
surely पहुचाऊगा 0.3333333
will पहुचाऊगा 0.3333333
send पहुचाऊगा 0.3333333
Madhya मध्य 0.8750000
NULL मध्य 0.1250000
practitioners अभ्यासुओं 1.0000000
opponent प्रतिद्वंदी 0.1666667
way प्रतिद्वंदी 0.1666667
The प्रतिद्वंदी 0.1666667
Medvedev प्रतिद्वंदी 0.1666667
his प्रतिद्वंदी 0.1666667
heaped प्रतिद्वंदी 0.1666667
pregnant गर्भवती 1.0000000
by स्वाभवतः 1.0000000
which खज़ाना 0.1666667
treasure खज़ाना 0.5000000
huge खज़ाना 0.1666667
is खज़ाना 0.1666667
foods खान 0.2000000
attire खान 0.2000000
Khan खान 0.6000000
plan बनाने 0.0125000
gas बनाने 0.0125000
furniture बनाने 0.0125000
fond बनाने 0.0125000
raising बनाने 0.0125000
piping बनाने 0.0125000
greener बनाने 0.0125000
construct बनाने 0.0375000
devising बनाने 0.0125000
toilets बनाने 0.0750000
craft बनाने 0.0125000
constant बनाने 0.0125000
frame बनाने 0.0125000
to बनाने 0.2125000
programme बनाने 0.0125000
creating बनाने 0.0250000
a बनाने 0.0250000
2025 बनाने 0.0125000
Khunti बनाने 0.0125000
NULL बनाने 0.1875000
hospital बनाने 0.0375000
purses बनाने 0.0125000
law बनाने 0.0125000
making बनाने 0.0125000
diyas बनाने 0.0125000
pending बनाने 0.0125000
converting बनाने 0.0125000
turning बनाने 0.0125000
farm बनाने 0.0125000
develops बनाने 0.0125000
beautify बनाने 0.0125000
make बनाने 0.0750000
makers बनाने 0.0125000
impetus बनाने 0.0125000
brotherhood भाईचारे 1.0000000
dejected मायूस 0.5000000
become मायूस 0.5000000
as Garden 0.3333333
Garden Garden 0.6666667
NULL परिसर 0.1666667
remained परिसर 0.1666667
has परिसर 0.1666667
largely परिसर 0.1666667
surroundings परिसर 0.1666667
confined परिसर 0.1666667
look देखते 0.0689655
only देखते 0.0344828
statistics देखते 0.0344828
talks देखते 0.0344828
witness देखते 0.0689655
seriously देखते 0.0344828
NULL देखते 0.4827586
behold देखते 0.0344828
advertisements देखते 0.0344828
at देखते 0.0344828
advertisement देखते 0.0344828
we देखते 0.0689655
check देखते 0.0344828
initiating गंवाये 0.2500000
action गंवाये 0.2500000
stern गंवाये 0.2500000
in गंवाये 0.2500000
inspires प्रेरणा 0.0116279
superstition प्रेरणा 0.0116279
NULL प्रेरणा 0.2325581
us प्रेरणा 0.0581395
inspired प्रेरणा 0.0697674
for प्रेरणा 0.0232558
inspring प्रेरणा 0.0116279
patriotism प्रेरणा 0.0348837
winner प्रेरणा 0.0116279
Chola प्रेरणा 0.0116279
inspiration प्रेरणा 0.3720930
inspire प्रेरणा 0.1046512
source प्रेरणा 0.0465116
researching climate 0.2000000
Climate climate 0.2000000
concerned climate 0.2000000
deeply climate 0.2000000
about climate 0.2000000
with आयोजनों 0.1666667
Such आयोजनों 0.1666667
gained आयोजनों 0.1666667
popularity आयोजनों 0.1666667
more आयोजनों 0.1666667
events आयोजनों 0.1666667
estimate आंकडे 0.1250000
own आंकडे 0.1250000
calculated आंकडे 0.1250000
Everyone आंकडे 0.1250000
hisher आंकडे 0.1250000
way आंकडे 0.1250000
in आंकडे 0.1250000
gives आंकडे 0.1250000
gets अंग 0.0833333
organ अंग 0.0833333
it अंग 0.0833333
another अंग 0.0833333
part अंग 0.0833333
inseparable अंग 0.0833333
NULL अंग 0.2500000
moves अंग 0.0833333
an अंग 0.1666667
Africa लौटे 0.3333333
South लौटे 0.3333333
from लौटे 0.3333333
machines M 0.2500000
BHIM M 0.2500000
For M 0.2500000
in M 0.2500000
hospitals हॉस्पिटल 0.1666667
parks हॉस्पिटल 0.1666667
places हॉस्पिटल 0.1666667
or हॉस्पिटल 0.1666667
other हॉस्पिटल 0.1666667
NULL हॉस्पिटल 0.1666667
lamenting तुम्हारा 1.0000000
Poor तेल 1.0000000
comes ouse 0.2000000
Opera ouse 0.4000000
House ouse 0.4000000
positions पायरी 0.5000000
NULL पायरी 0.5000000
The ग्रामीणों 1.0000000
to बढ़िए 0.1666667
come बढ़िए 0.1666667
participate बढ़िए 0.1666667
forward बढ़िए 0.1666667
all बढ़िए 0.1666667
and बढ़िए 0.1666667
November नवंबर 1.0000000
plants उगेंगे 0.2500000
soil उगेंगे 0.2500000
no उगेंगे 0.5000000
a लम्बा 0.1428571
long लम्बा 0.2857143
NULL लम्बा 0.2857143
field लम्बा 0.1428571
lengthy लम्बा 0.1428571
were 95 0.5000000
held 95 0.5000000
stumps prove 0.2500000
6-6 prove 0.2500000
those prove 0.2500000
into prove 0.2500000
And Transport 1.0000000
roam घूमकर 1.0000000
matters अपरिचित 0.2500000
in अपरिचित 0.2500000
ignorant अपरिचित 0.2500000
these अपरिचित 0.2500000
any बचाए 0.2000000
ideology बचाए 0.2000000
guard बचाए 0.2000000
from बचाए 0.2000000
such बचाए 0.2000000
but चीज़ें 0.0277778
values चीज़ें 0.0277778
you चीज़ें 0.0833333
these चीज़ें 0.1111111
things चीज़ें 0.2222222
are चीज़ें 0.1111111
bottom चीज़ें 0.0277778
if चीज़ें 0.0277778
messages चीज़ें 0.0277778
cheaper चीज़ें 0.0277778
news चीज़ें 0.0277778
edge चीज़ें 0.0277778
dealing चीज़ें 0.0277778
hurry चीज़ें 0.0277778
Otherwise चीज़ें 0.0277778
NULL चीज़ें 0.1388889
routine चीज़ें 0.0277778
pregnancy संक्रमण 0.5000000
infections संक्रमण 0.5000000
single single 0.5000000
plastic single 0.5000000
overlooking जिम्मेदारी 0.2000000
entrusted जिम्मेदारी 0.2000000
NULL जिम्मेदारी 0.2000000
all जिम्मेदारी 0.2000000
with जिम्मेदारी 0.2000000
leadership lead 0.2000000
NULL lead 0.2000000
amidst lead 0.2000000
maximum lead 0.2000000
found lead 0.2000000
permanent corner 0.2500000
corner corner 0.5000000
book corner 0.2500000
NULL दूसरा 0.1333333
Secondly दूसरा 0.1333333
the दूसरा 0.0666667
assimilate दूसरा 0.0666667
second दूसरा 0.4000000
one दूसरा 0.0666667
The दूसरा 0.0666667
negativity दूसरा 0.0666667
Google Google 1.0000000
The बनेंगे 1.0000000
artistic कलात्मक 0.3333333
done कलात्मक 0.1666667
very कलात्मक 0.1666667
were कलात्मक 0.1666667
These कलात्मक 0.1666667
stereotype नारी 0.0526316
countrys नारी 0.0526316
Bahuratna-Vasundhara नारी 0.0526316
woman नारी 0.1052632
woman-power नारी 0.0526316
The नारी 0.0526316
has नारी 0.0526316
presented नारी 0.0526316
NULL नारी 0.2105263
women नारी 0.1052632
contributed नारी 0.0526316
there नारी 0.0526316
Chattisgarh नारी 0.0526316
power नारी 0.0526316
with डरा 0.2500000
references डरा 0.2500000
patient डरा 0.2500000
constant डरा 0.2500000
International अंतरराष्ट्रीय 0.3333333
international अंतरराष्ट्रीय 0.3333333
third अंतरराष्ट्रीय 0.3333333
beauty जज्बे 1.0000000
was दिव्यांगजन 1.0000000
contingent ontingent 0.3333333
BSF ontingent 0.3333333
biker ontingent 0.3333333
virtual virtual 1.0000000
depicting बनाये 0.1250000
type बनाये 0.1250000
this बनाये 0.1250000
NULL बनाये 0.5000000
Create बनाये 0.1250000
Raja राजा 0.3333333
King राजा 0.3333333
kings राजा 0.3333333
Nutrition रोज़गार 0.0714286
opportunities रोज़गार 0.1428571
this रोज़गार 0.0714286
way रोज़गार 0.0714286
NULL रोज़गार 0.1428571
poorer रोज़गार 0.0714286
have रोज़गार 0.0714286
got रोज़गार 0.0714286
employment रोज़गार 0.2857143
nothing नामुमकिन 1.0000000
advocated वकालत 0.5000000
had वकालत 0.5000000
spirits मई 0.0909091
Gram-Swaraj मई 0.0909091
Memories मई 0.0909091
27th मई 0.0909091
are मई 0.0909091
May मई 0.5454545
country खेलने 0.0909091
contingent खेलने 0.0909091
sports खेलने 0.0909091
play खेलने 0.0909091
regulations खेलने 0.0909091
cricket खेलने 0.0909091
our खेलने 0.1818182
morale खेलने 0.0909091
NULL खेलने 0.1818182
anew भावनाए 0.3333333
With भावनाए 0.3333333
confidence भावनाए 0.3333333
Our himavantanu 1.0000000
Visuals प्रक्षेपण 1.0000000
Tilakji तिलक 0.1363636
NULL तिलक 0.0909091
Tilak तिलक 0.4545455
Tilaks तिलक 0.0454545
Lokmanya तिलक 0.2727273
app लिखी 0.0588235
wrote लिखी 0.0588235
letter लिखी 0.1764706
Mitti लिखी 0.0588235
published लिखी 0.0588235
Nashaa लिखी 0.0588235
incarceration लिखी 0.0588235
constantly लिखी 0.0588235
written लिखी 0.0588235
straightforwardly लिखी 0.0588235
NULL लिखी 0.2941176
NULL बूढ़े 0.5000000
Hamid बूढ़े 0.5000000
Kala आमन्त्रित 0.3333333
Shantiniketan आमन्त्रित 0.3333333
Bhavan आमन्त्रित 0.3333333
If ज़ज्बा 1.0000000
NULL मज़बूत 0.1000000
kidney मज़बूत 0.1000000
pillars मज़बूत 0.1000000
strong मज़बूत 0.5000000
foundation मज़बूत 0.2000000
promoted बेल्वी 0.2000000
making बेल्वी 0.2000000
RipudamanBelviji बेल्वी 0.2000000
is बेल्वी 0.2000000
has बेल्वी 0.2000000
Pawan बेलगावी 1.0000000
orator वक्ता 1.0000000
congratulate महाराष्ट्र 0.0400000
16th महाराष्ट्र 0.0400000
in महाराष्ट्र 0.1200000
NULL महाराष्ट्र 0.1200000
completed महाराष्ट्र 0.0400000
alone महाराष्ट्र 0.0400000
Maharashtra महाराष्ट्र 0.6000000
four चार 0.4285714
4 चार 0.0952381
three-four चार 0.0952381
3-4 चार 0.0952381
NULL चार 0.0952381
few चार 0.1428571
purchases चार 0.0476190
have पढ़कर 0.5000000
studied पढ़कर 0.5000000
flame लौ 1.0000000
dig खोदना 1.0000000
all आग्रह 0.0634921
appeal आग्रह 0.0158730
urged आग्रह 0.0793651
request आग्रह 0.1269841
requested आग्रह 0.0317460
NULL आग्रह 0.0158730
urging आग्रह 0.0317460
call आग्रह 0.0158730
craft आग्रह 0.0158730
you आग्रह 0.0158730
urge आग्रह 0.2539683
dressing आग्रह 0.0158730
to आग्रह 0.3015873
drinking आग्रह 0.0158730
Olympics एबल्ड 1.0000000
Kendras औषधि 0.1428571
Aushadhi औषधि 0.2380952
NULL औषधि 0.0952381
Kendra औषधि 0.0476190
Aushidhi औषधि 0.0476190
Anshadhi औषधि 0.0476190
Jan औषधि 0.2857143
Centres औषधि 0.0952381
realized समझ 0.1428571
observe समझ 0.0714286
perplexed समझ 0.0714286
NULL समझ 0.1428571
anything समझ 0.0714286
understand समझ 0.2142857
understanding समझ 0.1428571
part समझ 0.0714286
obvious समझ 0.0714286
strength सहयोग 0.1428571
menace सहयोग 0.1428571
this सहयोग 0.1428571
NULL सहयोग 0.2857143
cooperation सहयोग 0.2857143
times वालों 0.0588235
Shabbir वालों 0.0588235
Among वालों 0.0588235
of वालों 0.0588235
widest वालों 0.0588235
listeners वालों 0.1176471
travelled वालों 0.0588235
stores वालों 0.0588235
villagers वालों 0.1176471
NULL वालों 0.0588235
those वालों 0.1176471
defector वालों 0.0588235
are वालों 0.0588235
victims वालों 0.0588235
proletarian जमीनी 1.0000000
changed बदलीं 1.0000000
much हर्ष 0.1666667
among हर्ष 0.1666667
Santosh हर्ष 0.1666667
NULL हर्ष 0.1666667
joy हर्ष 0.3333333
analyzed किया 0.0026385
performed किया 0.0052770
task किया 0.0052770
enshrinement किया 0.0026385
craft किया 0.0026385
brilliantly किया 0.0026385
herculean किया 0.0026385
fixed किया 0.0026385
geo-tagging किया 0.0026385
labour किया 0.0026385
launched किया 0.0211082
sainthood किया 0.0026385
organized किया 0.0158311
honoured किया 0.0079156
departure किया 0.0026385
terrible किया 0.0026385
have किया 0.0606860
follow किया 0.0026385
taken किया 0.0158311
Mavalyannong किया 0.0026385
acquired किया 0.0026385
bunch किया 0.0026385
proving किया 0.0026385
medal किया 0.0026385
emailed किया 0.0026385
performance किया 0.0105541
done किया 0.0079156
edited किया 0.0026385
decided किया 0.0131926
resolved किया 0.0026385
did किया 0.0158311
redirected किया 0.0026385
passed किया 0.0052770
urged किया 0.0105541
feats किया 0.0026385
led किया 0.0026385
Id किया 0.0026385
platform किया 0.0026385
versions किया 0.0026385
invited किया 0.0158311
expressed किया 0.0052770
drink किया 0.0026385
travelled किया 0.0026385
urbanization किया 0.0026385
hailed किया 0.0026385
tried किया 0.0131926
contacted किया 0.0026385
requested किया 0.0052770
scientists किया 0.0026385
. किया 0.1108179
won किया 0.0026385
grandeur किया 0.0026385
dedicated किया 0.0026385
awarded किया 0.0026385
inspired किया 0.0079156
Call किया 0.0026385
Malaria किया 0.0026385
tirelessly किया 0.0026385
attackers किया 0.0026385
conduct किया 0.0026385
brought किया 0.0131926
Sarvjanik किया 0.0026385
Masters किया 0.0026385
record किया 0.0026385
Hyderabad किया 0.0026385
channel किया 0.0026385
hard-work किया 0.0026385
recycled किया 0.0026385
denying किया 0.0026385
drawn किया 0.0026385
target किया 0.0026385
Betis किया 0.0026385
G. किया 0.0026385
Vietnamese किया 0.0026385
leadership किया 0.0026385
clandestinely किया 0.0026385
6-6 किया 0.0026385
Beat किया 0.0026385
ritual किया 0.0026385
NULL किया 0.3878628
presented किया 0.0052770
BOSON किया 0.0026385
carried किया 0.0026385
killed किया 0.0026385
Mahotsav किया 0.0026385
production किया 0.0026385
highlighting किया 0.0026385
copy किया 0.0026385
experienced किया 0.0026385
referred किया 0.0026385
initiated किया 0.0026385
took किया 0.0026385
welcomed किया 0.0026385
Festival किया 0.0052770
made किया 0.0052770
piping किया 0.0026385
Shramdaan किया 0.0026385
Blossom किया 0.0026385
floating किया 0.0026385
powers किया 0.0026385
depiction किया 0.0026385
forgiver किया 0.0026385
APMC किया 0.0026385
aesthetically किया 0.0026385
feast किया 0.0026385
integrated किया 0.0026385
embraced किया 0.0026385
SmartGaonApp किया 0.0026385
successfully किया 0.0026385
exemplary किया 0.0052770
Farmer armer 0.3333333
namely armer 0.3333333
Welfare armer 0.3333333
NULL guarantee 0.2000000
ladder guarantee 0.2000000
guarantee guarantee 0.2000000
a guarantee 0.4000000
NULL रचना 0.1666667
literary रचना 0.1666667
safeguard रचना 0.1666667
One रचना 0.1666667
creations रचना 0.1666667
drew रचना 0.1666667
An बालिका 0.5000000
NULL बालिका 0.5000000
the जिस 0.2500000
whichever जिस 0.0166667
smooth जिस 0.0166667
heartening जिस 0.0166667
goes जिस 0.0166667
When जिस 0.0166667
yet जिस 0.0166667
2018 जिस 0.0166667
afflicting जिस 0.0166667
sheet जिस 0.0166667
which जिस 0.0666667
was जिस 0.0166667
exact जिस 0.0166667
meticulous जिस 0.0166667
way जिस 0.0333333
NULL जिस 0.2166667
manner जिस 0.0333333
herculean जिस 0.0166667
shown जिस 0.0166667
Land जिस 0.0166667
enslaved जिस 0.0166667
Bhagalpur जिस 0.0166667
rather जिस 0.0166667
The जिस 0.1000000
holidays छुट्टियों 0.5000000
thereafter छुट्टियों 0.0714286
summer छुट्टियों 0.0714286
you छुट्टियों 0.2857143
NULL छुट्टियों 0.0714286
NULL भज्जू 0.2000000
Bhajju भज्जू 0.4000000
Shyam भज्जू 0.4000000
on Nadal 0.2500000
opponent Nadal 0.2500000
Nadal Nadal 0.2500000
praise Nadal 0.2500000
requirements मोड़ा 1.0000000
research दिशाओं 0.2500000
commendable दिशाओं 0.2500000
doing दिशाओं 0.2500000
is दिशाओं 0.2500000
conviction कामयाब 0.1250000
succeed कामयाब 0.2500000
set कामयाब 0.1250000
has कामयाब 0.1250000
indeed कामयाब 0.1250000
shall कामयाब 0.1250000
now कामयाब 0.1250000
repeated दुबारा 0.2000000
Javelin दुबारा 0.2000000
HELP दुबारा 0.2000000
NEED दुबारा 0.2000000
YOUR दुबारा 0.2000000
hub hub 1.0000000
Abhishek अभिषेक 0.3333333
you अभिषेक 0.1111111
It अभिषेक 0.1111111
, अभिषेक 0.1111111
Thank अभिषेक 0.1111111
has अभिषेक 0.2222222
nonvocal संवाद 0.0625000
establishing संवाद 0.0625000
with संवाद 0.0625000
just संवाद 0.0625000
became संवाद 0.0625000
remaining संवाद 0.0625000
talk संवाद 0.0625000
show संवाद 0.0625000
than संवाद 0.0625000
monologue संवाद 0.0625000
NULL संवाद 0.0625000
converse संवाद 0.0625000
mere संवाद 0.0625000
interact संवाद 0.0625000
rather संवाद 0.0625000
indirectly संवाद 0.0625000
premises मोहल्ले 0.5000000
mohallas मोहल्ले 0.5000000
Shanmuganthan शंमुगनाथन 0.5000000
Mr. शंमुगनाथन 0.5000000
North उत्तर 0.0909091
Extracting उत्तर 0.0909091
travelled उत्तर 0.1818182
Uttar उत्तर 0.2727273
north उत्तर 0.2727273
NULL उत्तर 0.0909091
J. जे 0.3333333
Rowling जे 0.3333333
K. जे 0.3333333
hardly हिन्दुस्तान 0.0869565
stirred हिन्दुस्तान 0.0434783
I हिन्दुस्तान 0.0434783
India हिन्दुस्तान 0.1304348
Chaturthi हिन्दुस्तान 0.0434783
changing हिन्दुस्तान 0.0434783
There हिन्दुस्तान 0.0434783
isnt हिन्दुस्तान 0.0434783
1915 हिन्दुस्तान 0.0434783
Krishna- हिन्दुस्तान 0.0434783
NULL हिन्दुस्तान 0.2173913
was हिन्दुस्तान 0.0434783
markets हिन्दुस्तान 0.0434783
country हिन्दुस्तान 0.1304348
in उसमें 0.2142857
Highlighting उसमें 0.0142857
pollution उसमें 0.0142857
extended उसमें 0.0142857
it उसमें 0.0285714
reward उसमें 0.0142857
procedures उसमें 0.0142857
derived उसमें 0.0142857
grade उसमें 0.0142857
Internet उसमें 0.0142857
read उसमें 0.0142857
faith उसमें 0.0142857
gift उसमें 0.0142857
handicrafts उसमें 0.0142857
Pragati उसमें 0.0142857
promise उसमें 0.0142857
whatever उसमें 0.0142857
NULL उसमें 0.3428571
participated उसमें 0.0142857
heaviest उसमें 0.0142857
mess उसमें 0.0142857
a उसमें 0.0285714
trash उसमें 0.0142857
fees उसमें 0.0142857
bounty उसमें 0.0142857
instead उसमें 0.0142857
represent उसमें 0.0142857
truth उसमें 0.0142857
region उसमें 0.0142857
have उसमें 0.0285714
look ढूंढें 0.3333333
lets ढूंढें 0.3333333
for ढूंढें 0.3333333
Narayanpur नारायणपुर 1.0000000
an rain 1.0000000
47 47 1.0000000
someone दिलाने 0.1000000
stands दिलाने 0.1000000
by दिलाने 0.1000000
working दिलाने 0.1000000
abolish दिलाने 0.1000000
NULL दिलाने 0.2000000
as दिलाने 0.1000000
fair दिलाने 0.1000000
Lawyer दिलाने 0.1000000
Yagya यज्ञ 0.5000000
task यज्ञ 0.5000000
familiar परिचित 0.2727273
are परिचित 0.2727273
with परिचित 0.4545455
will आश्चर्य 0.1428571
pleasantly आश्चर्य 0.0952381
be आश्चर्य 0.2380952
NULL आश्चर्य 0.1428571
astonishment आश्चर्य 0.0476190
surprised आश्चर्य 0.2857143
surprise आश्चर्य 0.0476190
Awards पुरस्कारों 0.1666667
gallantry पुरस्कारों 0.3333333
awards पुरस्कारों 0.5000000
close Postman 0.5000000
postmen Postman 0.5000000
awe-inspiring चाहे 0.0344828
NULL चाहे 0.3103448
Be चाहे 0.1034483
TB चाहे 0.0344828
Bharud चाहे 0.0344828
whether चाहे 0.0344828
it चाहे 0.2068966
Whether चाहे 0.1034483
Safety चाहे 0.0344828
wheat चाहे 0.0689655
The चाहे 0.0344828
decision-making सकेंगे 0.2000000
faster सकेंगे 0.2000000
will सकेंगे 0.2000000
. सकेंगे 0.2000000
allow सकेंगे 0.2000000
Despite डट 0.5000000
firm डट 0.5000000
play खेलेगा 1.0000000
brick-kiln ईंट 0.2500000
labourer ईंट 0.2500000
NULL ईंट 0.2500000
... ईंट 0.2500000
lakh लाख़ 0.5000000
recipients लाख़ 0.1250000
66 लाख़ 0.2500000
were लाख़ 0.1250000
NULL धर्म 0.2500000
religion धर्म 0.2500000
ultimate धर्म 0.1250000
ParmoDharmah धर्म 0.1250000
Ahimsa धर्म 0.1250000
Rajgir धर्म 0.1250000
discuss मानवजाति 0.1428571
paved मानवजाति 0.1428571
issues मानवजाति 0.1428571
will मानवजाति 0.1428571
humanity मानवजाति 0.1428571
at मानवजाति 0.1428571
relating मानवजाति 0.1428571
then नमूना 0.2500000
aim नमूना 0.2500000
even नमूना 0.2500000
an नमूना 0.2500000
1951 Asian 0.2500000
emailed Asian 0.2500000
other Asian 0.2500000
Asian Asian 0.2500000
very जीवन्तता 1.0000000
NULL बुलंद 0.1666667
morale बुलंद 0.3333333
boosted बुलंद 0.1666667
gets बुलंद 0.1666667
All बुलंद 0.1666667
NULL बाघों 0.2222222
The बाघों 0.1111111
population बाघों 0.3333333
tiger बाघों 0.3333333
episode episode 1.0000000
satellites सैटेलाइट्स 0.3333333
Today सैटेलाइट्स 0.3333333
Sounding सैटेलाइट्स 0.3333333
go पूरब 0.5000000
far-off पूरब 0.5000000
( श्रेष्ठ 0.0967742
One श्रेष्ठ 0.0967742
Shreshth श्रेष्ठ 0.0322581
Ek श्रेष्ठ 0.1290323
orator श्रेष्ठ 0.0322581
Shreshtha श्रेष्ठ 0.1612903
NULL श्रेष्ठ 0.0967742
Bharat श्रेष्ठ 0.3548387
Janmabhoomi जन्मभूमि 0.5000000
Ram जन्मभूमि 0.5000000
90 तेरा 1.0000000
thought मूझे 1.0000000
happy मुझे 0.0047733
privilege मुझे 0.0023866
speeches मुझे 0.0023866
ramparts मुझे 0.0023866
Third मुझे 0.0023866
Gayatri मुझे 0.0023866
Jim मुझे 0.0023866
feels मुझे 0.0023866
Someone मुझे 0.0023866
walking मुझे 0.0023866
letter मुझे 0.0047733
Ive मुझे 0.0071599
wedding मुझे 0.0023866
fortune मुझे 0.0023866
shared मुझे 0.0023866
results मुझे 0.0023866
told मुझे 0.0071599
NULL मुझे 0.1193317
disappoint मुझे 0.0023866
back मुझे 0.0023866
app मुझे 0.0023866
connection मुझे 0.0023866
I मुझे 0.5560859
glance मुझे 0.0023866
lamenting मुझे 0.0023866
exact मुझे 0.0023866
sharing मुझे 0.0023866
length मुझे 0.0023866
rising मुझे 0.0023866
Britain मुझे 0.0023866
incredible मुझे 0.0023866
heartwarming मुझे 0.0023866
NarendraModiApp मुझे 0.0071599
me मुझे 0.1885442
experiences मुझे 0.0023866
mentioning मुझे 0.0023866
confident मुझे 0.0023866
felt मुझे 0.0047733
speech मुझे 0.0023866
requesting मुझे 0.0023866
exam-related मुझे 0.0023866
YOUR मुझे 0.0023866
Western मुझे 0.0023866
my मुझे 0.0023866
admit मुझे 0.0023866
obvious मुझे 0.0023866
gentleman मुझे 0.0023866
wrote मुझे 0.0023866
birthplace मुझे 0.0023866
Red मुझे 0.0023866
benefitted मुझे 0.0023866
carrying उठाये 0.5000000
action उठाये 0.5000000
full लेती 0.1666667
force लेती 0.1666667
take लेती 0.3333333
unleashes लेती 0.1666667
rain लेती 0.1666667
children पुत्र 0.1666667
her पुत्र 0.1666667
all पुत्र 0.1666667
Gandhari-Putra पुत्र 0.1666667
are पुत्र 0.1666667
sons पुत्र 0.1666667
these NAM 1.0000000
learning जगाना 0.5000000
happened जगाना 0.5000000
at दर्शाया 1.0000000
NULL टुकड़े 0.5000000
parts टुकड़े 0.5000000
An cigarette 0.0833333
e-cigarette cigarette 0.2500000
e-cigarettes cigarette 0.1666667
NULL cigarette 0.3333333
is cigarette 0.1666667
geography भूगोल 1.0000000
provide ज़रुरतमंदों 1.0000000
diligence रहो 0.5000000
NULL रहो 0.5000000
demands मागें 1.0000000
Meena मीना 1.0000000
from वेदकाल 0.3333333
times वेदकाल 0.3333333
Vedic वेदकाल 0.3333333
smooth तेज़ी 0.0909091
very तेज़ी 0.0909091
surge तेज़ी 0.0909091
strides तेज़ी 0.0909091
fast तेज़ी 0.0909091
pace तेज़ी 0.0909091
taking तेज़ी 0.0909091
rapid तेज़ी 0.2727273
decision-making तेज़ी 0.0909091
Geetika गीतिका 0.5000000
Swami गीतिका 0.5000000
getting इण्टरेस्टिंग 0.2500000
very इण्टरेस्टिंग 0.2500000
been इण्टरेस्टिंग 0.2500000
interesting इण्टरेस्टिंग 0.2500000
regarding युवकों 0.1111111
Empire युवकों 0.1111111
youth युवकों 0.7777778
Gorakhpur गोरखपुर 1.0000000
group डी 0.2000000
D. डी 0.8000000
such हिला 0.2500000
shakes हिला 0.2500000
death हिला 0.2500000
NULL हिला 0.2500000
recipe बूटी 0.1250000
essential बूटी 0.1250000
people बूटी 0.1250000
brings बूटी 0.1250000
NULL बूटी 0.1250000
elements बूटी 0.1250000
together बूटी 0.1250000
that बूटी 0.1250000
mettle उसका 0.0133333
Medals उसका 0.0133333
juggernaut उसका 0.0133333
rises उसका 0.0133333
obstacles उसका 0.0133333
it उसका 0.0133333
are उसका 0.0133333
settlements उसका 0.0133333
17th उसका 0.0133333
the उसका 0.0933333
mentioning उसका 0.0133333
analyzed उसका 0.0133333
of उसका 0.1333333
place उसका 0.0133333
existing उसका 0.0133333
components उसका 0.0133333
study उसका 0.0133333
reaping उसका 0.0133333
on उसका 0.0133333
snatched उसका 0.0133333
brilliant उसका 0.0133333
roadmap उसका 0.0133333
NULL उसका 0.2000000
, उसका 0.0133333
their उसका 0.0266667
that उसका 0.0266667
imposed उसका 0.0133333
grandmother उसका 0.0133333
evident उसका 0.0133333
burst उसका 0.0133333
represents उसका 0.0133333
duly उसका 0.0133333
basic उसका 0.0133333
trends उसका 0.0133333
its उसका 0.0800000
which उसका 0.0133333
hailed उसका 0.0133333
earthquakes उसका 0.0133333
follow उसका 0.0133333
The NS 1.0000000
similar धारण 0.3333333
shapes धारण 0.3333333
NULL धारण 0.3333333
. धन्यवाद 0.1363636
NULL धन्यवाद 0.1136364
Thanks धन्यवाद 0.0227273
thank धन्यवाद 0.2272727
you धन्यवाद 0.1590909
many धन्यवाद 0.0681818
gratitude धन्यवाद 0.0454545
much धन्यवाद 0.0227273
Thank धन्यवाद 0.0681818
thanks धन्यवाद 0.1363636
NULL उतारने 1.0000000
Dharmah सार्थकता 0.3333333
joy-Seva सार्थकता 0.3333333
Parmo सार्थकता 0.3333333
recharging water 0.2000000
water water 0.2000000
water-policy water 0.2000000
formulated water 0.2000000
logging water 0.2000000
tonnes टन 0.5000000
its टन 0.2500000
tons टन 0.2500000
They योगः 1.0000000
with सहमत 0.3333333
agree सहमत 0.6666667
be जुड़ेगा 0.1666667
conserved जुड़ेगा 0.1666667
hands जुड़ेगा 0.1666667
will जुड़ेगा 0.3333333
join जुड़ेगा 0.1666667
Instagram nstagram 1.0000000
be उषा 1.0000000
like शत 0.1250000
accomplishing शत 0.1250000
warriors शत 0.2500000
hundred शत 0.2500000
times शत 0.1250000
would शत 0.1250000
followed करवाइए 0.1666667
mohallas करवाइए 0.1666667
Do करवाइए 0.1666667
these करवाइए 0.1666667
NULL करवाइए 0.1666667
get करवाइए 0.1666667
NULL जागता 1.0000000
Komaljis कोमल 0.2500000
suggestion कोमल 0.2500000
Komal कोमल 0.2500000
take कोमल 0.2500000
NULL रमेश 0.3333333
Ramesh रमेश 0.6666667
in मज़ेदार 0.5000000
NULL मज़ेदार 0.5000000
arrangement ताकि 0.0277778
NULL ताकि 0.1111111
ensured ताकि 0.0277778
returns ताकि 0.0277778
ensure ताकि 0.0277778
so ताकि 0.3333333
terror ताकि 0.0277778
destroy ताकि 0.0277778
for ताकि 0.0555556
that ताकि 0.3333333
grand नतीजे 0.3333333
. नतीजे 0.3333333
results नतीजे 0.3333333
practices ख़िलाफ 1.0000000
NULL तारीख़ 0.1818182
instant तारीख़ 0.0909091
privileged तारीख़ 0.0909091
28th तारीख़ 0.0909091
October तारीख़ 0.0909091
20th तारीख़ 0.0909091
after तारीख़ 0.0909091
31st तारीख़ 0.1818182
on तारीख़ 0.0909091
called लागोरी 0.3333333
Some लागोरी 0.3333333
Lagori लागोरी 0.3333333
Ananya अनन्या 0.5000000
Awasthi अनन्या 0.5000000
rupee नोट 0.2727273
a नोट 0.0909091
demonetization नोट 0.0909091
NULL नोट 0.0909091
2000 नोट 0.0909091
1000 नोट 0.0909091
500 नोट 0.0909091
notes नोट 0.1818182
minutely बारीकी 0.2500000
carefully बारीकी 0.5000000
I बारीकी 0.2500000
well खेलकूद 0.2500000
spheres खेलकूद 0.2500000
sports खेलकूद 0.2500000
as खेलकूद 0.2500000
engineering engineering 0.5000000
got engineering 0.2500000
structural engineering 0.2500000
became दीया 1.0000000
noble अनन्य 0.5000000
intention अनन्य 0.5000000
APJ ए.पी.जे 1.0000000
weapons खरीदते 0.1111111
the खरीदते 0.1111111
buy खरीदते 0.1111111
procure खरीदते 0.1111111
terrorists खरीदते 0.1111111
is खरीदते 0.1111111
to खरीदते 0.1111111
spent खरीदते 0.1111111
by खरीदते 0.1111111
motherland प्राण 0.1666667
down प्राण 0.1666667
who प्राण 0.5000000
infuse प्राण 0.1666667
hues कल्पकता 0.1666667
NULL कल्पकता 0.3333333
novel कल्पकता 0.1666667
myriad कल्पकता 0.1666667
creativity कल्पकता 0.1666667
they झोंक 0.2000000
into झोंक 0.2000000
themselves झोंक 0.2000000
flung झोंक 0.4000000
manner चालाकी 0.5000000
covert चालाकी 0.5000000
Water स्वावलंबन 0.1250000
Swawalamban स्वावलंबन 0.1250000
Abhiyan स्वावलंबन 0.1250000
Ministers स्वावलंबन 0.1250000
Campaign स्वावलंबन 0.1250000
Sufficiency स्वावलंबन 0.1250000
Jal स्वावलंबन 0.1250000
Self स्वावलंबन 0.1250000
alone बालिकायें 1.0000000
by परिश्रम 0.0434783
arduous परिश्रम 0.0434783
sheer परिश्रम 0.0869565
setting परिश्रम 0.0434783
perseverance परिश्रम 0.0869565
hard परिश्रम 0.1739130
persevered परिश्रम 0.0434783
tirelessly परिश्रम 0.0434783
has परिश्रम 0.0434783
diligence परिश्रम 0.0869565
The परिश्रम 0.0434783
one परिश्रम 0.0434783
devotion परिश्रम 0.0434783
NULL परिश्रम 0.0869565
work परिश्रम 0.0869565
empathy जगाया 1.0000000
rupees रूपए 0.4000000
repees रूपए 0.2000000
NULL रूपए 0.4000000
needs अनुरूप 0.2000000
most अनुरूप 0.2000000
NULL अनुरूप 0.4000000
suited अनुरूप 0.2000000
hockey player 0.3333333
, player 0.3333333
player player 0.3333333
students 1600 0.5000000
1600 1600 0.5000000
street गली 1.0000000
bringing 51 0.2500000
around 51 0.2500000
together 51 0.2500000
51 51 0.2500000
Each प्रतिबद्ध 0.2500000
became प्रतिबद्ध 0.2500000
committed प्रतिबद्ध 0.2500000
one प्रतिबद्ध 0.2500000
Divas प्रवासी 0.2857143
Bharatiya प्रवासी 0.4285714
Pravasi प्रवासी 0.2857143
nowhere फ़ायदा 0.1666667
benefit फ़ायदा 0.3333333
settlements फ़ायदा 0.1666667
surely फ़ायदा 0.1666667
NULL फ़ायदा 0.1666667
increase Nine 1.0000000
price करायी 0.1666667
an करायी 0.1666667
there करायी 0.1666667
available करायी 0.1666667
affordable करायी 0.1666667
at करायी 0.1666667
After पाव 1.0000000
fifty पचास 0.5000000
50 पचास 0.2500000
over पचास 0.2500000
Mission Mission 0.1250000
missions Mission 0.1250000
delighted Mission 0.1250000
NULL Mission 0.2500000
since Mission 0.1250000
attempted Mission 0.1250000
Clean Mission 0.1250000
Rath जगन्नाथ 0.0909091
The जगन्नाथ 0.0909091
Jagannath जगन्नाथ 0.3636364
Yatra जगन्नाथ 0.0909091
Lord जगन्नाथ 0.2727273
NULL जगन्नाथ 0.0909091
casteism ऊच 1.0000000
sales ट्वेंटी 1.0000000
milestone पड़ाव 0.2500000
No पड़ाव 0.2500000
bend पड़ाव 0.2500000
lull पड़ाव 0.2500000
NULL permegondanu 1.0000000
take उठाने 0.2500000
I उठाने 0.1250000
NULL उठाने 0.1250000
in उठाने 0.2500000
newness उठाने 0.2500000
its promote 1.0000000
negative नकारात्मक 1.0000000
reverence अभिव्यक्त 0.2500000
assessing अभिव्यक्त 0.2500000
clearly अभिव्यक्त 0.2500000
evident अभिव्यक्त 0.2500000
T. T. 1.0000000
Germany जर्मनी 0.5000000
France जर्मनी 0.5000000
being मची 1.0000000
following कहीं 0.0169492
traffic कहीं 0.0169492
have कहीं 0.0338983
praises कहीं 0.0169492
some कहीं 0.0338983
somewhere कहीं 0.0847458
occur कहीं 0.0169492
2015 कहीं 0.0169492
other कहीं 0.0169492
determinations कहीं 0.0169492
that कहीं 0.0169492
NULL कहीं 0.4067797
Ayush कहीं 0.0169492
places कहीं 0.0508475
fire कहीं 0.0169492
fared कहीं 0.0169492
at कहीं 0.0169492
laughed कहीं 0.0169492
or कहीं 0.0169492
throw कहीं 0.0169492
At कहीं 0.0169492
collecting कहीं 0.0169492
incendiary कहीं 0.0169492
May कहीं 0.0169492
behind कहीं 0.0169492
way कहीं 0.0169492
anywhere कहीं 0.0169492
neither कहीं 0.0169492
in MPs 0.5000000
clad MPs 0.5000000
exams papers 0.3333333
consumed papers 0.3333333
get papers 0.3333333
provide पीड़ितों 0.2222222
people पीड़ितों 0.1111111
NULL पीड़ितों 0.3333333
affected पीड़ितों 0.1111111
relief पीड़ितों 0.1111111
flood पीड़ितों 0.1111111
Jawan जय 0.0833333
gave जय 0.0833333
Kisan जय 0.1666667
slogan जय 0.0833333
NULL जय 0.0833333
Palki जय 0.0833333
Jai जय 0.3333333
his जय 0.0833333
Joshi जोशी 0.3333333
from जोशी 0.3333333
Ameya जोशी 0.3333333
inspiring जमीयत 0.5000000
volunteers जमीयत 0.5000000
granddaughter पोती 0.5000000
married पोती 0.5000000
launching लॉन्च 0.1250000
three लॉन्च 0.1250000
launched लॉन्च 0.1250000
schemes लॉन्च 0.1250000
have लॉन्च 0.1250000
NULL लॉन्च 0.2500000
recently लॉन्च 0.1250000
citys Network 1.0000000
NULL aloo 1.0000000
initiative चालू 1.0000000
launch ग्यारह 0.2000000
around ग्यारह 0.2000000
till ग्यारह 0.2000000
11 ग्यारह 0.2000000
date ग्यारह 0.2000000
NULL बापू 0.0909091
Bapus बापू 0.1363636
Bapu बापू 0.7727273
Sahu साहू 1.0000000
provided ज़ोर 0.1250000
confidence ज़ोर 0.1250000
baazu-e-qaatil ज़ोर 0.1250000
impetus ज़ोर 0.1250000
NULL ज़ोर 0.1250000
further ज़ोर 0.1250000
have ज़ोर 0.1250000
laid ज़ोर 0.1250000
storms धूल 1.0000000
NULL खिलाड़ियों 0.1538462
participants खिलाड़ियों 0.0384615
Indian खिलाड़ियों 0.0384615
medal खिलाड़ियों 0.0384615
players खिलाड़ियों 0.4230769
sportspersons खिलाड़ियों 0.1923077
Players खिलाड़ियों 0.0384615
athletes खिलाड़ियों 0.0769231
them चिन्नाथम्पी 1.0000000
This इसीलिए 0.2500000
saying इसीलिए 0.2500000
is इसीलिए 0.2500000
why इसीलिए 0.2500000
marketing उत्पाद 1.0000000
liked अच्छा 0.0123457
flowing अच्छा 0.0123457
creditable अच्छा 0.0123457
beautiful अच्छा 0.0123457
Whatever अच्छा 0.0123457
productively अच्छा 0.0123457
listening अच्छा 0.0123457
work अच्छा 0.0123457
nice अच्छा 0.0246914
NULL अच्छा 0.2469136
a अच्छा 0.0123457
enterprise अच्छा 0.0123457
has अच्छा 0.0246914
grow अच्छा 0.0123457
good अच्छा 0.3456790
indication अच्छा 0.0123457
fruitful अच्छा 0.0123457
more अच्छा 0.0123457
better अच्छा 0.0123457
commendable अच्छा 0.0123457
smoothly अच्छा 0.0123457
mentioning अच्छा 0.0123457
performed अच्छा 0.0123457
felt अच्छा 0.0370370
interest अच्छा 0.0123457
notable अच्छा 0.0123457
heartwarming अच्छा 0.0123457
Many अच्छा 0.0123457
33 अच्छा 0.0123457
needs अच्छा 0.0123457
Blossom अच्छा 0.0123457
different आवाज़ 0.0909091
NULL आवाज़ 0.1818182
hoarse आवाज़ 0.0909091
are आवाज़ 0.0909091
blast आवाज़ 0.0909091
resounds आवाज़ 0.0909091
voice आवाज़ 0.3636364
NULL भागीरथी 1.0000000
anaushadham नास्ति 0.2000000
meaning नास्ति 0.2000000
that नास्ति 0.4000000
naastimulam नास्ति 0.2000000
inaugurate Radio 0.3333333
Radio Radio 0.3333333
Channel Radio 0.3333333
innings पारी 0.5000000
Kohli पारी 0.5000000
Development evelopment 0.6666667
development evelopment 0.3333333
1600 16 0.1111111
Shivangi 16 0.1111111
16 16 0.1111111
clad 16 0.1111111
NULL 16 0.1111111
15-16 16 0.1111111
16th 16 0.2222222
only 16 0.1111111
ripened फ़सल 0.1666667
Spring फ़सल 0.1666667
crop फ़सल 0.3333333
season फ़सल 0.1666667
crops फ़सल 0.1666667
ears कान 0.3333333
Whenever कान 0.3333333
news कान 0.3333333
diya जलाते 1.0000000
prepare prepared 1.0000000
Ram रामनिरंजन 0.3333333
Niranjan रामनिरंजन 0.3333333
by रामनिरंजन 0.3333333
its बारीकियां 0.2000000
going बारीकियां 0.2000000
reveal बारीकियां 0.2000000
to बारीकियां 0.2000000
specifics बारीकियां 0.2000000
illuminate रोशनी 0.1428571
NULL रोशनी 0.2857143
lease रोशनी 0.1428571
moonlight रोशनी 0.1428571
spreading रोशनी 0.1428571
shimmering रोशनी 0.1428571
marks भागने 0.5000000
chase भागने 0.5000000
those घायल 0.2000000
injured घायल 0.2000000
earnestly घायल 0.2000000
for घायल 0.2000000
pray घायल 0.2000000
Swachha प्रारंभ 0.0526316
began प्रारंभ 0.0526316
Sarvjanik प्रारंभ 0.0526316
started प्रारंभ 0.0526316
which प्रारंभ 0.0526316
initiate प्रारंभ 0.0526316
initiated प्रारंभ 0.0526316
was प्रारंभ 0.0526316
NULL प्रारंभ 0.1052632
introducing प्रारंभ 0.0526316
launched प्रारंभ 0.2105263
commences प्रारंभ 0.0526316
Spring प्रारंभ 0.0526316
1920 प्रारंभ 0.0526316
starting प्रारंभ 0.0526316
same 1920 0.2000000
1920 1920 0.4000000
thought 1920 0.2000000
occurred 1920 0.2000000
fingertips हथेली 0.5000000
your हथेली 0.5000000
sector कृषि 0.0666667
agriculture कृषि 0.3333333
agricultural कृषि 0.3333333
NULL कृषि 0.0666667
fundamentals कृषि 0.0666667
Agricultural कृषि 0.0666667
makes कृषि 0.0666667
Suddenly मार 0.3333333
stick मार 0.3333333
a मार 0.3333333
leaves पत्ते 0.1666667
NULL पत्ते 0.3333333
peeling पत्ते 0.1666667
withered पत्ते 0.1666667
fall पत्ते 0.1666667
in ज़िद 0.2000000
NULL ज़िद 0.2000000
stuck ज़िद 0.2000000
protest ज़िद 0.2000000
Mallammas ज़िद 0.2000000
aesthetics प्रभावकारी 1.0000000
appreciated छेड़ी 1.0000000
lit मुस्कान 0.5000000
NULL मुस्कान 0.5000000
donation अंगदान 0.6000000
organ अंगदान 0.4000000
structures अनुसार 0.0833333
NULL अनुसार 0.0833333
requirement अनुसार 0.0833333
requirements अनुसार 0.0833333
according अनुसार 0.2500000
moulded अनुसार 0.0833333
with अनुसार 0.1666667
sync अनुसार 0.0833333
surroundings अनुसार 0.0833333
Sunday Sunday 0.7500000
made Sunday 0.2500000
getting मुसीबतों 0.1428571
freed मुसीबतों 0.1428571
their मुसीबतों 0.1428571
in मुसीबतों 0.1428571
them मुसीबतों 0.1428571
help मुसीबतों 0.1428571
troubles मुसीबतों 0.1428571
across diplomats 0.3333333
diplomats diplomats 0.3333333
from diplomats 0.3333333
NULL message 0.0769231
their message 0.0769231
calling message 0.0769231
messages message 0.0769231
for message 0.0769231
get message 0.0769231
phoned message 0.0769231
this message 0.0769231
recorded message 0.0769231
with message 0.0769231
me message 0.0769231
message message 0.0769231
touching message 0.0769231
solitary एकांत 0.5000000
cave एकांत 0.5000000
sacrifices शाहदतों 0.5000000
countless शाहदतों 0.5000000
Every दौड़ते 0.3333333
rushes दौड़ते 0.3333333
one दौड़ते 0.3333333
usage Rupay 0.5000000
about Rupay 0.5000000
talked आखिरी 0.1428571
last आखिरी 0.2857143
line आखिरी 0.1428571
NULL आखिरी 0.1428571
significantly आखिरी 0.1428571
important आखिरी 0.1428571
Nawaz नवाज़ 0.5000000
Sharif नवाज़ 0.5000000
flowing उभरा 1.0000000
sparkle रौनक 1.0000000
collective समष्टि 0.1428571
from समष्टि 0.2857143
the समष्टि 0.2857143
self समष्टि 0.2857143
would कहूंगा 1.0000000
NULL rganic 1.0000000
Mauritius Mauritius 1.0000000
have गढ़वाल 0.2500000
Garhwal गढ़वाल 0.2500000
also गढ़वाल 0.2500000
read गढ़वाल 0.2500000
Because भयभीत 1.0000000
Television समाचारों 1.0000000
affordable सस्ता 0.2500000
make सस्ता 0.2500000
costly सस्ता 0.2500000
they सस्ता 0.2500000
Diwali दीपावाली 0.3333333
festival दीपावाली 0.3333333
The दीपावाली 0.3333333
space space 0.5000000
program space 0.5000000
thing advance 0.2000000
advance advance 0.4000000
one advance 0.2000000
ina advance 0.2000000
will पायेगा 1.0000000
poor विकृति 1.0000000
NULL रमज़ान 0.2222222
Ramzan रमज़ान 0.7777778
lent किए 0.0666667
Everyone किए 0.0666667
has किए 0.0666667
unanimously किए 0.0666667
shapes किए 0.0666667
Sounding किए 0.0666667
cale किए 0.0666667
improvements किए 0.0666667
decisions किए 0.0666667
NULL किए 0.4000000
cause शुचिता 0.1666667
and शुचिता 0.1666667
righteousness शुचिता 0.1666667
cleanliness शुचिता 0.1666667
honesty शुचिता 0.1666667
purity शुचिता 0.1666667
is beat 0.5000000
Beat beat 0.5000000
C. सी.वी 1.0000000
photos राजदूतों 0.2000000
those राजदूतों 0.2000000
Ambassadors राजदूतों 0.4000000
shared राजदूतों 0.2000000
NULL सत्याग्रह 0.2352941
demand सत्याग्रह 0.0588235
Satyagraha सत्याग्रह 0.3529412
Champaran सत्याग्रह 0.2352941
Satyagrah सत्याग्रह 0.0588235
satyagrah सत्याग्रह 0.0588235
how लकड़ी 1.0000000
carved लेंगे 0.0833333
. लेंगे 0.1666667
NULL लेंगे 0.4166667
participate लेंगे 0.0833333
would लेंगे 0.0833333
adapt लेंगे 0.0833333
have लेंगे 0.0833333
lighting lighting 1.0000000
now गंदा 0.5000000
polluted गंदा 0.5000000
something पढ़िए 0.1111111
it पढ़िए 0.1111111
carefully पढ़िए 0.1111111
be पढ़िए 0.1111111
may पढ़िए 0.2222222
find पढ़िए 0.1111111
you पढ़िए 0.1111111
Read पढ़िए 0.1111111
was कार्यशाला 0.3333333
workshop कार्यशाला 0.3333333
organized कार्यशाला 0.3333333
NULL गुजरते 0.6666667
hawkers गुजरते 0.3333333
a मन्तर 1.0000000
starting line 0.2500000
for line 0.2500000
courses line 0.2500000
on-line line 0.2500000
Ashadhi आषाढ़ी 1.0000000
ourselves लॉकर 0.1666667
paid लॉकर 0.1666667
NULL लॉकर 0.1666667
lockers लॉकर 0.3333333
for लॉकर 0.1666667
study study 1.0000000
selected ictoria 0.3333333
was ictoria 0.3333333
Victoria ictoria 0.3333333
symbolises राष्ट्र 0.0454545
building राष्ट्र 0.0454545
awakening राष्ट्र 0.0454545
NULL राष्ट्र 0.1818182
nation राष्ट्र 0.4545455
our राष्ट्र 0.0909091
Nation राष्ट्र 0.0909091
leader राष्ट्र 0.0454545
neighbouring राष्ट्रों 0.5000000
Allies राष्ट्रों 0.5000000
strain concentrate 0.5000000
myself concentrate 0.5000000
Earlier ठूंठ 0.0833333
stump ठूंठ 0.0833333
6-6 ठूंठ 0.0833333
now ठूंठ 0.0833333
stumps ठूंठ 0.2500000
those ठूंठ 0.0833333
NULL ठूंठ 0.0833333
very ठूंठ 0.0833333
them ठूंठ 0.1666667
Ganpati गणपति 0.5000000
ecofriendly गणपति 0.5000000
Persons Persons 1.0000000
that खुशिया 0.1250000
sharing खुशिया 0.1250000
shine खुशिया 0.1250000
joy खुशिया 0.5000000
paucity खुशिया 0.1250000
NULL चाहते 0.2903226
willing चाहते 0.0322581
want चाहते 0.1290323
magnificent चाहते 0.0322581
sell चाहते 0.0322581
wish चाहते 0.0645161
reveal चाहते 0.0322581
wanted चाहते 0.0322581
to चाहते 0.2258065
wants चाहते 0.0645161
future चाहते 0.0322581
en चाहते 0.0322581
Lohia लोहिया 1.0000000
liquid इसको 0.0357143
therefore इसको 0.0357143
NULL इसको 0.1785714
further इसको 0.0357143
Read इसको 0.0357143
able इसको 0.0357143
acceptance इसको 0.0357143
channel इसको 0.0357143
see इसको 0.0357143
embraced इसको 0.0357143
it इसको 0.2142857
specific इसको 0.0357143
Make इसको 0.0357143
highlighted इसको 0.0357143
did इसको 0.0357143
chosen इसको 0.0357143
accepted इसको 0.0357143
promoted इसको 0.0357143
Trade इसको 0.0357143
NULL बुक 0.1666667
twitter बुक 0.1666667
does बुक 0.1666667
Guinness बुक 0.1666667
book बुक 0.3333333
harbourers समूल 1.0000000
or सात 0.1818182
seven सात 0.5454545
NULL सात 0.0909091
5-7 सात 0.0909091
Five सात 0.0909091
urbanization urbaniation 0.2000000
banked urbaniation 0.2000000
he urbaniation 0.2000000
reason urbaniation 0.2000000
upon urbaniation 0.2000000
was लंगर 0.2500000
solely लंगर 0.2500000
by लंगर 0.2500000
initiated लंगर 0.2500000
and बोतलें 1.0000000
information inormation 1.0000000
commitment प्रतिबद्धता 1.0000000
shall प्रगट 1.0000000
Raju राजू 1.0000000
concerted commitment 0.3333333
commitment commitment 0.3333333
efforts commitment 0.3333333
Kaushalya-Nandan नंदन 0.5000000
women-Yashoda-Nandan नंदन 0.5000000
NULL सम 0.2500000
opportunity सम 0.2500000
Equality सम 0.2500000
equal सम 0.2500000
idols विघ्न 0.2000000
such विघ्न 0.2000000
Ganeshji विघ्न 0.2000000
create विघ्न 0.2000000
problems विघ्न 0.2000000
Riyasi open 1.0000000
Indonesia इंडोनेशिया 0.6666667
me इंडोनेशिया 0.3333333
underprivileged पढाई 0.1428571
in पढाई 0.1428571
Some पढाई 0.1428571
teaching पढाई 0.1428571
be पढाई 0.1428571
must पढाई 0.1428571
engaged पढाई 0.1428571
has Nations 0.1111111
United Nations 0.1111111
Environment Nations 0.1111111
occasion Nations 0.1111111
the Nations 0.2222222
Nations Nations 0.1111111
World Nations 0.1111111
of Nations 0.1111111
Ameya अमेय 1.0000000
fail विफल 0.2500000
failed विफल 0.2500000
you विफल 0.2500000
have विफल 0.2500000
in aspirations 0.3333333
been aspirations 0.3333333
arisen aspirations 0.3333333
just फुल्का 0.5000000
light-hearted फुल्का 0.5000000
akin समान 0.1111111
shoulder समान 0.1111111
unit समान 0.1111111
equality समान 0.1111111
fighting समान 0.1111111
NULL समान 0.3333333
common समान 0.1111111
geography परे 0.3333333
NULL परे 0.3333333
gender परे 0.3333333
suppression suppression 0.5000000
its suppression 0.5000000
amounts सारथी 1.0000000
Raj Raj 1.0000000
me बैनर्जी 1.0000000
monsoon मानसून 0.3000000
NULL मानसून 0.1000000
Monsoon मानसून 0.3000000
monsoons मानसून 0.1000000
many मानसून 0.1000000
about मानसून 0.1000000
do रह 0.0555556
we रह 0.0555556
get रह 0.0555556
residing रह 0.0555556
cant रह 0.0555556
origin रह 0.0555556
lag रह 0.0555556
bins रह 0.0555556
those रह 0.0555556
NULL रह 0.2777778
living रह 0.1111111
lamenting रह 0.0555556
left रह 0.0555556
NULL देशों 0.0975610
countries देशों 0.6585366
ealous देशों 0.0243902
respective देशों 0.0243902
nations देशों 0.0975610
other देशों 0.0731707
almost देशों 0.0243902
workers मुलाज़िम 0.5000000
Government मुलाज़िम 0.5000000
as नजरे 0.3333333
model नजरे 0.3333333
example नजरे 0.3333333
similar कमेटिया 0.2500000
committees कमेटिया 0.2500000
set कमेटिया 0.2500000
up कमेटिया 0.2500000
but जज़्बा 0.1000000
all जज़्बा 0.1000000
is जज़्बा 0.3000000
NULL जज़्बा 0.2000000
zeal जज़्बा 0.1000000
above जज़्बा 0.1000000
commendable जज़्बा 0.1000000
SmartGaonApp SmartGaon 1.0000000
150 150 0.6666667
celebrating 150 0.3333333
glued चिपक 1.0000000
came निकलना 1.0000000
Tomorrow कल 0.1818182
yesterday कल 0.2272727
NULL कल 0.0909091
Yesterday कल 0.1363636
yesterdayjune कल 0.0454545
tomorrow कल 0.3181818
present भेंट 0.1000000
NULL भेंट 0.2000000
close भेंट 0.1000000
Bima भेंट 0.1000000
gift भेंट 0.4000000
by भेंट 0.1000000
contribution Ambassador 1.0000000
Pragati प्रगति 0.1428571
Indias प्रगति 0.1428571
progress प्रगति 0.2857143
only प्रगति 0.1428571
NULL प्रगति 0.2857143
NULL दोहराते 0.3333333
our दोहराते 0.3333333
Reiterating दोहराते 0.3333333
Gurudev टैगोर 0.0909091
Tagore टैगोर 0.9090909
There पैंतालीस 0.2000000
about पैंतालीस 0.2000000
40-45 पैंतालीस 0.2000000
are पैंतालीस 0.2000000
still पैंतालीस 0.2000000
appeal बढ़ाइए 0.3333333
take बढ़ाइए 0.3333333
earnestly बढ़ाइए 0.3333333
Following गौरवपूर्वक 1.0000000
his vision 0.1666667
with vision 0.1666667
vision vision 0.1666667
continuance vision 0.1666667
In vision 0.1666667
NULL vision 0.1666667
an statement 0.3333333
displaying statement 0.3333333
e-cigaretteas statement 0.3333333
literally काटकर 1.0000000
brother अखिलेश 0.3333333
Akhilesh अखिलेश 0.6666667
disappearing यू 0.3333333
UAE यू 0.3333333
Canal यू 0.3333333
strengthen चर्चाओं 0.1111111
making चर्चाओं 0.1111111
encouraging चर्चाओं 0.1111111
efforts चर्चाओं 0.1111111
democracy चर्चाओं 0.1111111
open-minded चर्चाओं 0.1111111
would चर्चाओं 0.1111111
debates चर्चाओं 0.1111111
constant चर्चाओं 0.1111111
We जीना 0.0909091
to जीना 0.0909091
preferred जीना 0.0909091
stress- जीना 0.0909091
hope जीना 0.0909091
live जीना 0.3636364
with जीना 0.0909091
living जीना 0.0909091
made कालखण्ड 0.1666667
have कालखण्ड 0.1666667
must कालखण्ड 0.1666667
one कालखण्ड 0.1666667
feel कालखण्ड 0.1666667
period कालखण्ड 0.1666667
some adventure 0.1666667
spirit adventure 0.1666667
adventure adventure 0.6666667
prevailing ta 0.0526316
in ta 0.0526316
NULL ta 0.0526316
applicable ta 0.0526316
is ta 0.0526316
affairs ta 0.0526316
huge ta 0.1052632
taxes ta 0.0526316
reform ta 0.2105263
tax ta 0.3157895
you गहरा 0.0714286
vast गहरा 0.0714286
very गहरा 0.0714286
gives गहरा 0.0714286
heartache गहरा 0.0714286
special गहरा 0.0714286
relationship गहरा 0.0714286
satisfaction गहरा 0.0714286
It गहरा 0.0714286
deep गहरा 0.2142857
NULL गहरा 0.0714286
left गहरा 0.0714286
No भुला 0.5000000
can भुला 0.5000000
hands इस्तमाल 0.2500000
in इस्तमाल 0.2500000
curbing इस्तमाल 0.2500000
join इस्तमाल 0.2500000
working-class working 0.5000000
The working 0.5000000
Desai देसाई 0.3333333
times देसाई 0.0833333
Morarji देसाई 0.1666667
by देसाई 0.0833333
held देसाई 0.0833333
bhai देसाई 0.0833333
maximum देसाई 0.0833333
number देसाई 0.0833333
number फ्री 0.5000000
1033 फ्री 0.5000000
honestly निभाऊगा 1.0000000
realizing महान 0.0571429
great महान 0.5428571
purpose महान 0.0285714
leader महान 0.0285714
glorious महान 0.0285714
wizard महान 0.0285714
distinguished महान 0.0285714
physics महान 0.0285714
NULL महान 0.0571429
scientist महान 0.0571429
awesome महान 0.0285714
Mahadevi महान 0.0285714
a महान 0.0571429
Space Space 0.2500000
space Space 0.2500000
NULL Space 0.1250000
in Space 0.1250000
realms Space 0.1250000
successful Space 0.1250000
handkerchiefs उसी 0.0232558
putting उसी 0.0232558
manner उसी 0.0232558
as उसी 0.0697674
NULL उसी 0.3023256
caught उसी 0.0232558
plan उसी 0.0232558
that उसी 0.0697674
same उसी 0.0697674
We उसी 0.0232558
Pt उसी 0.0232558
graduate उसी 0.0232558
very उसी 0.0697674
this उसी 0.0465116
Maazi उसी 0.0232558
strengthen उसी 0.0232558
wear उसी 0.0232558
Similarly उसी 0.0930233
ordinary उसी 0.0232558
table-tennis Table 1.0000000
synchronicity जुड़ 0.0400000
become जुड़ 0.0400000
NULL जुड़ 0.3600000
Magadh जुड़ 0.0400000
time जुड़ 0.0400000
phenomenon जुड़ 0.0400000
programmes जुड़ 0.0400000
kiBaat जुड़ 0.0400000
of जुड़ 0.0400000
this जुड़ 0.0400000
building जुड़ 0.0400000
part जुड़ 0.0400000
village-city जुड़ 0.0400000
Paradoxically जुड़ 0.0400000
stricken जुड़ 0.0400000
have जुड़ 0.0800000
people शोक 0.3333333
sadness शोक 0.3333333
NULL शोक 0.3333333
active सक्रिय 0.6250000
actively सक्रिय 0.1250000
proactive सक्रिय 0.0625000
contributing सक्रिय 0.0625000
preventing सक्रिय 0.0625000
NULL सक्रिय 0.0625000
join जुटें 1.0000000
NULL as 0.5000000
replacing as 0.5000000
NULL card 0.2000000
cards card 0.2000000
types card 0.2000000
Various card 0.2000000
debit card 0.2000000
of Nursery 1.0000000
time ज़माना 0.3333333
age ज़माना 0.3333333
There ज़माना 0.3333333
who लिखकर 0.3333333
written लिखकर 0.3333333
NULL लिखकर 0.3333333
Shastri शास्त्री 0.4000000
Shashtri शास्त्री 0.1000000
Bahadur शास्त्री 0.5000000
thread बांधा 1.0000000
fund und 1.0000000
offices oices 0.5000000
it oices 0.5000000
proactive action 0.2000000
taking action 0.2000000
informed action 0.2000000
action action 0.4000000
year वर्षीय 0.4000000
Shivangi वर्षीय 0.2000000
old वर्षीय 0.4000000
ancestors पूर्वजों 0.3333333
forefathers पूर्वजों 0.1666667
NULL पूर्वजों 0.0833333
made पूर्वजों 0.0833333
efforts पूर्वजों 0.0833333
by पूर्वजों 0.2500000
benefitted पढ़ी 0.1428571
Maazi पढ़ी 0.1428571
comment पढ़ी 0.1428571
wouldve पढ़ी 0.1428571
my पढ़ी 0.1428571
Exam पढ़ी 0.1428571
replied पढ़ी 0.1428571
have बांग्लादेश 0.0625000
my बांग्लादेश 0.0625000
both बांग्लादेश 0.0625000
Bangladesh बांग्लादेश 0.5625000
extend बांग्लादेश 0.0625000
We बांग्लादेश 0.0625000
as बांग्लादेश 0.0625000
NULL बांग्लादेश 0.0625000
professionals proessionals 0.7500000
we proessionals 0.2500000
in मागता 0.5000000
pour मागता 0.2500000
outset मागता 0.2500000
the स्टेशन 0.0714286
station स्टेशन 0.5000000
stations स्टेशन 0.0714286
railway स्टेशन 0.1428571
in स्टेशन 0.1428571
NULL स्टेशन 0.0714286
serve परोसते 0.3333333
members परोसते 0.3333333
themselves परोसते 0.3333333
seem दरवाज़े 0.5000000
doors दरवाज़े 0.5000000
NULL plant 0.5000000
illuminated plant 0.5000000
Baka 1500 0.5000000
1500 1500 0.5000000
touch तालिका 1.0000000
are transaction 0.2000000
witnessing transaction 0.2000000
transactions transaction 0.4000000
Digital transaction 0.2000000
non-gazetted साक्षात्कार 0.5000000
posts साक्षात्कार 0.5000000
padukas पादुका 1.0000000
Abhay आफरीन 1.0000000
roads टोकते 1.0000000
NULL करवाई 1.0000000
wild घास 0.1666667
grass घास 0.1666667
filled घास 0.1666667
completely घास 0.1666667
with घास 0.1666667
was घास 0.1666667
our ओह 0.5000000
notice ओह 0.5000000
other राज्यों 0.0227273
deserve राज्यों 0.0227273
states राज्यों 0.7272727
three राज्यों 0.0227273
holding राज्यों 0.0227273
these राज्यों 0.0681818
NULL राज्यों 0.0909091
of राज्यों 0.0227273
areas क्षेत्रों 0.1000000
GobarDhanYojana क्षेत्रों 0.1000000
contributions क्षेत्रों 0.1000000
regions क्षेत्रों 0.1000000
fields क्षेत्रों 0.1000000
aegis क्षेत्रों 0.1000000
&apos; क्षेत्रों 0.2000000
sectors क्षेत्रों 0.1000000
respective क्षेत्रों 0.1000000
committed कृतसंकल्प 1.0000000
lab lab 0.5000000
their lab 0.5000000
through बहने 0.5000000
routes बहने 0.5000000
you उम्मीद 0.2000000
NULL उम्मीद 0.1000000
will उम्मीद 0.1000000
hope उम्मीद 0.5000000
sincerely उम्मीद 0.1000000
tries कोशिश 0.0263158
one कोशिश 0.0263158
charge कोशिश 0.0263158
trying कोशिश 0.0263158
blast कोशिश 0.0263158
harder कोशिश 0.0263158
to कोशिश 0.2631579
NULL कोशिश 0.2105263
Moreover कोशिश 0.0263158
try कोशिश 0.2368421
tried कोशिश 0.1052632
where गुजारनी 1.0000000
nearby देखों 1.0000000
seas रंगीन 1.0000000
use शिवमोगा 1.0000000
scientifically समेट 0.1111111
aspects समेट 0.1111111
very समेट 0.1111111
ancestors समेट 0.1111111
NULL समेट 0.1111111
Our समेट 0.1111111
encompassed समेट 0.1111111
these समेट 0.1111111
had समेट 0.1111111
raids छापे 1.0000000
Far सुदूर 0.1428571
NULL सुदूर 0.1428571
remote सुदूर 0.5714286
off सुदूर 0.1428571
affordable aordable 1.0000000
for कारणों 1.0000000
few campaign 0.1428571
quite campaign 0.1428571
upon campaign 0.1428571
embarked campaign 0.1428571
has campaign 0.1428571
a campaign 0.1428571
campaigns campaign 0.1428571
generations मज़दूरी 0.3333333
older मज़दूरी 0.3333333
labourers मज़दूरी 0.3333333
Porbander पोरबंदर 0.2000000
Porbandar पोरबंदर 0.2000000
total पोरबंदर 0.2000000
ODF पोरबंदर 0.2000000
NULL पोरबंदर 0.2000000
voting फलस्वरूप 0.2500000
took फलस्वरूप 0.2500000
on फलस्वरूप 0.2500000
place फलस्वरूप 0.2500000
This पत्र 0.0370370
Shree पत्र 0.0370370
letters पत्र 0.2962963
number पत्र 0.0370370
admit-card पत्र 0.0370370
Bhaiya पत्र 0.0370370
NULL पत्र 0.1481481
saying पत्र 0.0370370
letter पत्र 0.3333333
NULL चलाते 0.1428571
Sewa चलाते 0.0714286
driver चलाते 0.1428571
work चलाते 0.0714286
Hi चलाते 0.0714286
Swachchata चलाते 0.0714286
meal चलाते 0.0714286
countrywide चलाते 0.0714286
a चलाते 0.2142857
running चलाते 0.0714286
eliminate बुराइयों 0.1111111
NULL बुराइयों 0.3333333
bad बुराइयों 0.1111111
habits बुराइयों 0.1111111
from बुराइयों 0.1111111
child-marriage बुराइयों 0.1111111
Evil बुराइयों 0.1111111
NULL रंग 0.4347826
colour रंग 0.0869565
blue रंग 0.0434783
colourful रंग 0.0434783
imbued रंग 0.0434783
hues रंग 0.0434783
fervor रंग 0.0434783
envelop रंग 0.0434783
spirit रंग 0.0434783
imbue रंग 0.0434783
green रंग 0.0434783
will रंग 0.0434783
Rang रंग 0.0434783
cancer जिसमें 0.0344828
our जिसमें 0.0344828
wherein जिसमें 0.0344828
NULL जिसमें 0.2068966
reforms जिसमें 0.0344828
Supreme जिसमें 0.0344828
marker जिसमें 0.0344828
BSF जिसमें 0.0344828
stating जिसमें 0.0344828
with जिसमें 0.0344828
of जिसमें 0.1034483
people जिसमें 0.0344828
Hai जिसमें 0.0344828
Europe जिसमें 0.0344828
which जिसमें 0.1724138
sublimity जिसमें 0.0344828
poorest जिसमें 0.0344828
dump जिसमें 0.0344828
sold गहने 0.3333333
jewellery गहने 0.3333333
family गहने 0.3333333
Agast क्रान्ति 0.3333333
Kranti क्रान्ति 0.6666667
peacefully सकें 0.1111111
aasans सकें 0.1111111
they सकें 0.2222222
can सकें 0.2222222
their सकें 0.1111111
curiosity सकें 0.1111111
increase सकें 0.1111111
generating दिलचस्पी 0.5000000
lot दिलचस्पी 0.5000000
mapping planning 0.5000000
planning planning 0.5000000
Kurukshetra कुरुक्षेत्र 0.3333333
In कुरुक्षेत्र 0.3333333
battlefield कुरुक्षेत्र 0.3333333
N. N.P 1.0000000
should मिल 0.0129870
march मिल 0.0259740
rewarded मिल 0.0129870
marathon मिल 0.0129870
for मिल 0.0129870
parties मिल 0.0259740
dynamism मिल 0.0129870
fingertips मिल 0.0129870
lease मिल 0.0129870
together मिल 0.0519481
getting मिल 0.0129870
dawned मिल 0.0129870
examples मिल 0.0259740
derive मिल 0.0129870
gather मिल 0.0129870
reaping मिल 0.0129870
NULL मिल 0.4805195
worries मिल 0.0129870
achieved मिल 0.0129870
millworkers मिल 0.0129870
benefits मिल 0.0259740
continuous मिल 0.0129870
that मिल 0.0259740
logging मिल 0.0129870
cheaper मिल 0.0129870
get मिल 0.0519481
biscuit मिल 0.0129870
Indu मिल 0.0129870
Commissioners मिल 0.0129870
Kutchh मिल 0.0129870
travel भाग्यशाली 1.0000000
memory recall 0.1111111
effective recall 0.1111111
exists recall 0.1111111
recall recall 0.2222222
most recall 0.1111111
that recall 0.1111111
medicine recall 0.1111111
for recall 0.1111111
smooth smooth 0.2000000
transition smooth 0.2000000
has smooth 0.2000000
place smooth 0.2000000
taken smooth 0.2000000
such भट्टा 1.0000000
every जोड़ना 0.1250000
NULL जोड़ना 0.1250000
manifestation जोड़ना 0.1250000
citizen जोड़ना 0.1250000
connect जोड़ना 0.1250000
like जोड़ना 0.1250000
You जोड़ना 0.1250000
think जोड़ना 0.1250000
twitter फेस 1.0000000
emphasized धैर्य 0.2500000
virtue धैर्य 0.2500000
patience धैर्य 0.5000000
stand that 0.5000000
that that 0.5000000
NULL मे 0.0833333
drinking मे 0.0833333
become मे 0.0833333
around मे 0.0833333
among मे 0.0833333
implicit मे 0.0833333
moving मे 0.0833333
during मे 0.2500000
folk मे 0.0833333
thing मे 0.0833333
anniversary जन्मदिन 0.1428571
birthday जन्मदिन 0.4285714
birth जन्मदिन 0.2857143
NULL जन्मदिन 0.1428571
students पेशेवर 0.3333333
professionals पेशेवर 0.3333333
housewives पेशेवर 0.3333333
completion उन्होंने 0.0047619
Producers उन्होंने 0.0047619
connection उन्होंने 0.0047619
grateful उन्होंने 0.0095238
tribals उन्होंने 0.0047619
wrote उन्होंने 0.0190476
her उन्होंने 0.0047619
they उन्होंने 0.0714286
Suchitra उन्होंने 0.0047619
Hed उन्होंने 0.0047619
Satna उन्होंने 0.0047619
constructing उन्होंने 0.0047619
she उन्होंने 0.0285714
nice उन्होंने 0.0047619
street उन्होंने 0.0047619
posted उन्होंने 0.0095238
NULL उन्होंने 0.2952381
bunch उन्होंने 0.0047619
vertical उन्होंने 0.0047619
has उन्होंने 0.0380952
desire उन्होंने 0.0047619
winning उन्होंने 0.0047619
granddaughter उन्होंने 0.0047619
Assam उन्होंने 0.0047619
She उन्होंने 0.0333333
Giri उन्होंने 0.0047619
he उन्होंने 0.1380952
complaining उन्होंने 0.0047619
inspite उन्होंने 0.0047619
resort उन्होंने 0.0047619
sharing उन्होंने 0.0047619
lying उन्होंने 0.0047619
They उन्होंने 0.0380952
chose उन्होंने 0.0095238
Golden उन्होंने 0.0047619
handed उन्होंने 0.0047619
hardship उन्होंने 0.0047619
torch उन्होंने 0.0047619
He उन्होंने 0.1809524
two week,16 1.0000000
be पशुपालकों 0.2000000
cattle पशुपालकों 0.2000000
helped पशुपालकों 0.2000000
herders पशुपालकों 0.2000000
will पशुपालकों 0.2000000
Toilets coverage 1.0000000
for सिपाही 0.1428571
mutiny सिपाही 0.1428571
partners सिपाही 0.1428571
soldier सिपाही 0.1428571
a सिपाही 0.2857143
soldiers सिपाही 0.1428571
sheer कड़ी 0.0769231
that कड़ी 0.0769231
through कड़ी 0.1538462
worthwhile कड़ी 0.0769231
for कड़ी 0.0769231
fierce कड़ी 0.0769231
NULL कड़ी 0.1538462
hard कड़ी 0.2307692
his कड़ी 0.0769231
scores scores 1.0000000
prayer विनती 0.5000000
request विनती 0.5000000
verdict इलाहाबाद 0.1428571
came इलाहाबाद 0.1428571
Allahabad इलाहाबाद 0.7142857
litter सड़क 0.2500000
a सड़क 0.2500000
road सड़क 0.2500000
accident सड़क 0.2500000
limit age 0.5000000
there age 0.5000000
have जोड़ा 0.1111111
we जोड़ा 0.1111111
added जोड़ा 0.1111111
mission जोड़ा 0.1111111
Group जोड़ा 0.1111111
NULL जोड़ा 0.3333333
been जोड़ा 0.1111111
Movement आन्दोलन 0.2222222
imposition आन्दोलन 0.0370370
struggle आन्दोलन 0.0740741
Kalanjiyam आन्दोलन 0.0370370
NULL आन्दोलन 0.0740741
movement आन्दोलन 0.4814815
1920 आन्दोलन 0.0370370
into आन्दोलन 0.0370370
achievers उड़ान 0.1250000
You उड़ान 0.1250000
are उड़ान 0.1250000
Seetharaman उड़ान 0.1250000
. उड़ान 0.2500000
right उड़ान 0.1250000
absolutely उड़ान 0.1250000
greenery ओढ़ 1.0000000
regionalism बाकि 0.5000000
other बाकि 0.5000000
who साम्राज्य 1.0000000
heaviest वज़नदार 1.0000000
bags प्रतिबंध 1.0000000
were demonstration 1.0000000
Which हिमावंतनु 0.1666667
) हिमावंतनु 0.1666667
janakaraayanu हिमावंतनु 0.1666667
broohu हिमावंतनु 0.1666667
means हिमावंतनु 0.1666667
jasuvalendanu हिमावंतनु 0.1666667
it market 0.3333333
markets market 0.3333333
NULL market 0.3333333
relying medicine 0.5000000
solely medicine 0.5000000
re-birth पुनर्जन्म 1.0000000
bullets दाग 1.0000000
NULL लाना 0.6666667
come लाना 0.3333333
egg अंडे 1.0000000
electronic electronic 0.5000000
unlike electronic 0.5000000
initiatives पहल 0.0909091
Mitra पहल 0.0909091
took पहल 0.0909091
Satellites पहल 0.0909091
initiative पहल 0.4545455
an पहल 0.0909091
NULL पहल 0.0909091
what उड़ाया 1.0000000
indebtedness ण 0.4000000
as ण 0.2000000
my ण 0.2000000
express ण 0.2000000
Parliament संसद 0.6000000
NULL संसद 0.3000000
Parliaments संसद 0.1000000
gifted सदस्यों 0.3333333
members सदस्यों 0.3333333
me सदस्यों 0.3333333
east पश्चिम 0.1333333
NULL पश्चिम 0.0666667
West पश्चिम 0.5333333
western पश्चिम 0.0666667
from पश्चिम 0.2000000
the structure 0.4000000
What structure 0.2000000
structure structure 0.2000000
should structure 0.2000000
that e 0.1666667
e-cigarettes e 0.1666667
scores e 0.1666667
e-book e 0.1666667
NULL e 0.1666667
an e 0.1666667
Synthetic sha 1.0000000
impossible होता 0.0054945
communities होता 0.0054945
wondered होता 0.0054945
NULL होता 0.3736264
Revolution होता 0.0054945
goddess होता 0.0054945
ensues होता 0.0054945
conviction होता 0.0054945
gives होता 0.0109890
season होता 0.0109890
innate होता 0.0054945
quite होता 0.0054945
pleasure होता 0.0054945
losses होता 0.0054945
harmful होता 0.0054945
vitality होता 0.0054945
praying होता 0.0054945
driven होता 0.0054945
valuable होता 0.0054945
precious होता 0.0054945
Season होता 0.0054945
seasonal होता 0.0054945
enchanted होता 0.0054945
mired होता 0.0054945
does होता 0.0109890
restricted होता 0.0054945
stands होता 0.0054945
burden होता 0.0054945
Normally होता 0.0054945
means होता 0.0054945
Pranayam होता 0.0054945
place होता 0.0054945
unlike होता 0.0054945
amounts होता 0.0054945
paid होता 0.0054945
of होता 0.0054945
destination होता 0.0054945
criticism होता 0.0054945
experiencing होता 0.0054945
satisfied होता 0.0054945
significance होता 0.0054945
makes होता 0.0054945
depleted होता 0.0054945
there होता 0.0054945
changes होता 0.0054945
impact होता 0.0054945
lull होता 0.0054945
asset होता 0.0054945
spills होता 0.0054945
ineffective होता 0.0054945
germination होता 0.0054945
evident होता 0.0054945
a होता 0.1098901
forgives होता 0.0054945
benefitted होता 0.0054945
value होता 0.0054945
carrying होता 0.0054945
tension होता 0.0054945
exemplifies होता 0.0054945
is होता 0.0219780
happens होता 0.0274725
celebration होता 0.0109890
effort होता 0.0054945
exist होता 0.0054945
precisely होता 0.0054945
It होता 0.0109890
Life होता 0.0054945
attract होता 0.0054945
barrier होता 0.0054945
fertilizer होता 0.0054945
are होता 0.0164835
frost होता 0.0054945
orders होता 0.0054945
ease होता 0.0054945
appreciated होता 0.0054945
inbuilt होता 0.0054945
realisation होता 0.0054945
hard होता 0.0054945
vigour होता 0.0054945
booking होता 0.0054945
external होता 0.0054945
aesthetics होता 0.0054945
on माध्यमों 0.2000000
side माध्यमों 0.2000000
various माध्यमों 0.2000000
your माध्यमों 0.2000000
platforms माध्यमों 0.2000000
Jagatsinghpur ओड़िशा 1.0000000
personally twin 0.3333333
twin twin 0.3333333
demonstrated twin 0.3333333
that जश्न 0.1666667
harbinger जश्न 0.1666667
between जश्न 0.1666667
exists जश्न 0.1666667
bond जश्न 0.1666667
unbreakable जश्न 0.1666667
early परिपक्व 0.3333333
at परिपक्व 0.3333333
maturity परिपक्व 0.3333333
with भरा 0.0967742
is भरा 0.1290323
diversities भरा 0.0322581
and भरा 0.0322581
heart भरा 0.0322581
climatic भरा 0.0322581
heavy भरा 0.0322581
fraught भरा 0.0322581
NULL भरा 0.2903226
brimming भरा 0.0645161
a भरा 0.0322581
collecting भरा 0.0322581
full भरा 0.0967742
filled भरा 0.0645161
The Reality 1.0000000
JanShakti4JalShakti अपना 0.0105263
future अपना 0.0105263
flag अपना 0.0105263
Satyagrah अपना 0.0105263
verdict अपना 0.0105263
2029 अपना 0.0105263
has अपना 0.0105263
litter अपना 0.0105263
lent अपना 0.0105263
focus अपना 0.0105263
introduction अपना 0.0105263
sagacity अपना 0.0105263
their अपना 0.1578947
NULL अपना 0.2210526
utilize अपना 0.0105263
contribute अपना 0.0210526
devoted अपना 0.0105263
significance अपना 0.0210526
functioning अपना 0.0105263
Guinness अपना 0.0105263
ugly अपना 0.0105263
amounts अपना 0.0105263
his अपना 0.0842105
entrepreneur अपना 0.0105263
Apna अपना 0.0210526
contribution अपना 0.0105263
contributing अपना 0.0105263
seasonal अपना 0.0105263
Old अपना 0.0105263
competing अपना 0.0105263
gentleman अपना 0.0105263
characteristic अपना 0.0105263
submit अपना 0.0105263
own अपना 0.0315789
flying अपना 0.0105263
leg अपना 0.0105263
pose अपना 0.0105263
exciting अपना 0.0105263
ShivaKumar अपना 0.0105263
tender अपना 0.0105263
zeal अपना 0.0105263
lives अपना 0.0210526
skills अपना 0.0105263
policy अपना 0.0105263
sell अपना 0.0105263
retirement अपना 0.0105263
fortunate अपना 0.0105263
coveted अपना 0.0105263
At वहीं 0.2500000
NULL वहीं 0.6250000
Whereas वहीं 0.1250000
exercises योगा 0.2000000
campaign योगा 0.2000000
Yoga योगा 0.2000000
yogic योगा 0.2000000
call योगा 0.2000000
looking नज़रिया 0.1250000
our नज़रिया 0.1250000
perception नज़रिया 0.1250000
NULL नज़रिया 0.1250000
way नज़रिया 0.2500000
at नज़रिया 0.1250000
life नज़रिया 0.1250000
skills सोनाली 0.3333333
Sonali सोनाली 0.6666667
is खबर 0.4000000
news खबर 0.2000000
development खबर 0.2000000
there खबर 0.2000000
trends trends 1.0000000
federalism ederalism 0.8000000
co-operative ederalism 0.2000000
, उपाध्याय 0.2500000
Upadhyaya उपाध्याय 0.2500000
Deendayal उपाध्याय 0.2500000
Dayal उपाध्याय 0.2500000
sheer व्यापकता 0.3333333
spread व्यापकता 0.3333333
size व्यापकता 0.3333333
endeavor चढ़ 0.2000000
part चढ़ 0.2000000
bane चढ़ 0.2000000
entire चढ़ 0.2000000
participating चढ़ 0.2000000
full प्राणवान 0.5000000
grand प्राणवान 0.5000000
by विनाश 0.1428571
Destruction विनाश 0.1428571
destructive विनाश 0.1428571
NULL विनाश 0.2857143
environment विनाश 0.1428571
destroying विनाश 0.1428571
They bags 1.0000000
snow बर्फ़ 1.0000000
attires परिवेश 0.3333333
environment परिवेश 0.3333333
maritime परिवेश 0.3333333
Doctors octors 0.5000000
mention octors 0.5000000
instinct प्रवृति 0.2000000
well प्रवृति 0.2000000
an प्रवृति 0.2000000
as प्रवृति 0.4000000
Lal देवीलाल 1.0000000
realize एक.एक 1.0000000
program प्रोग्राम 0.3333333
Town प्रोग्राम 0.3333333
Hall प्रोग्राम 0.3333333
Diabetics diabetes 0.0666667
Diabetes diabetes 0.4000000
blood diabetes 0.0666667
is diabetes 0.2000000
defeat diabetes 0.1333333
NULL diabetes 0.1333333
together जगाएगी 0.3333333
performing जगाएगी 0.3333333
evoke जगाएगी 0.3333333
NULL विमर्श 0.2500000
automatically विमर्श 0.2500000
ensues विमर्श 0.2500000
customers विमर्श 0.2500000
Vyapari डिजि 0.1250000
In डिजि 0.1250000
Digi-Dhan डिजि 0.5000000
Vyapar डिजि 0.1250000
culmination डिजि 0.1250000
Jawed जावेद 0.1818182
especially जावेद 0.0909091
NULL जावेद 0.0909091
mentioning जावेद 0.0909091
just जावेद 0.0909091
his जावेद 0.0909091
because जावेद 0.0909091
Javed जावेद 0.0909091
case जावेद 0.0909091
Is जावेद 0.0909091
eve संध्या 1.0000000
Newspaper page 1.0000000
NULL वाकई 0.1666667
performance वाकई 0.1666667
striking वाकई 0.1666667
really वाकई 0.3333333
it वाकई 0.1666667
expressed एस 0.1111111
has एस 0.1111111
Ji एस 0.1111111
S. एस 0.3333333
feelings एस 0.1111111
his एस 0.1111111
Sunder एस 0.1111111
die सुनानी 1.0000000
from प्रारम्भिक 0.5000000
time प्रारम्भिक 0.5000000
. निभायेगा 1.0000000
Garden butterly 0.5000000
Butterfly butterly 0.5000000
won विजयपताकायें 1.0000000
to टोपी 0.2000000
NULL टोपी 0.4000000
wear टोपी 0.2000000
cap टोपी 0.2000000
announcements घोषणा 0.0909091
announced घोषणा 0.0909091
have घोषणा 0.0909091
NULL घोषणा 0.1818182
an घोषणा 0.0909091
committee घोषणा 0.0909091
announcement घोषणा 0.1818182
Cabinet घोषणा 0.0909091
made घोषणा 0.0909091
very सपने 0.0555556
resolves सपने 0.0555556
get सपने 0.0555556
dream सपने 0.2222222
dreams सपने 0.2777778
nurture सपने 0.0555556
NULL सपने 0.0555556
fulfilled सपने 0.0555556
wish सपने 0.0555556
all सपने 0.0555556
that सपने 0.0555556
drafted नियम 0.1428571
rules नियम 0.4285714
have नियम 0.2857143
mandatory नियम 0.1428571
is द्वीप 0.1428571
Elephanta द्वीप 0.4285714
island द्वीप 0.1428571
Island द्वीप 0.1428571
islands द्वीप 0.1428571
who जंग 0.1428571
someone जंग 0.1428571
produce जंग 0.1428571
battle जंग 0.1428571
NULL जंग 0.1428571
fighting जंग 0.1428571
contributed जंग 0.1428571
gainful साधनों 0.3333333
pursuing साधनों 0.3333333
means साधनों 0.3333333
intellectual वैचारिक 1.0000000
what महादेवी 0.1111111
Ji महादेवी 0.1111111
us महादेवी 0.1111111
Mahadevi महादेवी 0.2222222
also महादेवी 0.1111111
do महादेवी 0.1111111
let महादेवी 0.1111111
used महादेवी 0.1111111
everytime तोड़ते 0.3333333
NULL तोड़ते 0.6666667
Wooden पंढरपुर 0.1428571
Pandharpur पंढरपुर 0.7142857
visit पंढरपुर 0.1428571
were राशि 0.1666667
a राशि 0.1666667
they राशि 0.1666667
sum राशि 0.3333333
provided राशि 0.1666667
NULL शासन 0.2142857
adopted शासन 0.0714286
shake शासन 0.0714286
people शासन 0.0714286
administrative शासन 0.0714286
government शासन 0.2142857
administration शासन 0.1428571
rule शासन 0.1428571
come संपर्क 0.0714286
contacted संपर्क 0.0714286
in संपर्क 0.1428571
with संपर्क 0.2142857
not संपर्क 0.0714286
touch संपर्क 0.0714286
form संपर्क 0.0714286
contact संपर्क 0.1428571
regular संपर्क 0.0714286
Im संपर्क 0.0714286
similarly आत्मा 0.2500000
soul आत्मा 0.2500000
: आत्मा 0.2500000
it आत्मा 0.2500000
basis regularly 1.0000000
are उतनी 0.0909091
concerned उतनी 0.0909091
equal उतनी 0.0909091
NULL उतनी 0.2727273
saved उतनी 0.0909091
proclaimed उतनी 0.0909091
am उतनी 0.0909091
complimenting उतनी 0.0909091
involvement उतनी 0.0909091
illustrious 6 0.1111111
6th 6 0.1111111
six 6 0.3333333
6 6 0.3333333
oncoming 6 0.1111111
fifteen 15 0.0408163
15thAugust 15 0.0408163
NULL 15 0.0612245
15 15 0.2653061
15-20 15 0.0408163
15,000 15 0.0204082
on 15 0.1632653
15th 15 0.3469388
for 15 0.0204082
NULL संगठन 0.2307692
Youth संगठन 0.0769231
Social संगठन 0.0769231
organisations संगठन 0.3076923
citizens संगठन 0.0769231
organising संगठन 0.0769231
organisational संगठन 0.0769231
organizations संगठन 0.0769231
garbage कचरा 0.1176471
sift कचरा 0.0588235
or कचरा 0.0588235
with कचरा 0.0588235
useless कचरा 0.0588235
festivals कचरा 0.0588235
trash कचरा 0.1764706
surrounding कचरा 0.0588235
such कचरा 0.0588235
NULL कचरा 0.1764706
decomposed कचरा 0.0588235
collected कचरा 0.0588235
Biswal बताया 0.0222222
replied बताया 0.0222222
now बताया 0.0222222
Porbandar बताया 0.0222222
have बताया 0.1777778
me बताया 0.0666667
NULL बताया 0.0666667
been बताया 0.2000000
told बताया 0.3333333
Disability बताया 0.0222222
am बताया 0.0222222
shared बताया 0.0222222
Grahak ग्राहक 0.1000000
hundred ग्राहक 0.1000000
Graahak ग्राहक 0.1000000
100 ग्राहक 0.1000000
NULL ग्राहक 0.1000000
under ग्राहक 0.1000000
customers ग्राहक 0.1000000
Lucky ग्राहक 0.2000000
complete ग्राहक 0.1000000
. रखूंगा 1.0000000
it seasonal 1.0000000
agonized आघात 0.5000000
harm आघात 0.5000000
loan आठ 0.1428571
week आठ 0.1428571
average आठ 0.1428571
NULL आठ 0.1428571
or आठ 0.1428571
eight आठ 0.1428571
so आठ 0.1428571
typing लू 0.1666667
If लू 0.1666667
, लू 0.3333333
NULL लू 0.3333333
abroad विदेशों 0.2500000
Perhaps विदेशों 0.2500000
The विदेशों 0.2500000
import विदेशों 0.2500000
Avani अवनी 0.5000000
have अवनी 0.5000000
brief सुनवाई 0.2000000
a सुनवाई 0.4000000
hearing सुनवाई 0.4000000
favourite biscuit 0.1666667
if biscuit 0.1666667
on biscuit 0.1666667
your biscuit 0.1666667
possible biscuit 0.1666667
biscuit biscuit 0.1666667
thing बताना 0.0400000
he बताना 0.0400000
about बताना 0.0400000
tell बताना 0.1600000
my बताना 0.0400000
you बताना 0.1600000
with बताना 0.0800000
to बताना 0.1200000
share बताना 0.0800000
another बताना 0.0400000
like बताना 0.0400000
does बताना 0.0400000
Javed बताना 0.0400000
NULL बताना 0.0800000
which sketch 1.0000000
Sikkim ऐसे 0.0097087
utilised ऐसे 0.0097087
structural ऐसे 0.0097087
mounted ऐसे 0.0097087
bargain ऐसे 0.0097087
NULL ऐसे 0.3883495
managed ऐसे 0.0097087
such ऐसे 0.2718447
Neither ऐसे 0.0097087
points ऐसे 0.0097087
Dhanera ऐसे 0.0097087
Goddess ऐसे 0.0097087
conscientious ऐसे 0.0194175
examples ऐसे 0.0097087
rending ऐसे 0.0097087
citations ऐसे 0.0097087
amazing ऐसे 0.0097087
met ऐसे 0.0097087
progressive ऐसे 0.0097087
3rd ऐसे 0.0097087
leader ऐसे 0.0194175
There ऐसे 0.0097087
Officers ऐसे 0.0097087
dismal ऐसे 0.0097087
quick ऐसे 0.0097087
succour ऐसे 0.0097087
Mani ऐसे 0.0097087
Nelson ऐसे 0.0097087
colleges ऐसे 0.0097087
several ऐसे 0.0097087
In ऐसे 0.0388350
separating ऐसे 0.0097087
whether कविताओं 1.0000000
NULL घरेलू 0.2500000
units घरेलू 0.2500000
To घरेलू 0.2500000
household घरेलू 0.2500000
On पूजते 1.0000000
well इन्तजार 0.2000000
a इन्तजार 0.2000000
awaits इन्तजार 0.2000000
doing इन्तजार 0.2000000
for इन्तजार 0.2000000
has जिज्ञासुओं 1.0000000
Vyayam is 0.1111111
womanhood is 0.1111111
NULL is 0.1111111
Mercy is 0.1111111
is is 0.5555556
ago माननीय 0.5000000
Honble माननीय 0.5000000
Netajis नेताजी 0.0833333
Netaji नेताजी 0.5000000
NULL नेताजी 0.4166667
these चाहतें 0.2500000
want चाहतें 0.2500000
strengthen चाहतें 0.2500000
people चाहतें 0.2500000
as सिरे 0.2000000
worldwide सिरे 0.2000000
recognition सिरे 0.2000000
attained सिरे 0.2000000
arrived सिरे 0.2000000
successful कोटि 0.0500000
achievement कोटि 0.0500000
crores कोटि 0.0500000
NULL कोटि 0.2500000
felicity कोटि 0.0500000
righteous कोटि 0.0500000
similar कोटि 0.0500000
millions कोटि 0.1500000
nonetheless कोटि 0.0500000
of कोटि 0.2000000
this कोटि 0.0500000
Celebrations elebration 1.0000000
Rabindranath रवीन्द्रनाथ 1.0000000
chords rest 1.0000000
October अक्टूबर 0.7812500
2nd अक्टूबर 0.1562500
31stOctober अक्टूबर 0.0312500
NULL अक्टूबर 0.0312500
entangled उलझा 1.0000000
entrepreneurs उद्यमी 1.0000000
comes सफलताए 1.0000000
fauna वनस्पतियों 0.5000000
flora वनस्पतियों 0.5000000
within साक्षात् 0.2500000
resides साक्षात् 0.2500000
master साक्षात् 0.2500000
Absolute साक्षात् 0.2500000
take दिनचर्या 0.3333333
20-25-30 दिनचर्या 0.3333333
should दिनचर्या 0.3333333
Govinda-Govinda जयघोष 1.0000000
been detect 1.0000000
who जूझते 0.5000000
their जूझते 0.5000000
large संख्या 0.2068966
figure संख्या 0.0344828
number संख्या 0.3103448
decreasing संख्या 0.0344828
numbers संख्या 0.1034483
NULL संख्या 0.2758621
dwindling संख्या 0.0344828
fortnight महीने 0.0144928
for महीने 0.0144928
lantern महीने 0.0144928
months महीने 0.2173913
Blind महीने 0.0144928
9th महीने 0.0144928
Ramazan महीने 0.0144928
April महीने 0.0144928
month महीने 0.5797101
NULL महीने 0.1014493
focus केन्द्रित 0.2500000
on केन्द्रित 0.2500000
NULL केन्द्रित 0.2500000
Beat केन्द्रित 0.2500000
from पका 0.1666667
cigarettes पका 0.1666667
cooking पका 0.1666667
while पका 0.1666667
400 पका 0.1666667
food पका 0.1666667
Japan जापान 0.6000000
take जापान 0.2000000
NULL जापान 0.2000000
had किस्मत 1.0000000
Devnath walk 1.0000000
even पहुंच 0.5000000
Youths पहुंच 0.5000000
was 12वीं 0.2000000
them 12वीं 0.2000000
Shraddha 12वीं 0.2000000
Thamban 12वीं 0.2000000
from 12वीं 0.2000000
darkness अंधेरे 0.3333333
fighting अंधेरे 0.3333333
darkened अंधेरे 0.3333333
as हाल 0.1428571
market हाल 0.1428571
NULL हाल 0.2857143
recently हाल 0.1428571
Just हाल 0.2857143
cheer रंगबिरंगी 0.5000000
colourful रंगबिरंगी 0.5000000
89 89.33 1.0000000
Mandals मंडल 1.0000000
hesitate पहुंचा 1.0000000
tagging tag 0.3333333
each tag 0.1666667
spread tag 0.1666667
are tag 0.1666667
they tag 0.1666667
this नंबर 0.3000000
number नंबर 0.4000000
1033 नंबर 0.1000000
larger नंबर 0.1000000
studying नंबर 0.1000000
prevention रुकी 1.0000000
Columbia दुर्घटना 0.0909091
We दुर्घटना 0.0909091
accident दुर्घटना 0.2727273
visual दुर्घटना 0.0909091
NULL दुर्घटना 0.1818182
an दुर्घटना 0.1818182
witnessing दुर्घटना 0.0909091
2967 2967 1.0000000
ministers मंत्रियों 1.0000000
inherent स्थायी 0.3333333
permanent स्थायी 0.3333333
potent स्थायी 0.3333333
winning जीता 0.1428571
globe जीता 0.1428571
NULL जीता 0.1428571
javelin जीता 0.1428571
. जीता 0.1428571
won जीता 0.2857143
he चिंताओं 0.2500000
probably चिंताओं 0.2500000
become चिंताओं 0.2500000
will चिंताओं 0.2500000
comes पगडंडियां 1.0000000
Team 36 0.1250000
long 36 0.1250000
Womens 36 0.1250000
qualified 36 0.1250000
Our 36 0.1250000
36 36 0.1250000
Hockey 36 0.1250000
for 36 0.1250000
herbal herbal 0.5000000
medicines herbal 0.5000000
geo-tagging टैग 0.2000000
scheme टैग 0.4000000
involves टैग 0.2000000
incredibleindia टैग 0.2000000
increasing दिनों 0.0070423
ten-day दिनों 0.0070423
Chaturthi दिनों 0.0070423
fire दिनों 0.0070423
I दिनों 0.0070423
days दिनों 0.3661972
travelling दिनों 0.0070423
Everybody दिनों 0.0070423
-Sheetal दिनों 0.0070423
few दिनों 0.1338028
recent दिनों 0.0070423
the दिनों 0.0070423
stirred दिनों 0.0070423
recently दिनों 0.0140845
meet दिनों 0.0070423
possibility दिनों 0.0070423
days- दिनों 0.0070423
past दिनों 0.0070423
NULL दिनों 0.2183099
, दिनों 0.0704225
ago दिनों 0.0140845
Raksha दिनों 0.0070423
Recently दिनों 0.0633803
borne दिनों 0.0070423
He अर्थात 1.0000000
courage बुद्धिमत्ता 0.1666667
a बुद्धिमत्ता 0.1666667
to बुद्धिमत्ता 0.3333333
mirror बुद्धिमत्ता 0.1666667
show बुद्धिमत्ता 0.1666667
signals तोड़ 0.3333333
NULL तोड़ 0.3333333
decency तोड़ 0.3333333
Sabhas इलाकों 0.3333333
localities इलाकों 0.3333333
NULL इलाकों 0.3333333
r -एकमपि 0.5000000
: -एकमपि 0.5000000
merrily हसते 1.0000000
sacrificed शहीदों 0.1000000
NULL शहीदों 0.1000000
martyrs शहीदों 0.6000000
our शहीदों 0.1000000
who शहीदों 0.1000000
Karnataka कर्नाटक 1.0000000
Kasrils Kasrils 0.5000000
Ronnie Kasrils 0.5000000
was गुरुदेव 0.0909091
also गुरुदेव 0.0909091
see गुरुदेव 0.0909091
Gurudev गुरुदेव 0.7272727
will बनायेंगे 1.0000000
Sovereign gold 0.5000000
Gold gold 0.5000000
his चेहरों 1.0000000
organization organiation 0.5000000
inculcate organiation 0.5000000
facility खड़ी 0.2500000
challenges खड़ी 0.2500000
initiated खड़ी 0.2500000
Sarees खड़ी 0.2500000
vegetation वनस्पति 0.5000000
medicinal वनस्पति 0.5000000
prudence सक्रियता 0.2000000
celebrated सक्रियता 0.2000000
connect सक्रियता 0.2000000
actively सक्रियता 0.2000000
activism सक्रियता 0.2000000
Diabetes मेजबानी 0.2000000
which मेजबानी 0.2000000
host मेजबानी 0.2000000
defeat मेजबानी 0.2000000
plays मेजबानी 0.2000000
foresaw केवल 0.0400000
emphasized केवल 0.0400000
discovery केवल 0.0400000
entrepreneur केवल 0.0400000
only केवल 0.5600000
Nobel केवल 0.0400000
mutiny केवल 0.0400000
war केवल 0.0400000
Open केवल 0.0400000
ailments केवल 0.0400000
flag केवल 0.0400000
evaluated केवल 0.0400000
about 84 0.5000000
84 84 0.5000000
around फेंकता 1.0000000
friendly अनुकूल 1.0000000
led omen 0.1666667
NULL omen 0.1666667
an omen 0.1666667
woman omen 0.1666667
crew omen 0.1666667
Kshamata omen 0.1666667
excellence promotion 0.5000000
promotion promotion 0.5000000
tread -जितना 0.5000000
shall -जितना 0.5000000
wander उधर 0.5000000
side उधर 0.5000000
NULL बढ़ी 0.0714286
increase बढ़ी 0.0714286
increased बढ़ी 0.2857143
substantially बढ़ी 0.0714286
also बढ़ी 0.0714286
high बढ़ी 0.0714286
has बढ़ी 0.3571429
NULL जुट 0.5000000
up जुट 0.2500000
have जुट 0.2500000
fake pad 0.5000000
pads pad 0.5000000
RipudamanBelviji रिपुदमन 0.5000000
Ripudaman रिपुदमन 0.5000000
together बहाया 0.1666667
toiled बहाया 0.1666667
came बहाया 0.1666667
and बहाया 0.1666667
collectively बहाया 0.1666667
They बहाया 0.1666667
Mohammad शफ़ी 0.4000000
Shafi शफ़ी 0.4000000
NULL शफ़ी 0.2000000
Ellora एलोरा 1.0000000
Afghanistan Arab 0.2000000
and Arab 0.2000000
Saudi Arab 0.2000000
Iraq Arab 0.2000000
Arabia Arab 0.2000000
his तुम्हे 1.0000000
hero हीरो.और 1.0000000
emerges उभरती 1.0000000
create create 0.2500000
assets create 0.2500000
been create 0.2500000
given create 0.2500000
National National 1.0000000
passenger Train 1.0000000
is फिरना 1.0000000
ealand ealand 0.5000000
had ealand 0.2500000
recently ealand 0.2500000
I बराबर 0.4000000
House बराबर 0.2000000
who बराबर 0.4000000
States उन 0.0135135
lyricism उन 0.0135135
figures उन 0.0135135
extraordinary उन 0.0135135
millworkers उन 0.0135135
municipalities उन 0.0135135
venues उन 0.0135135
Vizianagaram उन 0.0135135
those उन 0.3513514
thrice उन 0.0135135
NULL उन 0.3243243
remove उन 0.0135135
traditional उन 0.0135135
kindlewood उन 0.0135135
meagre उन 0.0135135
these उन 0.0675676
elements उन 0.0135135
men उन 0.0135135
laud उन 0.0135135
thwarted उन 0.0135135
Mudra उन 0.0135135
voices उन 0.0135135
well-equipped ncubation 0.3333333
Incubation ncubation 0.3333333
Centres ncubation 0.3333333
NAVIC NAI 0.3333333
are NAI 0.3333333
devices NAI 0.3333333
foundations बल्कि 0.0370370
entrepreneurs बल्कि 0.0370370
led बल्कि 0.0370370
Medvedev बल्कि 0.0370370
but बल्कि 0.5185185
dent बल्कि 0.0370370
areaof बल्कि 0.0370370
cabinets बल्कि 0.0370370
physics बल्कि 0.0370370
application बल्कि 0.0370370
NULL बल्कि 0.0740741
protected बल्कि 0.0370370
protection बल्कि 0.0370370
NULL मंत्रालयों 0.5000000
Ministries मंत्रालयों 0.5000000
with Jan 0.5000000
along Jan 0.5000000
inclusion inancial 1.0000000
NULL कइयों 0.1666667
are कइयों 0.1666667
who कइयों 0.1666667
Those कइयों 0.1666667
talented कइयों 0.1666667
artistically कइयों 0.1666667
NULL आम्बेडकर 0.1000000
Ambedkar आम्बेडकर 0.6000000
is आम्बेडकर 0.1000000
Dr. आम्बेडकर 0.2000000
NULL सुनने 0.1250000
to सुनने 0.1250000
them सुनने 0.1250000
fitting सुनने 0.0625000
speak सुनने 0.0625000
hear सुनने 0.1250000
After सुनने 0.0625000
listeners सुनने 0.1250000
Wednesday सुनने 0.0625000
listening सुनने 0.1250000
bit मार्गदर्शक 0.2000000
guide मार्गदर्शक 0.2000000
is मार्गदर्शक 0.2000000
our मार्गदर्शक 0.2000000
forever मार्गदर्शक 0.2000000
included भी 0.0008097
would भी 0.0048583
shortcoming भी 0.0008097
thought भी 0.0008097
similar भी 0.0008097
vigour भी 0.0008097
whenever भी 0.0024291
pot भी 0.0008097
heroes भी 0.0008097
Ki भी 0.0008097
ladder भी 0.0008097
beaches भी 0.0008097
Or भी 0.0008097
point भी 0.0008097
so भी 0.0024291
sacrificed भी 0.0016194
health भी 0.0008097
cultivation भी 0.0016194
purely भी 0.0008097
distributed भी 0.0008097
making भी 0.0024291
playing भी 0.0008097
disqualify भी 0.0008097
understanding भी 0.0008097
touring भी 0.0008097
surrounding भी 0.0008097
character भी 0.0008097
Whenever भी 0.0016194
wasted भी 0.0016194
it भी 0.0008097
promoting भी 0.0008097
Fortnight भी 0.0008097
well भी 0.0129555
guarantee भी 0.0008097
nominate भी 0.0008097
collapses भी 0.0008097
educative भी 0.0008097
storage भी 0.0008097
There भी 0.0008097
role भी 0.0008097
unparalleled भी 0.0008097
highlighted भी 0.0008097
restoration भी 0.0008097
despite भी 0.0056680
reverence भी 0.0032389
excessive भी 0.0008097
No भी 0.0016194
creating भी 0.0008097
realm भी 0.0008097
successful भी 0.0008097
come भी 0.0016194
work भी 0.0016194
Even भी 0.0040486
attractions भी 0.0008097
taken भी 0.0008097
reiterating भी 0.0008097
disgust भी 0.0008097
organized भी 0.0016194
healthcare भी 0.0008097
quite भी 0.0016194
