येलप्पा Mr. 0.0769231
येलप्पा from 0.0044643
येलप्पा call 0.0285714
येलप्पा Yellappa 1.0000000
येलप्पा Ji 0.0172414
येलप्पा NULL 0.0000425
येलप्पा Velankar 0.1666667
बढ़कर so 0.0083333
बढ़कर magnificent 0.1428571
बढ़कर witness 0.0555556
बढ़कर any 0.0111111
बढ़कर NULL 0.0000850
बढ़कर scenes 0.1666667
बढ़कर pleasure 0.0833333
बढ़कर many 0.0047847
बढ़कर be 0.0016978
बढ़कर cannot 0.0588235
बढ़कर bigger 0.3333333
तंजावुर Brihdeshwar 0.2500000
नाज़ of 0.0003116
नाज़ as 0.0023148
नाज़ army 0.1428571
तीर्थयात्री pilgrims 0.2500000
तीर्थयात्री warkari 0.2000000
सम्मानित arms 0.1666667
सम्मानित NULL 0.0000850
सम्मानित honoured 0.3636364
सम्मानित with 0.0034130
सम्मानित esteemed 0.5000000
Moscow Moscow 1.0000000
Moscow , 0.0002255
सफ़लता on 0.0014859
सफ़लता success 0.0731707
सफ़लता achieved 0.0909091
सिस्टर felt 0.0270270
सिस्टर tributes 0.0526316
सिस्टर Sister 0.4000000
सिस्टर pay 0.0200000
सिस्टर heart 0.0188679
मनीषा Dhurve 0.5000000
लाभार्थी via 0.2500000
लाभार्थी aims 0.5000000
लाभार्थी Aadhar 1.0000000
लाभार्थी bank 0.0384615
लाभार्थी beneficiaries 0.1666667
लाभार्थी at 0.0042194
लाभार्थी accounts 0.0769231
बोर्ड boards 1.0000000
PAT machines 0.1000000
PAT VVPAT 0.3333333
PAT ... 0.0222222
मिलता learn 0.0512821
मिलता NULL 0.0003398
मिलता scientist 0.0714286
मिलता lifestyles 1.0000000
मिलता satisfaction 0.0526316
मिलता bolstering 0.1428571
मिलता enable 0.2000000
मिलता get 0.0588235
मिलता Lion 1.0000000
मिलता prize 0.2500000
मिलता encouraged 0.1000000
परिवर्तित a 0.0005128
परिवर्तित turn 0.1428571
परिवर्तित NULL 0.0001274
परिवर्तित into 0.0377358
परिवर्तित these 0.0036765
नुकसान loss 0.1250000
नुकसान deteriorated 0.1666667
नुकसान it 0.0018083
नुकसान losses 0.1428571
नुकसान damage 0.3333333
नुकसान anywhere 0.2500000
नुकसान NULL 0.0001274
नुकसान any 0.0222222
नुकसान cause 0.0454545
पुणे young 0.0098039
पुणे watchful 0.1111111
पुणे Ameya 0.2500000
पुणे Pune 0.6000000
पुणे from 0.0022321
पुणे daughter 0.0434783
जवाब to 0.0003876
जवाब questions 0.1111111
जवाब NULL 0.0001274
जवाब the 0.0004638
जवाब No 0.0555556
जवाब answer 0.4000000
जवाब her 0.0108696
जवाब given 0.0243902
जवाब Indonesia 0.2500000
जवाब query 0.2500000
बोध us 0.0048544
बोध NULL 0.0000425
बोध something 0.0095238
बोध teaches 0.5000000
समझें understand 0.0769231
समझें should 0.0087719
समझें it 0.0018083
समझें try 0.0217391
समझें and 0.0009510
महात्म्य sagacity 0.5000000
महात्म्य sanctity 0.2500000
महात्म्य NULL 0.0000425
महात्म्य contributed 0.0666667
महात्म्य through 0.0058480
कार्यशैली style 0.1000000
कार्यशैली amply 1.0000000
कार्यशैली working 0.0277778
लगन grit 0.3333333
लगन persistence 1.0000000
लगन perseverance 0.1666667
ऐप App 0.0312500
ऐप Namo 0.3333333
मौसम season 0.2500000
मौसम due 0.0322581
मौसम NULL 0.0001274
मौसम month 0.0149254
मौसम The 0.0029499
मौसम Winter 0.1666667
मौसम abundant 0.2000000
मौसम someones 1.0000000
मौसम weather 0.7500000
मौसम season-cycle 0.3333333
तब्दील machineries 0.1666667
email e 1.0000000
email emailed 0.1428571
email mails 1.0000000
पढ़ाई devoted 0.0833333
पढ़ाई Geetha 1.0000000
पढ़ाई during 0.0106383
पढ़ाई studied 0.1250000
पढ़ाई education 0.0625000
पढ़ाई whole 0.0172414
पढ़ाई along 0.0196078
पढ़ाई studies 0.4444444
पढ़ाई what 0.0107527
1951 1951 0.3333333
ढलते Sun 0.5000000
ढलते worship 0.5000000
ढलते setting 0.0909091
ormal formal 0.5000000
नन्हे NULL 0.0000425
नन्हे little 0.0666667
नन्हे friend 0.1666667
नन्हे approaching 0.2500000
management NULL 0.0000850
management management 0.5555556
मुक़ाम newer 0.0714286
महिलाए women 0.0886076
महिलाए advancement 0.2500000
महिलाए Bhavna 0.5000000
महिलाए seed-bank 0.5000000
महिलाए BSF 0.1250000
महिलाए phenomenon 0.1428571
देखे have 0.0040377
देखे too 0.0077519
देखे or 0.0040000
देखे observe 0.0416667
देखे NULL 0.0000850
देखे noticed 0.0526316
देखे this 0.0012165
rganiation ( 0.0666667
rganiation NOTO 1.0000000
rganiation Organization 0.2500000
rganiation ) 0.0588235
सीमेंट cement 0.1250000
मिनट movie 0.2500000
मिनट minute 1.0000000
मिनट 1-2 1.0000000
मिनट minutes 0.9000000
मिनट NULL 0.0002124
निखर NULL 0.0000425
My My 0.0047847
मोटी preliminary 1.0000000
मोटी NULL 0.0000850
मोटी The 0.0029499
मोटी department 0.0526316
देसी grown 0.5000000
देसी home 0.0357143
देसी indigenous 0.3333333
देसी method 0.2500000
देसी was 0.0023474
देसी a 0.0005128
देसी purely 0.3333333
पालिका Mayor 0.3333333
inch inch 1.0000000
ऑफ़ Book 0.1428571
लौटते they 0.0052910
लौटते When 0.0163934
लौटते vendors 0.3333333
लौटते return 0.1250000
शासकों about 0.0031153
गेंहू playful 0.3333333
निजी our 0.0014368
निजी personal 0.0769231
साढ़े loan 0.1666667
साढ़े half 0.1904762
साढ़े a 0.0015385
साढ़े 5 0.1052632
साढ़े average 0.3333333
साढ़े lac 0.3333333
संत sainthood 0.1428571
संत Sant 0.7500000
संत - 0.0285714
संत saint 0.4444444
संत Saint 0.3333333
संत NULL 0.0001699
संत superstition 0.1666667
असर too 0.0077519
असर ineffective 0.1666667
असर NULL 0.0001274
असर suffered 0.1428571
असर bane 0.2500000
अदालत court 0.3333333
अरसे for 0.0011099
अरसे time 0.0090090
अरसे very 0.0037879
अरसे long 0.0526316
अरसे duration 0.3333333
BS An 0.1000000
BS NULL 0.0000425
BS essay 0.3333333
BS BSF 0.1250000
बहनों paying 0.1666667
बहनों mothers 0.0476190
बहनों sisters 0.4516129
बहनों Sisters 0.2000000
बहनों and 0.0028531
बहनों residing 0.2000000
बहनों our 0.0014368
लक्षद्वीप NULL 0.0000425
लक्षद्वीप Lakshadweep 0.6666667
लक्षद्वीप is 0.0007734
लक्षद्वीप contributing 0.0769231
लक्षद्वीप significantly 0.0833333
सेहत health 0.0238095
सेहत Through 0.0833333
सेहत protection 0.1428571
सेहत tobaccois 1.0000000
ईंटें or 0.0040000
ईंटें bricks 0.5000000
ईंटें cement 0.1250000
ईंटें was 0.0023474
ईंटें whether 0.0416667
चरक Sushrut 0.3333333
श्रोताओं listeners 0.3000000
गुस्सा anger 0.1250000
गुस्सा venting 0.5000000
गुस्सा is 0.0015468
गुस्सा How 0.0416667
गुस्सा NULL 0.0000850
गुस्सा his 0.0046083
गुस्सा he 0.0072993
रक्षक protectors 0.5000000
करिया Karia 0.5000000
करिया Shri 0.0312500
करिया has 0.0020243
करिया dedicated 0.0344828
गुलिबाड़ी Vittidaaloo 0.2000000
करतब account 0.0500000
करतब NULL 0.0000425
1869 was 0.0023474
1869 1869 0.5000000
1869 born 0.0555556
शून्य temperature 0.2500000
शून्य drops 0.5000000
athletes participated 0.0357143
athletes did 0.0204082
athletes athletes 0.1000000
पिलाई served 0.0714286
recently Recently 0.0344828
rganisation Organisation 0.5000000
गिफ्ट for 0.0011099
गिफ्ट gift 0.0833333
गिफ्ट scheme 0.0294118
गिफ्ट 330 0.3333333
35 35 0.7500000
सदस्यीय members 0.0555556
माग need 0.0454545
माग needs 0.0555556
माग changing 0.1111111
माग pending 0.1428571
माग times 0.0253165
माग the 0.0011596
माग periods 0.5000000
माग hour 0.1818182
माग is 0.0015468
सत्यप्रकाश Mehra 0.3333333
सत्यप्रकाश one 0.0042553
सत्यप्रकाश Satya 1.0000000
सत्यप्रकाश Shri 0.0312500
सत्यप्रकाश Prakash 0.0666667
सिलिकन or 0.0040000
सिलिकन Valley 0.1666667
सिलिकन Silicon 0.5000000
भृगु Lord 0.0434783
भृगु NULL 0.0000425
खालीपन vacuum 0.3333333
खालीपन caused 0.1666667
खालीपन due 0.0322581
दवाइया affordable 0.1666667
दवाइया medicines 0.3125000
आधार Crediting 1.0000000
आधार basis 0.2666667
आधार NULL 0.0000850
आधार benchmark 0.1111111
आधार base 0.1428571
आधार protections 0.2000000
आधार one 0.0042553
आधार strongest 1.0000000
एक etched 0.2500000
एक admit 0.3333333
एक Channel 0.1111111
एक organic 0.1000000
एक compiled 0.3333333
एक Dehradun 0.3333333
एक boy 0.1250000
एक Veda 0.1666667
एक conference 0.2500000
एक Soldiers 0.1000000
एक really 0.0800000
एक rarest 0.1666667
एक single 0.2592593
एक exemplary 0.1250000
एक reform 0.0833333
एक a 0.2758974
एक respect 0.0869565
एक To 0.0555556
एक par 0.3333333
एक on 0.0014859
एक could 0.0253165
एक scenes 0.3333333
एक rekindled 0.1250000
एक an 0.2275641
एक each 0.1886792
एक felt 0.0270270
एक story 0.0869565
एक self 0.0555556
एक feeling 0.0714286
एक month 0.0149254
एक Satellites 0.1428571
एक soldier 0.1000000
एक spacecraft 0.2000000
एक major 0.0666667
एक closing 0.2500000
एक China 0.1250000
एक Blossom 0.1666667
एक step 0.0689655
एक ITBP 1.0000000
एक simultaneously 0.2857143
एक satisfaction 0.1052632
एक connect 0.0571429
एक Another 0.2500000
एक two-thirds 0.2500000
एक focal 1.0000000
एक Atal 0.2000000
एक connection 0.2857143
एक Attainment 0.2500000
एक bathed 0.2000000
एक exam 0.0434783
एक again 0.0416667
एक summit 0.1111111
एक blend 0.2000000
एक collective 0.0952381
एक laureate 1.0000000
एक NULL 0.0070934
एक monk 0.3333333
एक results 0.0384615
एक nationalism 0.1428571
एक shown 0.1250000
एक prayer 0.2000000
एक Sansad 0.1666667
एक spot 0.2500000
एक study 0.0454545
एक notorious 0.3333333
एक pillars 0.3333333
एक With 0.0454545
एक reeling 0.5000000
एक seasonal 0.1428571
एक Agarwal 0.1666667
एक One 0.2916667
एक usher 0.1666667
एक CANCER 0.3333333
एक Ek 0.4545455
एक partition 1.0000000
एक A 0.1911765
एक set 0.0400000
एक becominganoble 0.5000000
एक co-existential 0.1250000
एक integral 1.0000000
एक Id 0.1428571
एक graduate 0.1428571
एक integrating 0.5000000
एक Keshla 0.1666667
एक Firstly 0.3333333
एक renewed 0.1333333
एक requested 0.0588235
एक Curiosity 0.3333333
एक Type 0.2500000
एक Bachao 0.1538462
एक shortcoming 0.2500000
एक similar 0.0333333
एक Shree 0.2500000
एक Memories 0.1666667
एक send 0.0384615
एक Once 0.3636364
एक retired 0.2500000
एक like 0.0071942
एक shloka 0.2000000
एक Jal 0.3333333
एक calling 0.1111111
एक Mass 0.3333333
एक Across 0.1666667
एक An 0.1000000
एक affection 0.3333333
एक immense 0.1500000
एक Navaratri 0.1666667
एक linked 0.0833333
एक parade 0.2500000
एक ) 0.0588235
एक uniting 0.5000000
एक bliss 0.1250000
एक another 0.3750000
एक common 0.0322581
एक once 0.3207547
एक KshamavaniParva 1.0000000
एक instills 0.2000000
एक attainment 0.3333333
एक There 0.0093458
एक significance 0.0434783
एक goal 0.1111111
एक statue 0.1000000
एक experiencing 0.1250000
एक photo 0.1111111
एक unparalleled 0.1250000
एक handkerchief 0.1250000
एक phoned 0.1666667
एक fresh 0.0833333
एक PRATISPARDHA 0.2000000
एक dream 0.0322581
एक tradition 0.1034483
एक one 0.3617021
एक together 0.0987654
एक Savarkarjis 1.0000000
एक fabric 0.0909091
एक new 0.0129032
एक effective 0.1250000
एक Otherwise 0.3333333
एक nurture 0.2222222
एक educative 0.1666667
एक Kabirwad 1.0000000
एक friend 0.1666667
संवर्धन Community 0.5000000
संवर्धन mobilization 0.1666667
घोषित declared 0.3333333
घोषित already 0.0666667
घोषित been 0.0083333
घोषित ODF 0.1666667
घोषित NULL 0.0001274
घोषित have 0.0026918
घोषित announced 0.0909091
अप्रैल NULL 0.0000425
अप्रैल April 0.8095238
elp Group 0.5000000
elp Help 0.3333333
elp &apos; 0.0106383
elp extract 1.0000000
elp Self 0.3333333
टीमों teams 0.2000000
टीमों had 0.0038023
emptying Hyderabad 0.1250000
स्थिर calm 0.1666667
स्थिर NULL 0.0000425
स्थिर steady 0.3333333
हरीपुरा Haripura 0.2000000
कुरीतियों ills 0.5000000
कुरीतियों evil 0.2000000
कुरीतियों order 0.0454545
कुरीतियों In 0.0047847
कुरीतियों pledge 0.1250000
खोला up 0.0140845
खोला set 0.0400000
खोला linked 0.0833333
खोला college 0.2000000
खोला for 0.0011099
कीजियेगा definitely 0.0625000
कीजियेगा should 0.0043860
अंतर्राष्ट्रीय International 0.2173913
पछताएगा repent 0.5000000
उतरने as 0.0023148
उतरने test 0.1428571
उतरने treat 0.5000000
सीने bullets 0.2000000
सीने soil 0.0625000
आगजनी or 0.0040000
आगजनी fire 0.0769231
आगजनी loss 0.1250000
साहिब us 0.0048544
साहिब given 0.0243902
साहिब Saheb 0.0937500
तमाम despite 0.0526316
तमाम tribulations 0.3333333
तमाम all 0.0046620
तमाम odds 0.2000000
यूरोपीय countries 0.0243902
यूरोपीय NULL 0.0000425
यूरोपीय European 0.6000000
बेटियों daughters 0.6000000
बेटियों NULL 0.0002124
बेटियों encouraged 0.1000000
बांटे paucity 0.2500000
बांटे distributed 0.2857143
जीवनशैली NULL 0.0000425
जीवनशैली Because 0.1666667
भगवान् Lord 0.0434783
भगवान् recall 0.1111111
juggernaut juggernaut 0.2500000
juggernaut dictionary 0.2500000
आत्मनिर्भरता in 0.0011494
आत्मनिर्भरता self-reliance 0.2500000
चुकी Even 0.0714286
चुकी lashing 0.2500000
चुकी NULL 0.0000425
चुकी coming 0.0256410
क्षमता ability 0.1428571
क्षमता NULL 0.0001274
क्षमता hobbies 1.0000000
क्षमता best 0.0166667
क्षमता sporting 0.2500000
क्षमता jet 1.0000000
क्षमता niche 0.1666667
क्षमता bedded 0.3333333
क्षमता capability 0.2000000
क्षमता skills 0.0526316
ideo shared 0.0384615
ideo being 0.0081967
ideo videos 0.2000000
plate cant 0.0666667
विविधताओं Ours 0.5000000
विविधताओं land 0.0312500
विविधताओं diversities 0.5333333
विविधताओं of 0.0015581
विविधताओं attires 0.2500000
विविधताओं is 0.0030936
विविधताओं with 0.0017065
विविधताओं full 0.0731707
विविधताओं ours 0.1666667
विविधताओं filled 0.0555556
विविधताओं united 0.1250000
विविधताओं manifold 0.3333333
ख़रीदिये outfit 0.3333333
चिल्ला Now 0.0312500
मां NULL 0.0000425
मां so 0.0083333
मां attend 0.3333333
लाया brought 0.0612245
लाया about 0.0031153
लाया which 0.0101010
लाया have 0.0013459
लाया Using 0.5000000
लाया amendment 0.2000000
लाया them 0.0066225
लाया NULL 0.0001274
ountries went 0.0500000
ountries to 0.0003876
ountries Amritsar 0.2500000
ountries eighty-five 0.2500000
प्राथमिकता recite 0.1666667
प्राथमिकता for 0.0011099
प्राथमिकता has 0.0020243
प्राथमिकता accorded 0.0714286
प्राथमिकता priority 0.7000000
प्राथमिकता accord 0.3333333
प्राथमिकता his 0.0046083
प्राथमिकता been 0.0041667
प्राथमिकता NULL 0.0000425
Selie Selfi 0.2500000
नोटें notes 0.1538462
नोटें deposit 0.2500000
नोटें bank 0.0384615
नोटें currency 0.2000000
नोटें amidst 0.0588235
नोटें trillions 0.2000000
गुरु guru 0.2000000
गुरु Guru 0.6086957
गुरु NULL 0.0000850
गुरु Jagatguru 0.2500000
जिसका Yet 0.1428571
जिसका deleterious 1.0000000
जिसका Gandhi-Mandela 1.0000000
जिसका NULL 0.0001274
जिसका DhanYojna 0.0909091
जिसका passes 0.2500000
maniesto party 0.1428571
प्रतिस्पर्द्धा with 0.0017065
प्रतिस्पर्द्धा &apos; 0.0212766
प्रतिस्पर्द्धा competition 0.0714286
प्रतिस्पर्द्धा others 0.0270270
प्रतिस्पर्द्धा has 0.0040486
शिल्पा , 0.0006764
शिल्पा Shilpa 1.0000000
गौरव pride 0.0555556
गौरव NULL 0.0002973
गौरव sense 0.0212766
गौरव Charak 0.2500000
गौरव brilliant 0.1428571
गौरव bringing 0.0666667
गौरव unrealistic 1.0000000
गौरव brought 0.0204082
श्रीहरिकोटा Sriharikota 1.0000000
श्रीहरिकोटा watched 0.2000000
श्रीहरिकोटा nation 0.0140845
दौड़ race 0.3157895
दौड़ ki 0.0263158
दौड़ NULL 0.0000850
दौड़ Ekta 0.1000000
दौड़ In 0.0143541
दौड़ Daud 1.0000000
दौड़ esjk 1.0000000
पचानबे 95 0.3333333
माटुंगा Matunga 0.3333333
कटते for 0.0011099
कटते self-annihilation 0.3333333
किलोमीटर NULL 0.0001699
किलोमीटर plogging 1.0000000
किलोमीटर a 0.0005128
किलोमीटर kilometers 0.8000000
किलोमीटर km 0.5000000
किलोमीटर Kilometres 0.3333333
गाव Ruwala 0.2500000
गाव Ganga 0.0833333
गाव NULL 0.0005947
गाव villagers 0.3333333
गाव Village 0.2857143
गाव Vizianagaram 0.2500000
गाव villages 0.5625000
गाव village 0.7343750
गाव and 0.0004755
काले corruption 0.1250000
काले dark 0.2000000
काले money 0.0454545
काले NULL 0.0000850
काले from 0.0022321
काले black 0.3333333
सर्व Sarv 0.5000000
सर्व mandated 0.5000000
बरती spared 0.2000000
समझाने tried 0.0270270
समझाने NULL 0.0000425
लूंगा seriously 0.0769231
लूंगा them 0.0066225
लूंगा take 0.0113636
मौजूदगी soon 0.1000000
मौजूदगी presence 0.2000000
मौजूदगी will 0.0020747
मौजूदगी Indias 0.0294118
मौजूदगी register 0.1250000
George Bizos 0.2000000
rgan Organ 0.4000000
rgan organ 0.1428571
Mandela us 0.0048544
Mandela Mandela 0.7500000
Mandela before 0.0243902
Mandela appear 0.1111111
2024 2020 1.0000000
2024 2024 0.3333333
2024 in 0.0005747
2024 Olympics 0.1000000
संतानों like 0.0071942
संतानों own 0.0120482
संतानों them 0.0066225
संतानों children 0.0135135
संतानों rear 0.5000000
कपड़े dressing 0.1428571
कपड़े clothes 0.3846154
कपड़े stitching 0.5000000
कपड़े cloth 0.5000000
कपड़े collect 0.2500000
कपड़े quality 0.0588235
कपड़े and 0.0019020
) Punri 0.2000000
) Honnamma 0.5000000
) Prize 0.1428571
) machines 0.2000000
) Amrut 0.5000000
) Bizos 0.2000000
) Synchronising 0.2500000
) , 0.0006764
) incredibleindia 0.1428571
) NULL 0.0002973
) Organization 0.2500000
) BHARAT 0.1000000
) LAMI 0.2000000
) Kasrils 0.5000000
) the 0.0002319
) water-tank 0.2000000
) Vellore 0.2500000
) to 0.0007752
) Gaurai 0.3333333
) nestling 0.2500000
) precautions 0.2500000
समाहित They 0.0126582
समाहित had 0.0038023
समाहित sublimated 0.2500000
समाहित their 0.0026596
समाहित NULL 0.0000850
समाहित psyche 0.1666667
समाहित all 0.0023310
समाहित dreams 0.0666667
अनुस्पर्द्धा competing 0.1428571
अनुस्पर्द्धा themselves 0.0217391
अनुस्पर्द्धा Why 0.0384615
अनुस्पर्द्धा compete 0.1250000
अनुस्पर्द्धा route 0.1250000
अनुस्पर्द्धा with 0.0017065
photo drive 0.0714286
photo photo 0.2222222
photo cleanliness 0.0133333
रगों veins 1.0000000
रगों innate 0.1000000
रगों to 0.0003876
रगों us 0.0048544
अनघा tell 0.0185185
अनघा Let 0.0333333
अनघा me 0.0044643
अनघा Anagha 1.0000000
पृष्ठभूमि they 0.0052910
पृष्ठभूमि enriched 0.3333333
चोटी worlds 0.1666667
झोपड़ी slums 0.1428571
झोपड़ी dwelling 0.3333333
झोपड़ी NULL 0.0000425
उगादी NULL 0.0000425
Gujarat Gujarat 0.0303030
Gujarat students 0.0175439
dice an 0.0032051
dice on 0.0014859
dice dice 1.0000000
champions All 0.0222222
champions Ten 0.3333333
centre centre 0.2500000
centre equipped 0.2500000
centre examination 0.2000000
centre NULL 0.0000425
out outdoor 0.5000000
out Out 0.4000000
out process 0.0416667
out readmit 1.0000000
out Delivery 0.5000000
प्रधानों as 0.0023148
प्रधानों NULL 0.0000850
प्रधानों well 0.0109890
प्रधानों Pradhans 0.2352941
प्रधानों who 0.0044248
प्रधानों had 0.0038023
मनरेगा have 0.0013459
मनरेगा tagged 1.0000000
मनरेगा also 0.0056022
मनरेगा MNREGA 1.0000000
मनरेगा been 0.0041667
मनरेगा Under 0.0769231
चमकेगी shines 0.2500000
चमकेगी . 0.0001893
साहसपूर्ण stunts 0.5000000
साहसपूर्ण performed 0.0625000
साहसपूर्ण Daredevil 0.2500000
मोहन towards 0.0116279
मोहन Mohans 1.0000000
मोहन Parida 0.3333333
मोहन Shivani 0.2500000
मोहन Mohan 0.8000000
मच्छरदानी mosquito 0.6666667
मच्छरदानी nets 0.2000000
मच्छरदानी and 0.0004755
मच्छरदानी repellent 0.5000000
ठाकुर no 0.0119048
ठाकुर Vikas 0.2000000
ठाकुर that 0.0008688
ठाकुर brimming 0.1111111
ठाकुर felt 0.0270270
ठाकुर Thakur 1.0000000
सोचना to 0.0003876
सोचना more 0.0083333
सोचना things 0.0147059
सोचना what 0.0107527
सोचना you 0.0015060
सोचना many 0.0047847
सोचना There 0.0093458
सोचना have 0.0026918
सोचना about 0.0031153
सोचना NULL 0.0000425
सोचना so 0.0083333
सोचना think 0.0727273
सोचना that 0.0008688
सोचना are 0.0015552
day day 0.0113636
day one 0.0042553
day cricket 0.1111111
day fifth 0.2000000
पखवाड़ा Fortnight 0.1428571
Shyok Nubra 1.0000000
दे given 0.0243902
दे following 0.2000000
दे query 0.2500000
दे vegetables 0.1250000
दे inspire 0.1428571
दे Suddenly 0.2000000
दे Tower 0.1666667
दे lends 0.2500000
दे offering 0.1000000
दे brand 0.2000000
दे NULL 0.0014017
दे . 0.0001893
दे effectively 0.3333333
दे returns 0.1666667
दे contribute 0.0555556
दे send 0.0769231
दे Rang 0.3333333
दे bursting 1.0000000
दे tender 0.1428571
दे shape 0.0833333
दे training 0.1111111
दे demographically 0.2000000
दे lease 0.2500000
दे imparting 0.1250000
दे policy 0.1666667
दे universal 0.1000000
दे tribute 0.0526316
दे recite 0.1666667
दे ceremonies 0.2000000
दे contribution 0.0740741
दे handsomely 0.2000000
दे mantra 0.0476190
दे it 0.0018083
दे for 0.0022198
दे contributing 0.0769231
दे in 0.0005747
दे scoring 0.1428571
दे gesture 0.2000000
दे scheduled 0.2500000
हजारीबाग block 1.0000000
हजारीबाग Katakmasandi 0.5000000
बन्धु led 0.0526316
बन्धु Banga-Bandhu 0.5000000
बन्धु leadership 0.0714286
ढ़ेरो this 0.0012165
ढ़ेरो wish 0.0172414
ढ़ेरो opportunity 0.0072464
तोपों arrows 0.1666667
सशस्त्र jawans 0.1250000
सशस्त्र armed 0.4285714
सशस्त्र forces 0.0952381
सशस्त्र towards 0.0116279
सशस्त्र an 0.0032051
सशस्त्र NULL 0.0000425
खरीद or 0.0040000
खरीद bought 0.5000000
खरीद quite 0.0400000
खरीद NULL 0.0001699
समारोह visible 0.2000000
समारोह Centenary 0.2500000
समारोह celebrations 0.0909091
समारोह NULL 0.0000850
समारोह participate 0.0500000
graduate graduate 0.1428571
graduate herself 0.1000000
चलाए Media 0.1428571
चलाए taking 0.0344828
दिल hearts 0.1290323
दिल rending 0.2500000
दिल touch 0.0555556
दिल heartsLet 1.0000000
दिल NULL 0.0000850
दिल heart 0.1509434
समुन्दर seas 0.0909091
समुन्दर sea 0.1111111
अच्छाई righteousness 0.2500000
कमान arrows 0.1666667
कमान Hovercrafts 0.3333333
सरकारी a 0.0020513
सरकारी projects 0.2500000
सरकारी lifetime 0.1428571
सरकारी accountability 0.2000000
सरकारी Harda 0.2000000
सरकारी governmental 0.2500000
सरकारी NULL 0.0000850
सरकारी being 0.0081967
सरकारी event 0.0416667
सरकारी steadily 0.2500000
सरकारी confined 0.1000000
सरकारी no 0.0238095
सरकारी machinery 0.1666667
सरकारी officials 0.1428571
सरकारी longer 0.6666667
सरकारी Government 0.0153846
सरकारी disabled 0.2500000
सरकारी government 0.1340206
सरकारी sources 0.2000000
सरकारी workers 0.1000000
थोड़ी financial 0.1666667
थोड़ी plate 0.2000000
थोड़ी laugh 0.2000000
थोड़ी NULL 0.0000850
थोड़ी Everybody 0.1666667
लाए Monetization 0.2000000
लाए been 0.0041667
लाए have 0.0013459
लाए that 0.0008688
लाए darkness 0.0909091
लाए throw 0.1428571
अनेक- heartiest 0.0476190
अनेक- this 0.0012165
अनेक- greetings 0.0344828
अनेक- on 0.0014859
अनेक- My 0.0047847
अनेक- occasion 0.0181818
तस्वीरें pictures 0.1000000
तस्वीरें NULL 0.0000425
स्वप्न MyGov 0.0769231
कम miniscule 0.2000000
कम complimenting 0.1428571
कम depleted 0.2000000
कम less 0.3000000
कम reduced 0.2500000
कम low 0.3000000
कम short 0.3750000
कम NULL 0.0012318
कम brief 0.1666667
कम a 0.0046154
कम attained 0.1428571
कम very 0.0113636
कम Mortality 0.3333333
कम farsightedness 0.1666667
कम minimal 0.4000000
कम down 0.0555556
कम evaluated 0.2500000
कम Till 0.1428571
कम no 0.0357143
कम little 0.1333333
कम drastically 0.1111111
कम incurred 1.0000000
कम stop 0.1666667
कम Did 0.1428571
कम commodities 1.0000000
कम mitigation 0.2500000
कम regular 0.1250000
कम least 0.3571429
कम cash 0.1428571
कम In 0.0095694
कम decreasing 0.1666667
कम meagre 0.1111111
कम reducing 0.3333333
कम age 0.1250000
कम few 0.0666667
कम underestimate 0.1111111
कम span 0.4666667
कम youngest 1.0000000
कम than 0.0365854
कम handicrafts 0.1428571
कम Less 0.3333333
सपनों Nations 0.2500000
सपनों dream 0.0645161
सपनों come 0.0101010
सपनों realize 0.0909091
सपनों and 0.0004755
सपनों individual 0.0588235
सपनों dreamt 1.0000000
सपनों a 0.0010256
सपनों dreams 0.3333333
आश्चर्यचकित at 0.0042194
आश्चर्यचकित NULL 0.0000425
आश्चर्यचकित them 0.0066225
आश्चर्यचकित be 0.0016978
आश्चर्यचकित wildered 0.3333333
रेप raping 0.2857143
शहरीकरण urbanization 0.2000000
uarter reached 0.0454545
uarter quarter 0.5000000
uarter finals 0.2500000
anada Canada 1.0000000
भरपूर NULL 0.0001699
भरपूर use 0.0192308
भरपूर currently 0.1666667
भरपूर Make 0.1000000
भरपूर utmost 0.2500000
भरपूर Whole-hearted 0.5000000
भरपूर made 0.0114943
भरपूर follow 0.0588235
भरपूर full 0.0243902
ध्यान fitness 0.1000000
ध्यान towards 0.0232558
ध्यान NULL 0.0007646
ध्यान Dhyan 0.4444444
ध्यान focusing 0.2000000
ध्यान larger 0.2500000
ध्यान hostel 0.2500000
ध्यान immensely 0.0666667
ध्यान focus 0.1538462
ध्यान to 0.0042636
ध्यान drawn 0.1875000
ध्यान pay 0.0600000
ध्यान notice 0.0555556
ध्यान strike 0.3333333
ध्यान reminds 0.1666667
ध्यान came 0.0270270
ध्यान attention 0.4736842
ध्यान care 0.0357143
ध्यान worsens 1.0000000
पहुचाऊगा surely 0.0909091
पहुचाऊगा will 0.0020747
पहुचाऊगा send 0.0384615
मध्य Madhya 0.7777778
मध्य NULL 0.0000425
अभ्यासुओं practitioners 1.0000000
प्रतिद्वंदी opponent 0.5000000
प्रतिद्वंदी way 0.0058140
प्रतिद्वंदी The 0.0029499
प्रतिद्वंदी Medvedev 0.5000000
प्रतिद्वंदी his 0.0046083
प्रतिद्वंदी heaped 1.0000000
गर्भवती pregnant 0.5000000
स्वाभवतः by 0.0037594
खज़ाना which 0.0050505
खज़ाना treasure 0.5000000
खज़ाना huge 0.0416667
खज़ाना is 0.0007734
खान foods 0.2500000
खान attire 0.2000000
खान Khan 0.5000000
बनाने plan 0.0833333
बनाने gas 0.1111111
बनाने furniture 0.3333333
बनाने fond 0.1666667
बनाने raising 0.1250000
बनाने piping 0.1666667
बनाने greener 0.5000000
बनाने construct 0.1428571
बनाने devising 0.2500000
बनाने toilets 0.1875000
बनाने craft 0.1428571
बनाने constant 0.1428571
बनाने frame 0.2500000
बनाने to 0.0065891
बनाने programme 0.0270270
बनाने creating 0.1428571
बनाने a 0.0010256
बनाने 2025 0.1111111
बनाने Khunti 1.0000000
बनाने NULL 0.0006371
बनाने hospital 0.3000000
बनाने purses 0.1666667
बनाने law 0.1111111
बनाने making 0.0222222
बनाने diyas 0.2500000
बनाने pending 0.1428571
बनाने converting 0.1250000
बनाने turning 0.1428571
बनाने farm 0.1250000
बनाने develops 0.1250000
बनाने beautify 0.2000000
बनाने make 0.0705882
बनाने makers 0.2500000
बनाने impetus 0.1111111
भाईचारे brotherhood 0.2857143
मायूस dejected 0.2000000
मायूस become 0.0090090
Garden as 0.0046296
Garden Garden 0.6666667
परिसर NULL 0.0000425
परिसर remained 0.2000000
परिसर has 0.0020243
परिसर largely 0.3333333
परिसर surroundings 0.2000000
परिसर confined 0.1000000
देखते look 0.0476190
देखते only 0.0075188
देखते statistics 0.1111111
देखते talks 0.0909091
देखते witness 0.1111111
देखते seriously 0.0769231
देखते NULL 0.0005947
देखते behold 0.2000000
देखते advertisements 0.3333333
देखते at 0.0042194
देखते advertisement 0.2500000
देखते we 0.0037175
देखते check 0.0769231
गंवाये initiating 1.0000000
गंवाये action 0.1428571
गंवाये stern 1.0000000
गंवाये in 0.0005747
प्रेरणा inspires 0.1666667
प्रेरणा superstition 0.1666667
प्रेरणा NULL 0.0008495
प्रेरणा us 0.0242718
प्रेरणा inspired 0.1875000
प्रेरणा for 0.0022198
प्रेरणा inspring 0.1250000
प्रेरणा patriotism 0.2727273
प्रेरणा winner 0.2500000
प्रेरणा Chola 0.3333333
प्रेरणा inspiration 0.8648649
प्रेरणा inspire 0.4285714
प्रेरणा source 0.1250000
climate researching 0.2500000
climate Climate 0.5000000
climate concerned 0.0500000
climate deeply 0.0588235
climate about 0.0031153
आयोजनों with 0.0017065
आयोजनों Such 0.2000000
आयोजनों gained 0.1250000
आयोजनों popularity 0.1666667
आयोजनों more 0.0083333
आयोजनों events 0.0476190
आंकडे estimate 0.5000000
आंकडे own 0.0120482
आंकडे calculated 0.1428571
आंकडे Everyone 0.0769231
आंकडे hisher 1.0000000
आंकडे way 0.0058140
आंकडे in 0.0005747
आंकडे gives 0.0322581
अंग gets 0.0357143
अंग organ 0.0714286
अंग it 0.0018083
अंग another 0.0312500
अंग part 0.0147059
अंग inseparable 0.2500000
अंग NULL 0.0001274
अंग moves 0.1666667
अंग an 0.0064103
लौटे Africa 0.0625000
लौटे South 0.0625000
लौटे from 0.0022321
M machines 0.1000000
M BHIM 0.2000000
M For 0.0200000
M in 0.0005747
हॉस्पिटल hospitals 0.2500000
हॉस्पिटल parks 0.1666667
हॉस्पिटल places 0.0232558
हॉस्पिटल or 0.0040000
हॉस्पिटल other 0.0092593
हॉस्पिटल NULL 0.0000425
तुम्हारा lamenting 0.1111111
तेल Poor 0.1111111
ouse comes 0.0434783
ouse Opera 0.5000000
ouse House 0.4000000
पायरी positions 0.2000000
पायरी NULL 0.0000425
ग्रामीणों The 0.0029499
बढ़िए to 0.0003876
बढ़िए come 0.0101010
बढ़िए participate 0.0500000
बढ़िए forward 0.0169492
बढ़िए all 0.0023310
बढ़िए and 0.0004755
नवंबर November 0.3333333
उगेंगे plants 0.0909091
उगेंगे soil 0.0625000
उगेंगे no 0.0238095
लम्बा a 0.0005128
लम्बा long 0.0526316
लम्बा NULL 0.0000850
लम्बा field 0.0312500
लम्बा lengthy 0.3333333
95 were 0.0068493
95 held 0.0312500
prove stumps 0.1000000
prove 6-6 0.1666667
prove those 0.0090909
prove into 0.0094340
Transport And 0.0037037
घूमकर roam 0.1111111
अपरिचित matters 0.1428571
अपरिचित in 0.0005747
अपरिचित ignorant 0.2000000
अपरिचित these 0.0036765
बचाए any 0.0111111
बचाए ideology 0.2000000
बचाए guard 0.1250000
बचाए from 0.0022321
बचाए such 0.0056497
चीज़ें but 0.0039526
चीज़ें values 0.0769231
चीज़ें you 0.0045181
चीज़ें these 0.0147059
चीज़ें things 0.1176471
चीज़ें are 0.0062208
चीज़ें bottom 0.5000000
चीज़ें if 0.0090090
चीज़ें messages 0.0454545
चीज़ें cheaper 0.0909091
चीज़ें news 0.0204082
चीज़ें edge 0.1428571
चीज़ें dealing 0.2000000
चीज़ें hurry 0.2000000
चीज़ें Otherwise 0.3333333
चीज़ें NULL 0.0002124
चीज़ें routine 0.1111111
संक्रमण pregnancy 0.2000000
संक्रमण infections 1.0000000
single single 0.0370370
single plastic 0.1000000
जिम्मेदारी overlooking 1.0000000
जिम्मेदारी entrusted 0.1666667
जिम्मेदारी NULL 0.0000425
जिम्मेदारी all 0.0023310
जिम्मेदारी with 0.0017065
lead leadership 0.0714286
lead NULL 0.0000425
lead amidst 0.0588235
lead maximum 0.1000000
lead found 0.0625000
corner permanent 0.1428571
corner corner 0.0769231
corner book 0.0333333
दूसरा NULL 0.0000850
दूसरा Secondly 0.4000000
दूसरा the 0.0002319
दूसरा assimilate 1.0000000
दूसरा second 0.4285714
दूसरा one 0.0042553
दूसरा The 0.0029499
दूसरा negativity 0.5000000
Google Google 1.0000000
बनेंगे The 0.0029499
कलात्मक artistic 0.3333333
कलात्मक done 0.0263158
कलात्मक very 0.0037879
कलात्मक were 0.0068493
कलात्मक These 0.0169492
नारी stereotype 1.0000000
नारी countrys 0.0555556
नारी Bahuratna-Vasundhara 0.3333333
नारी woman 0.1428571
नारी woman-power 0.5000000
नारी The 0.0029499
नारी has 0.0020243
नारी presented 0.0500000
नारी NULL 0.0001699
नारी women 0.0253165
नारी contributed 0.0666667
नारी there 0.0048077
नारी Chattisgarh 0.1666667
नारी power 0.0294118
डरा with 0.0017065
डरा references 1.0000000
डरा patient 0.3333333
डरा constant 0.1428571
अंतरराष्ट्रीय International 0.0434783
अंतरराष्ट्रीय international 0.2500000
अंतरराष्ट्रीय third 0.1111111
जज्बे beauty 0.0714286
दिव्यांगजन was 0.0023474
ontingent contingent 0.2500000
ontingent BSF 0.1250000
ontingent biker 0.2000000
virtual virtual 0.5000000
बनाये depicting 0.1428571
बनाये type 0.2500000
बनाये this 0.0012165
बनाये NULL 0.0001699
बनाये Create 1.0000000
राजा Raja 1.0000000
राजा King 0.5000000
राजा kings 0.5000000
रोज़गार Nutrition 1.0000000
रोज़गार opportunities 0.2000000
रोज़गार this 0.0012165
रोज़गार way 0.0058140
रोज़गार NULL 0.0000850
रोज़गार poorer 0.3333333
रोज़गार have 0.0013459
रोज़गार got 0.0200000
रोज़गार employment 0.2500000
नामुमकिन nothing 0.0555556
वकालत advocated 0.2500000
वकालत had 0.0038023
मई spirits 0.1666667
मई Gram-Swaraj 0.3333333
मई Memories 0.1666667
मई 27th 0.5000000
मई are 0.0015552
मई May 0.3333333
खेलने country 0.0029586
खेलने contingent 0.2500000
खेलने sports 0.0322581
खेलने play 0.0294118
खेलने regulations 0.2000000
खेलने cricket 0.1111111
खेलने our 0.0028736
खेलने morale 0.1250000
खेलने NULL 0.0000850
भावनाए anew 0.3333333
भावनाए With 0.0454545
भावनाए confidence 0.0555556
himavantanu Our 0.0185185
प्रक्षेपण Visuals 0.5000000
तिलक Tilakji 0.6000000
तिलक NULL 0.0000850
तिलक Tilak 0.7692308
तिलक Tilaks 0.5000000
तिलक Lokmanya 0.4615385
लिखी app 0.1111111
लिखी wrote 0.0434783
लिखी letter 0.0810811
लिखी Mitti 0.5000000
लिखी published 0.3333333
लिखी Nashaa 0.2500000
लिखी incarceration 0.3333333
लिखी constantly 0.1428571
लिखी written 0.0192308
लिखी straightforwardly 1.0000000
लिखी NULL 0.0002124
बूढ़े NULL 0.0000425
बूढ़े Hamid 0.1428571
आमन्त्रित Kala 1.0000000
आमन्त्रित Shantiniketan 1.0000000
आमन्त्रित Bhavan 0.5000000
ज़ज्बा If 0.0129870
मज़बूत NULL 0.0000425
मज़बूत kidney 0.2500000
मज़बूत pillars 0.3333333
मज़बूत strong 0.2380952
मज़बूत foundation 0.1250000
बेल्वी promoted 0.1111111
बेल्वी making 0.0222222
बेल्वी RipudamanBelviji 0.2000000
बेल्वी is 0.0007734
बेल्वी has 0.0020243
बेलगावी Pawan 1.0000000
वक्ता orator 0.3333333
महाराष्ट्र congratulate 0.0100000
महाराष्ट्र 16th 0.1111111
महाराष्ट्र in 0.0017241
महाराष्ट्र NULL 0.0001274
महाराष्ट्र completed 0.0833333
महाराष्ट्र alone 0.0909091
महाराष्ट्र Maharashtra 0.9375000
चार four 0.6923077
चार 4 0.2500000
चार three-four 0.3333333
चार 3-4 0.2857143
चार NULL 0.0000850
चार few 0.0285714
चार purchases 0.2500000
पढ़कर have 0.0013459
पढ़कर studied 0.1250000
लौ flame 0.1666667
खोदना dig 1.0000000
आग्रह all 0.0093240
आग्रह appeal 0.0312500
आग्रह urged 0.2777778
आग्रह request 0.1509434
आग्रह requested 0.1176471
आग्रह NULL 0.0000425
आग्रह urging 0.2500000
आग्रह call 0.0285714
आग्रह craft 0.1428571
आग्रह you 0.0015060
आग्रह urge 0.2352941
आग्रह dressing 0.1428571
आग्रह to 0.0073643
आग्रह drinking 0.1000000
एबल्ड Olympics 0.1000000
औषधि Kendras 0.4285714
औषधि Aushadhi 0.6250000
औषधि NULL 0.0000850
औषधि Kendra 1.0000000
औषधि Aushidhi 1.0000000
औषधि Anshadhi 0.3333333
औषधि Jan 0.1500000
औषधि Centres 0.2857143
समझ realized 0.2857143
समझ observe 0.0416667
समझ perplexed 0.1428571
समझ NULL 0.0000850
समझ anything 0.0769231
समझ understand 0.0769231
समझ understanding 0.4000000
समझ part 0.0147059
समझ obvious 0.1428571
सहयोग strength 0.0232558
सहयोग menace 0.3333333
सहयोग this 0.0012165
सहयोग NULL 0.0000850
सहयोग cooperation 0.4000000
वालों times 0.0126582
वालों Shabbir 0.2500000
वालों Among 0.2500000
वालों of 0.0003116
वालों widest 0.1250000
वालों listeners 0.2000000
वालों travelled 0.1111111
वालों stores 1.0000000
वालों villagers 0.2222222
वालों NULL 0.0000425
वालों those 0.0181818
वालों defector 1.0000000
वालों are 0.0015552
वालों victims 0.5000000
जमीनी proletarian 0.2000000
बदलीं changed 0.0666667
हर्ष much 0.0175439
हर्ष among 0.0833333
हर्ष Santosh 0.2000000
हर्ष NULL 0.0000425
हर्ष joy 0.0555556
किया analyzed 0.2000000
किया performed 0.1250000
किया task 0.0540541
किया enshrinement 0.3333333
किया craft 0.1428571
किया brilliantly 0.2000000
किया herculean 0.1666667
किया fixed 0.1250000
किया geo-tagging 0.3333333
किया labour 0.0909091
किया launched 0.1818182
किया sainthood 0.1428571
किया organized 0.1500000
किया honoured 0.2727273
किया departure 0.2000000
किया terrible 0.2000000
किया have 0.0309556
किया follow 0.0588235
किया taken 0.1463415
किया Mavalyannong 0.3333333
किया acquired 0.1428571
किया bunch 0.2000000
किया proving 0.3333333
किया medal 0.0476190
किया emailed 0.1428571
किया performance 0.2000000
किया done 0.0789474
किया edited 0.1666667
किया decided 0.2083333
किया resolved 0.2500000
किया did 0.1224490
किया redirected 0.1428571
किया passed 0.1538462
किया urged 0.2222222
किया feats 0.3333333
किया led 0.0526316
किया Id 0.1428571
किया platform 0.1250000
किया versions 0.3333333
किया invited 0.3000000
किया expressed 0.0689655
किया drink 0.2000000
किया travelled 0.1111111
किया urbanization 0.2000000
किया hailed 0.1428571
किया tried 0.1351351
किया contacted 0.3333333
किया requested 0.1176471
किया scientists 0.0400000
किया . 0.0079500
किया won 0.0370370
किया grandeur 0.2000000
किया dedicated 0.0344828
किया awarded 0.1000000
किया inspired 0.0937500
किया Call 1.0000000
किया Malaria 0.2500000
किया tirelessly 0.2000000
किया attackers 0.2500000
किया conduct 0.1250000
किया brought 0.1020408
किया Sarvjanik 0.2000000
किया Masters 0.1111111
किया record 0.0526316
किया Hyderabad 0.1250000
किया channel 0.1666667
किया hard-work 0.1666667
किया recycled 0.1666667
किया denying 0.1666667
किया drawn 0.0625000
किया target 0.0833333
किया Betis 0.3333333
किया G. 0.2500000
किया Vietnamese 0.2000000
किया leadership 0.0714286
किया clandestinely 0.3333333
किया 6-6 0.1666667
किया Beat 0.1250000
किया ritual 0.1666667
किया NULL 0.0062439
किया presented 0.1000000
किया BOSON 0.1666667
किया carried 0.0500000
किया killed 0.1250000
किया Mahotsav 0.1111111
किया production 0.1250000
किया highlighting 0.2500000
किया copy 0.5000000
किया experienced 0.0909091
किया referred 0.1666667
किया initiated 0.0625000
किया took 0.0294118
किया welcomed 0.1250000
किया Festival 0.2857143
किया made 0.0229885
किया piping 0.1666667
किया Shramdaan 0.2000000
किया Blossom 0.1666667
किया floating 0.3333333
किया powers 0.2500000
किया depiction 0.2000000
किया forgiver 0.3333333
किया APMC 0.2500000
किया aesthetically 0.2500000
किया feast 0.2500000
किया integrated 0.1111111
किया embraced 0.3333333
किया SmartGaonApp 0.2000000
किया successfully 0.0625000
किया exemplary 0.2500000
armer Farmer 0.3333333
armer namely 0.5000000
armer Welfare 0.3333333
guarantee NULL 0.0000425
guarantee ladder 0.5000000
guarantee guarantee 0.1428571
guarantee a 0.0010256
रचना NULL 0.0000425
रचना literary 0.5000000
रचना safeguard 1.0000000
रचना One 0.0208333
रचना creations 0.3333333
रचना drew 0.3333333
बालिका An 0.1000000
बालिका NULL 0.0000425
जिस the 0.0034787
जिस whichever 0.2000000
जिस smooth 0.2000000
जिस heartening 0.1666667
जिस goes 0.0714286
जिस When 0.0163934
जिस yet 0.1000000
जिस 2018 0.0909091
जिस afflicting 0.2000000
जिस sheet 0.1111111
जिस which 0.0202020
जिस was 0.0023474
जिस exact 0.2500000
जिस meticulous 0.5000000
जिस way 0.0116279
जिस NULL 0.0005522
जिस manner 0.0588235
जिस herculean 0.1666667
जिस shown 0.1250000
जिस Land 0.2500000
जिस enslaved 0.5000000
जिस Bhagalpur 0.2500000
जिस rather 0.0909091
जिस The 0.0176991
छुट्टियों holidays 0.5000000
छुट्टियों thereafter 1.0000000
छुट्टियों summer 0.0833333
छुट्टियों you 0.0060241
छुट्टियों NULL 0.0000425
भज्जू NULL 0.0000425
भज्जू Bhajju 0.3333333
भज्जू Shyam 0.3333333
Nadal on 0.0014859
Nadal opponent 0.5000000
Nadal Nadal 0.5000000
Nadal praise 0.2000000
मोड़ा requirements 0.1666667
दिशाओं research 0.1428571
दिशाओं commendable 0.0555556
दिशाओं doing 0.0250000
दिशाओं is 0.0007734
कामयाब conviction 0.1000000
कामयाब succeed 0.1000000
कामयाब set 0.0400000
कामयाब has 0.0020243
कामयाब indeed 0.0833333
कामयाब shall 0.0217391
कामयाब now 0.0099010
दुबारा repeated 1.0000000
दुबारा Javelin 0.2500000
दुबारा HELP 0.3333333
दुबारा NEED 0.5000000
दुबारा YOUR 0.2500000
hub hub 0.2000000
अभिषेक Abhishek 1.0000000
अभिषेक you 0.0015060
अभिषेक It 0.0053191
अभिषेक , 0.0002255
अभिषेक Thank 0.1428571
अभिषेक has 0.0040486
संवाद nonvocal 0.5000000
संवाद establishing 0.5000000
संवाद with 0.0017065
संवाद just 0.0086957
संवाद became 0.0526316
संवाद remaining 0.1666667
संवाद talk 0.0181818
संवाद show 0.0500000
संवाद than 0.0121951
संवाद monologue 0.5000000
संवाद NULL 0.0000425
संवाद converse 0.1666667
संवाद mere 0.0909091
संवाद interact 0.1428571
संवाद rather 0.0909091
संवाद indirectly 0.3333333
मोहल्ले premises 0.2500000
मोहल्ले mohallas 0.5000000
शंमुगनाथन Shanmuganthan 1.0000000
शंमुगनाथन Mr. 0.0769231
उत्तर North 0.2500000
उत्तर Extracting 0.5000000
उत्तर travelled 0.2222222
उत्तर Uttar 0.7500000
उत्तर north 0.6000000
उत्तर NULL 0.0000425
जे J. 0.5000000
जे Rowling 0.5000000
जे K. 0.5000000
हिन्दुस्तान hardly 0.2000000
हिन्दुस्तान stirred 0.2500000
हिन्दुस्तान I 0.0008460
हिन्दुस्तान India 0.0087464
हिन्दुस्तान Chaturthi 0.1250000
हिन्दुस्तान changing 0.1111111
हिन्दुस्तान There 0.0093458
हिन्दुस्तान isnt 0.1250000
हिन्दुस्तान 1915 0.2000000
हिन्दुस्तान Krishna- 0.3333333
हिन्दुस्तान NULL 0.0002124
हिन्दुस्तान was 0.0023474
हिन्दुस्तान markets 0.2500000
हिन्दुस्तान country 0.0088757
उसमें in 0.0086207
उसमें Highlighting 1.0000000
उसमें pollution 0.2500000
उसमें extended 0.5000000
उसमें it 0.0036166
उसमें reward 0.1666667
उसमें procedures 0.3333333
उसमें derived 0.3333333
उसमें grade 1.0000000
उसमें Internet 0.2500000
उसमें read 0.0303030
उसमें faith 0.0500000
उसमें gift 0.0833333
उसमें handicrafts 0.1428571
उसमें Pragati 0.3333333
उसमें promise 0.2000000
उसमें whatever 0.0500000
उसमें NULL 0.0010194
उसमें participated 0.0357143
उसमें heaviest 0.2000000
उसमें mess 0.2500000
उसमें a 0.0010256
उसमें trash 0.0909091
उसमें fees 0.1666667
उसमें bounty 0.2500000
उसमें instead 0.0833333
उसमें represent 0.5000000
उसमें truth 0.0909091
उसमें region 0.0714286
उसमें have 0.0026918
ढूंढें look 0.0238095
ढूंढें lets 0.1000000
ढूंढें for 0.0011099
नारायणपुर Narayanpur 1.0000000
rain an 0.0032051
47 47 1.0000000
दिलाने someone 0.0370370
दिलाने stands 0.0769231
दिलाने by 0.0037594
दिलाने working 0.0277778
दिलाने abolish 0.3333333
दिलाने NULL 0.0000850
दिलाने as 0.0023148
दिलाने fair 0.1666667
दिलाने Lawyer 1.0000000
यज्ञ Yagya 0.3333333
यज्ञ task 0.0270270
परिचित familiar 0.3750000
परिचित are 0.0046656
परिचित with 0.0085324
आश्चर्य will 0.0062241
आश्चर्य pleasantly 0.4000000
आश्चर्य be 0.0084890
आश्चर्य NULL 0.0001274
आश्चर्य astonishment 1.0000000
आश्चर्य surprised 0.3529412
आश्चर्य surprise 0.3333333
पुरस्कारों Awards 0.1250000
पुरस्कारों gallantry 0.6666667
पुरस्कारों awards 0.2500000
Postman close 0.0400000
Postman postmen 0.5000000
चाहे awe-inspiring 1.0000000
चाहे NULL 0.0003823
चाहे Be 0.2307692
चाहे TB 0.1428571
चाहे Bharud 0.2000000
चाहे whether 0.0416667
चाहे it 0.0108499
चाहे Whether 0.5000000
चाहे Safety 0.5000000
चाहे wheat 0.5000000
चाहे The 0.0029499
सकेंगे decision-making 0.1666667
सकेंगे faster 0.5000000
सकेंगे will 0.0020747
सकेंगे . 0.0001893
सकेंगे allow 1.0000000
डट Despite 0.2500000
डट firm 0.1111111
खेलेगा play 0.0294118
ईंट brick-kiln 1.0000000
ईंट labourer 1.0000000
ईंट NULL 0.0000425
ईंट ... 0.0222222
लाख़ lakh 0.1081081
लाख़ recipients 0.2500000
लाख़ 66 0.3333333
लाख़ were 0.0068493
धर्म NULL 0.0000850
धर्म religion 0.5000000
धर्म ultimate 0.2000000
धर्म ParmoDharmah 0.2500000
धर्म Ahimsa 0.2500000
धर्म Rajgir 0.1250000
मानवजाति discuss 0.0588235
मानवजाति paved 1.0000000
मानवजाति issues 0.0769231
मानवजाति will 0.0020747
मानवजाति humanity 0.0666667
मानवजाति at 0.0042194
मानवजाति relating 0.2000000
नमूना then 0.0112360
नमूना aim 0.1666667
नमूना even 0.0092593
नमूना an 0.0032051
Asian 1951 0.3333333
Asian emailed 0.1428571
Asian other 0.0092593
Asian Asian 0.0666667
जीवन्तता very 0.0037879
बुलंद NULL 0.0000425
बुलंद morale 0.2500000
बुलंद boosted 1.0000000
बुलंद gets 0.0357143
बुलंद All 0.0222222
बाघों NULL 0.0000850
बाघों The 0.0029499
बाघों population 0.1666667
बाघों tiger 0.3750000
episode episode 0.0500000
सैटेलाइट्स satellites 0.0769231
सैटेलाइट्स Today 0.0178571
सैटेलाइट्स Sounding 0.1250000
पूरब go 0.0128205
पूरब far-off 0.3333333
श्रेष्ठ ( 0.2000000
श्रेष्ठ One 0.0625000
श्रेष्ठ Shreshth 0.3333333
श्रेष्ठ Ek 0.3636364
श्रेष्ठ orator 0.3333333
श्रेष्ठ Shreshtha 0.6250000
श्रेष्ठ NULL 0.0001274
श्रेष्ठ Bharat 0.2037037
जन्मभूमि Janmabhoomi 0.3333333
जन्मभूमि Ram 0.1666667
तेरा 90 0.0909091
मूझे thought 0.0178571
मुझे happy 0.0263158
मुझे privilege 0.1250000
मुझे speeches 0.2000000
मुझे ramparts 0.1666667
मुझे Third 0.1666667
मुझे Gayatri 0.5000000
मुझे Jim 0.2500000
मुझे feels 0.0555556
मुझे Someone 0.2000000
मुझे walking 0.0714286
मुझे letter 0.0540541
मुझे Ive 0.6000000
मुझे wedding 0.2500000
मुझे fortune 0.0769231
मुझे shared 0.0384615
मुझे results 0.0384615
मुझे told 0.0681818
मुझे NULL 0.0021238
मुझे disappoint 0.3333333
मुझे back 0.0322581
मुझे app 0.1111111
मुझे connection 0.1428571
मुझे I 0.1971235
मुझे glance 1.0000000
मुझे lamenting 0.1111111
मुझे exact 0.2500000
मुझे sharing 0.0454545
मुझे length 0.0909091
मुझे rising 0.1250000
मुझे Britain 0.1111111
मुझे incredible 0.2000000
मुझे heartwarming 0.1666667
मुझे NarendraModiApp 0.1578947
मुझे me 0.3526786
मुझे experiences 0.0526316
मुझे mentioning 0.1250000
मुझे confident 0.0833333
मुझे felt 0.0540541
मुझे speech 0.0588235
मुझे requesting 0.2000000
मुझे exam-related 0.2000000
मुझे YOUR 0.2500000
मुझे Western 0.3333333
मुझे my 0.0034483
मुझे admit 0.1666667
मुझे obvious 0.1428571
मुझे gentleman 0.1111111
मुझे wrote 0.0434783
मुझे birthplace 0.5000000
मुझे Red 0.0769231
मुझे benefitted 0.1250000
उठाये carrying 0.5000000
उठाये action 0.1428571
लेती full 0.0243902
लेती force 0.1250000
लेती take 0.0227273
लेती unleashes 0.2500000
लेती rain 0.2000000
पुत्र children 0.0135135
पुत्र her 0.0108696
पुत्र all 0.0023310
पुत्र Gandhari-Putra 0.3333333
पुत्र are 0.0015552
पुत्र sons 0.0909091
NAM these 0.0036765
जगाना learning 0.0769231
जगाना happened 0.0476190
दर्शाया at 0.0042194
टुकड़े NULL 0.0000425
टुकड़े parts 0.0588235
cigarette An 0.1000000
cigarette e-cigarette 0.3750000
cigarette e-cigarettes 0.3333333
cigarette NULL 0.0001699
cigarette is 0.0015468
भूगोल geography 0.1666667
ज़रुरतमंदों provide 0.0476190
रहो diligence 0.1111111
रहो NULL 0.0000425
मागें demands 0.5000000
मीना Meena 1.0000000
वेदकाल from 0.0022321
वेदकाल times 0.0126582
वेदकाल Vedic 0.3333333
तेज़ी smooth 0.2000000
तेज़ी very 0.0037879
तेज़ी surge 0.1666667
तेज़ी strides 0.1111111
तेज़ी fast 0.3333333
तेज़ी pace 0.0909091
तेज़ी taking 0.0344828
तेज़ी rapid 0.2727273
तेज़ी decision-making 0.1666667
गीतिका Geetika 0.1666667
गीतिका Swami 0.1111111
इण्टरेस्टिंग getting 0.0312500
इण्टरेस्टिंग very 0.0037879
इण्टरेस्टिंग been 0.0041667
इण्टरेस्टिंग interesting 0.0434783
युवकों regarding 0.1000000
युवकों Empire 0.1250000
युवकों youth 0.1489362
गोरखपुर Gorakhpur 0.3333333
डी group 0.1111111
डी D. 0.5000000
हिला such 0.0056497
हिला shakes 0.5000000
हिला death 0.0416667
हिला NULL 0.0000425
बूटी recipe 0.1428571
बूटी essential 0.3333333
बूटी people 0.0028571
बूटी brings 0.1428571
बूटी NULL 0.0000425
बूटी elements 0.0909091
बूटी together 0.0123457
बूटी that 0.0008688
उसका mettle 0.5000000
उसका Medals 0.2000000
उसका juggernaut 0.2500000
उसका rises 0.2500000
उसका obstacles 0.1250000
उसका it 0.0018083
उसका are 0.0015552
उसका settlements 0.2000000
उसका 17th 0.1111111
उसका the 0.0016234
उसका mentioning 0.1250000
उसका analyzed 0.2000000
उसका of 0.0031162
उसका place 0.0169492
उसका existing 0.1666667
उसका components 1.0000000
उसका study 0.0454545
उसका reaping 0.1250000
उसका on 0.0014859
उसका snatched 0.2500000
उसका brilliant 0.1428571
उसका roadmap 0.2000000
उसका NULL 0.0006371
उसका , 0.0002255
उसका their 0.0053191
उसका that 0.0017376
उसका imposed 0.1666667
उसका grandmother 0.3333333
उसका evident 0.1666667
उसका burst 0.1250000
उसका represents 0.2500000
उसका duly 0.2000000
उसका basic 0.1250000
उसका trends 0.5000000
उसका its 0.0512821
उसका which 0.0050505
उसका hailed 0.1428571
उसका earthquakes 0.2000000
उसका follow 0.0588235
NS The 0.0029499
धारण similar 0.0333333
धारण shapes 0.2500000
धारण NULL 0.0000425
धन्यवाद . 0.0011357
धन्यवाद NULL 0.0002124
धन्यवाद Thanks 1.0000000
धन्यवाद thank 0.2272727
धन्यवाद you 0.0105422
धन्यवाद many 0.0143541
धन्यवाद gratitude 0.0769231
धन्यवाद much 0.0175439
धन्यवाद Thank 0.4285714
धन्यवाद thanks 0.2857143
उतारने NULL 0.0000425
सार्थकता Dharmah 1.0000000
सार्थकता joy-Seva 0.2500000
सार्थकता Parmo 1.0000000
water recharging 0.2500000
water water 0.0085470
water water-policy 0.3333333
water formulated 1.0000000
water logging 0.1250000
टन tonnes 0.5000000
टन its 0.0085470
टन tons 0.5000000
योगः They 0.0126582
सहमत with 0.0017065
सहमत agree 0.2500000
जुड़ेगा be 0.0016978
जुड़ेगा conserved 0.2000000
जुड़ेगा hands 0.0833333
जुड़ेगा will 0.0041494
जुड़ेगा join 0.0909091
nstagram Instagram 0.2500000
उषा be 0.0016978
शत like 0.0071942
शत accomplishing 1.0000000
शत warriors 0.2500000
शत hundred 0.0540541
शत times 0.0126582
शत would 0.0058480
करवाइए followed 0.1000000
करवाइए mohallas 0.5000000
करवाइए Do 0.0588235
करवाइए these 0.0036765
करवाइए NULL 0.0000425
करवाइए get 0.0084034
जागता NULL 0.0000425
कोमल Komaljis 1.0000000
कोमल suggestion 0.0588235
कोमल Komal 0.5000000
कोमल take 0.0113636
रमेश NULL 0.0000425
रमेश Ramesh 0.6666667
मज़ेदार in 0.0005747
मज़ेदार NULL 0.0000425
ताकि arrangement 0.3333333
ताकि NULL 0.0001699
ताकि ensured 0.3333333
ताकि returns 0.1666667
ताकि ensure 0.0370370
ताकि so 0.1000000
ताकि terror 0.3333333
ताकि destroy 0.1666667
ताकि for 0.0022198
ताकि that 0.0104257
नतीजे grand 0.0625000
नतीजे . 0.0001893
नतीजे results 0.0384615
ख़िलाफ practices 0.1428571
तारीख़ NULL 0.0000850
तारीख़ instant 0.1428571
तारीख़ privileged 0.1250000
तारीख़ 28th 0.0909091
तारीख़ October 0.0238095
तारीख़ 20th 0.2000000
तारीख़ after 0.0149254
तारीख़ 31st 0.1250000
तारीख़ on 0.0014859
लागोरी called 0.0555556
लागोरी Some 0.0212766
लागोरी Lagori 0.3333333
अनन्या Ananya 0.3333333
अनन्या Awasthi 0.3333333
नोट rupee 0.2727273
नोट a 0.0005128
नोट demonetization 1.0000000
नोट NULL 0.0000425
नोट 2000 0.2000000
नोट 1000 0.1000000
नोट 500 0.0833333
नोट notes 0.1538462
बारीकी minutely 0.1666667
बारीकी carefully 0.1818182
बारीकी I 0.0008460
खेलकूद well 0.0109890
खेलकूद spheres 0.1428571
खेलकूद sports 0.0322581
खेलकूद as 0.0023148
engineering engineering 0.6666667
engineering got 0.0200000
engineering structural 0.2500000
दीया became 0.0526316
अनन्य noble 0.3333333
अनन्य intention 0.5000000
ए.पी.जे APJ 0.5000000
खरीदते weapons 0.2000000
खरीदते the 0.0002319
खरीदते buy 0.0666667
खरीदते procure 0.5000000
खरीदते terrorists 0.1250000
खरीदते is 0.0007734
खरीदते to 0.0003876
खरीदते spent 0.0666667
खरीदते by 0.0037594
प्राण motherland 0.1666667
प्राण down 0.0555556
प्राण who 0.0132743
प्राण infuse 0.3333333
कल्पकता hues 0.1428571
कल्पकता NULL 0.0000850
कल्पकता novel 0.2000000
कल्पकता myriad 0.0625000
कल्पकता creativity 0.2000000
झोंक they 0.0052910
झोंक into 0.0094340
झोंक themselves 0.0217391
झोंक flung 0.4000000
चालाकी manner 0.0294118
चालाकी covert 0.2500000
स्वावलंबन Water 0.1111111
स्वावलंबन Swawalamban 1.0000000
स्वावलंबन Abhiyan 0.1428571
स्वावलंबन Ministers 0.0833333
स्वावलंबन Campaign 0.0714286
स्वावलंबन Sufficiency 0.2500000
स्वावलंबन Jal 0.3333333
स्वावलंबन Self 0.3333333
बालिकायें alone 0.0909091
परिश्रम by 0.0037594
परिश्रम arduous 0.1666667
परिश्रम sheer 0.1000000
परिश्रम setting 0.0909091
परिश्रम perseverance 0.1666667
परिश्रम hard 0.1111111
परिश्रम persevered 0.3333333
परिश्रम tirelessly 0.2000000
परिश्रम has 0.0020243
परिश्रम diligence 0.2222222
परिश्रम The 0.0029499
परिश्रम one 0.0042553
परिश्रम devotion 0.1250000
परिश्रम NULL 0.0000850
परिश्रम work 0.0183486
जगाया empathy 0.1428571
रूपए rupees 0.0606061
रूपए repees 0.3333333
रूपए NULL 0.0000850
अनुरूप needs 0.0555556
अनुरूप most 0.0222222
अनुरूप NULL 0.0000850
अनुरूप suited 0.1428571
player hockey 0.0833333
player , 0.0002255
player player 0.1111111
1600 students 0.0175439
1600 1600 0.3333333
गली street 0.2307692
51 bringing 0.0666667
51 around 0.0166667
51 together 0.0123457
51 51 0.5000000
प्रतिबद्ध Each 0.1000000
प्रतिबद्ध became 0.0526316
प्रतिबद्ध committed 0.0769231
प्रतिबद्ध one 0.0042553
प्रवासी Divas 1.0000000
प्रवासी Bharatiya 0.3000000
प्रवासी Pravasi 0.5000000
फ़ायदा nowhere 0.1428571
फ़ायदा benefit 0.1052632
फ़ायदा settlements 0.2000000
फ़ायदा surely 0.0909091
फ़ायदा NULL 0.0000425
Nine increase 0.0526316
करायी price 0.1250000
करायी an 0.0032051
करायी there 0.0048077
करायी available 0.0500000
करायी affordable 0.1666667
करायी at 0.0042194
पाव After 0.0555556
पचास fifty 0.3333333
पचास 50 0.0769231
पचास over 0.0114943
Mission Mission 0.0526316
Mission missions 1.0000000
Mission delighted 0.1000000
Mission NULL 0.0000850
Mission since 0.0555556
Mission attempted 0.3333333
Mission Clean 0.1000000
जगन्नाथ Rath 0.5000000
जगन्नाथ The 0.0029499
जगन्नाथ Jagannath 0.5714286
जगन्नाथ Yatra 0.1111111
जगन्नाथ Lord 0.1304348
जगन्नाथ NULL 0.0000425
ऊच casteism 0.2000000
ट्वेंटी sales 1.0000000
पड़ाव milestone 0.5000000
पड़ाव No 0.0555556
पड़ाव bend 0.5000000
पड़ाव lull 0.2500000
permegondanu NULL 0.0000425
उठाने take 0.0227273
उठाने I 0.0008460
उठाने NULL 0.0000425
उठाने in 0.0011494
उठाने newness 0.2222222
promote its 0.0085470
नकारात्मक negative 0.1666667
अभिव्यक्त reverence 0.1428571
अभिव्यक्त assessing 1.0000000
अभिव्यक्त clearly 0.1428571
अभिव्यक्त evident 0.1666667
T. T. 0.5000000
जर्मनी Germany 0.3333333
जर्मनी France 0.2500000
मची being 0.0081967
कहीं following 0.2000000
कहीं traffic 0.1666667
कहीं have 0.0026918
कहीं praises 1.0000000
कहीं some 0.0160000
कहीं somewhere 0.3571429
कहीं occur 0.2500000
कहीं 2015 0.1250000
कहीं other 0.0092593
कहीं determinations 0.1666667
कहीं that 0.0008688
कहीं NULL 0.0010194
कहीं Ayush 0.5000000
कहीं places 0.0697674
कहीं fire 0.0769231
कहीं fared 1.0000000
कहीं at 0.0042194
कहीं laughed 0.1666667
कहीं or 0.0040000
कहीं throw 0.1428571
कहीं At 0.0400000
कहीं collecting 0.1666667
कहीं incendiary 0.5000000
कहीं May 0.0555556
कहीं behind 0.0909091
कहीं way 0.0058140
कहीं anywhere 0.2500000
कहीं neither 0.0833333
MPs in 0.0005747
MPs clad 0.3333333
papers exams 0.0250000
papers consumed 1.0000000
papers get 0.0084034
पीड़ितों provide 0.0952381
पीड़ितों people 0.0028571
पीड़ितों NULL 0.0001274
पीड़ितों affected 0.1250000
पीड़ितों relief 0.1111111
पीड़ितों flood 0.1666667
जय Jawan 0.2500000
जय gave 0.0322581
जय Kisan 0.2222222
जय slogan 0.3333333
जय NULL 0.0000425
जय Palki 0.2500000
जय Jai 0.4000000
जय his 0.0046083
जोशी Joshi 1.0000000
जोशी from 0.0022321
जोशी Ameya 0.2500000
जमीयत inspiring 0.0232558
जमीयत volunteers 0.1000000
पोती granddaughter 0.3333333
पोती married 0.0909091
लॉन्च launching 0.2000000
लॉन्च three 0.0217391
लॉन्च launched 0.0227273
लॉन्च schemes 0.0666667
लॉन्च have 0.0013459
लॉन्च NULL 0.0000850
लॉन्च recently 0.0526316
Network citys 0.2500000
aloo NULL 0.0000425
चालू initiative 0.0303030
ग्यारह launch 0.1250000
ग्यारह around 0.0166667
ग्यारह till 0.0400000
ग्यारह 11 0.0526316
ग्यारह date 0.2000000
बापू NULL 0.0000850
बापू Bapus 0.5000000
बापू Bapu 0.7727273
साहू Sahu 1.0000000
ज़ोर provided 0.0833333
ज़ोर confidence 0.0555556
ज़ोर baazu-e-qaatil 1.0000000
ज़ोर impetus 0.1111111
ज़ोर NULL 0.0000425
ज़ोर further 0.0454545
ज़ोर have 0.0013459
ज़ोर laid 0.0769231
धूल storms 1.0000000
खिलाड़ियों NULL 0.0001699
खिलाड़ियों participants 0.3333333
खिलाड़ियों Indian 0.0169492
खिलाड़ियों medal 0.0476190
खिलाड़ियों players 0.5500000
खिलाड़ियों sportspersons 0.5000000
खिलाड़ियों Players 0.5000000
खिलाड़ियों athletes 0.2000000
चिन्नाथम्पी them 0.0066225
इसीलिए This 0.0042017
इसीलिए saying 0.0625000
इसीलिए is 0.0007734
इसीलिए why 0.0250000
उत्पाद marketing 0.3333333
अच्छा liked 0.1111111
अच्छा flowing 0.2000000
अच्छा creditable 0.2500000
अच्छा beautiful 0.1666667
अच्छा Whatever 0.1000000
अच्छा productively 0.1250000
अच्छा listening 0.0909091
अच्छा work 0.0091743
अच्छा nice 0.3333333
अच्छा NULL 0.0008495
अच्छा a 0.0005128
अच्छा enterprise 0.1111111
अच्छा has 0.0040486
अच्छा grow 0.2500000
अच्छा good 0.2745098
अच्छा indication 0.3333333
अच्छा fruitful 0.3333333
अच्छा more 0.0083333
अच्छा better 0.0270270
अच्छा commendable 0.0555556
अच्छा smoothly 0.2000000
अच्छा mentioning 0.1250000
अच्छा performed 0.0625000
अच्छा felt 0.0810811
अच्छा interest 0.0400000
अच्छा notable 1.0000000
अच्छा heartwarming 0.1666667
अच्छा Many 0.0285714
अच्छा 33 0.5000000
अच्छा needs 0.0555556
अच्छा Blossom 0.1666667
आवाज़ different 0.0161290
आवाज़ NULL 0.0000850
आवाज़ hoarse 0.2000000
आवाज़ are 0.0015552
आवाज़ blast 0.2500000
आवाज़ resounds 0.5000000
आवाज़ voice 0.3333333
भागीरथी NULL 0.0000425
नास्ति anaushadham 0.3333333
नास्ति meaning 0.1428571
नास्ति that 0.0017376
नास्ति naastimulam 0.2500000
Radio inaugurate 0.3333333
Radio Radio 0.0588235
Radio Channel 0.1111111
पारी innings 0.1250000
पारी Kohli 0.1428571
evelopment Development 0.3333333
evelopment development 0.0243902
16 1600 0.3333333
16 Shivangi 0.1428571
16 16 0.5000000
16 clad 0.3333333
16 NULL 0.0000425
16 15-16 1.0000000
16 16th 0.2222222
16 only 0.0075188
फ़सल ripened 0.5000000
फ़सल Spring 0.3333333
फ़सल crop 0.2000000
फ़सल season 0.0312500
फ़सल crops 0.0666667
कान ears 0.5000000
कान Whenever 0.0833333
कान news 0.0204082
जलाते diya 0.2500000
prepared prepare 0.0588235
रामनिरंजन Ram 0.0833333
रामनिरंजन Niranjan 1.0000000
रामनिरंजन by 0.0037594
बारीकियां its 0.0085470
बारीकियां going 0.0178571
बारीकियां reveal 0.2000000
बारीकियां to 0.0003876
बारीकियां specifics 0.5000000
रोशनी illuminate 1.0000000
रोशनी NULL 0.0000850
रोशनी lease 0.2500000
रोशनी moonlight 0.1111111
रोशनी spreading 0.1111111
रोशनी shimmering 0.5000000
भागने marks 0.0769231
भागने chase 0.5000000
घायल those 0.0090909
घायल injured 0.5000000
घायल earnestly 0.3333333
घायल for 0.0011099
घायल pray 0.0833333
प्रारंभ Swachha 0.3333333
प्रारंभ began 0.1428571
प्रारंभ Sarvjanik 0.2000000
प्रारंभ started 0.0238095
प्रारंभ which 0.0050505
प्रारंभ initiate 1.0000000
प्रारंभ initiated 0.0625000
प्रारंभ was 0.0023474
प्रारंभ NULL 0.0000850
प्रारंभ introducing 0.1666667
प्रारंभ launched 0.0909091
प्रारंभ commences 0.1666667
प्रारंभ Spring 0.3333333
प्रारंभ 1920 0.1428571
प्रारंभ starting 0.2500000
1920 same 0.0131579
1920 1920 0.2857143
1920 thought 0.0178571
1920 occurred 0.3333333
हथेली fingertips 0.1666667
हथेली your 0.0040650
कृषि sector 0.2000000
कृषि agriculture 0.5555556
कृषि agricultural 0.4545455
कृषि NULL 0.0000425
कृषि fundamentals 0.3333333
कृषि Agricultural 1.0000000
कृषि makes 0.0625000
मार Suddenly 0.2000000
मार stick 0.1250000
मार a 0.0005128
पत्ते leaves 0.1111111
पत्ते NULL 0.0000850
पत्ते peeling 1.0000000
पत्ते withered 0.3333333
पत्ते fall 0.2000000
ज़िद in 0.0005747
ज़िद NULL 0.0000425
ज़िद stuck 0.1666667
ज़िद protest 0.3333333
ज़िद Mallammas 0.1666667
प्रभावकारी aesthetics 0.2500000
छेड़ी appreciated 0.1666667
मुस्कान lit 0.2000000
मुस्कान NULL 0.0000425
अंगदान donation 0.3750000
अंगदान organ 0.2857143
अनुसार structures 0.3333333
अनुसार NULL 0.0000425
अनुसार requirement 0.1428571
अनुसार requirements 0.1666667
अनुसार according 0.6000000
अनुसार moulded 0.2500000
अनुसार with 0.0034130
अनुसार sync 1.0000000
अनुसार surroundings 0.2000000
Sunday Sunday 0.3333333
Sunday made 0.0114943
मुसीबतों getting 0.0312500
मुसीबतों freed 0.2000000
मुसीबतों their 0.0026596
मुसीबतों in 0.0005747
मुसीबतों them 0.0066225
मुसीबतों help 0.0285714
मुसीबतों troubles 1.0000000
diplomats across 0.0175439
diplomats diplomats 0.1428571
diplomats from 0.0022321
message NULL 0.0000425
message their 0.0026596
message calling 0.1111111
message messages 0.0454545
message for 0.0011099
message get 0.0084034
message phoned 0.1666667
message this 0.0012165
message recorded 0.2500000
message with 0.0017065
message me 0.0044643
message message 0.0200000
message touching 0.2000000
एकांत solitary 0.3333333
एकांत cave 0.3333333
शाहदतों sacrifices 0.2000000
शाहदतों countless 0.2500000
दौड़ते Every 0.0769231
दौड़ते rushes 0.1666667
दौड़ते one 0.0042553
Rupay usage 0.1111111
Rupay about 0.0031153
आखिरी talked 0.1111111
आखिरी last 0.0392157
आखिरी line 0.2000000
आखिरी NULL 0.0000425
आखिरी significantly 0.0833333
आखिरी important 0.0166667
नवाज़ Nawaz 1.0000000
नवाज़ Sharif 0.2500000
उभरा flowing 0.2000000
रौनक sparkle 0.5000000
समष्टि collective 0.0476190
समष्टि from 0.0044643
समष्टि the 0.0004638
समष्टि self 0.1111111
कहूंगा would 0.0058480
rganic NULL 0.0000425
Mauritius Mauritius 1.0000000
गढ़वाल have 0.0013459
गढ़वाल Garhwal 1.0000000
गढ़वाल also 0.0028011
गढ़वाल read 0.0303030
भयभीत Because 0.1666667
समाचारों Television 0.3333333
सस्ता affordable 0.1666667
सस्ता make 0.0117647
सस्ता costly 1.0000000
सस्ता they 0.0052910
दीपावाली Diwali 0.0204082
दीपावाली festival 0.0104167
दीपावाली The 0.0029499
space space 0.0588235
space program 0.0555556
advance thing 0.0303030
advance advance 0.1666667
advance one 0.0042553
advance ina 1.0000000
पायेगा will 0.0041494
विकृति poor 0.0140845
रमज़ान NULL 0.0000850
रमज़ान Ramzan 0.8750000
किए lent 0.1250000
किए Everyone 0.0769231
किए has 0.0020243
किए unanimously 0.3333333
किए shapes 0.2500000
किए Sounding 0.1250000
किए cale 0.2000000
किए improvements 0.2000000
किए decisions 0.0769231
किए NULL 0.0002549
शुचिता cause 0.0454545
शुचिता and 0.0004755
शुचिता righteousness 0.2500000
शुचिता cleanliness 0.0133333
शुचिता honesty 0.1000000
शुचिता purity 0.3333333
beat is 0.0007734
beat Beat 0.1250000
सी.वी C. 0.1666667
राजदूतों photos 0.0714286
राजदूतों those 0.0090909
राजदूतों Ambassadors 0.2500000
राजदूतों shared 0.0384615
सत्याग्रह NULL 0.0001699
सत्याग्रह demand 0.1666667
सत्याग्रह Satyagraha 0.5454545
सत्याग्रह Champaran 0.3636364
सत्याग्रह Satyagrah 0.1428571
सत्याग्रह satyagrah 0.5000000
लकड़ी how 0.0097087
लेंगे carved 0.1250000
लेंगे . 0.0003786
लेंगे NULL 0.0002124
लेंगे participate 0.0500000
लेंगे would 0.0058480
लेंगे adapt 0.2500000
लेंगे have 0.0013459
lighting lighting 0.5000000
गंदा now 0.0099010
गंदा polluted 1.0000000
पढ़िए something 0.0095238
पढ़िए it 0.0018083
पढ़िए carefully 0.0909091
पढ़िए be 0.0016978
पढ़िए may 0.0344828
पढ़िए find 0.0250000
पढ़िए you 0.0015060
पढ़िए Read 0.3333333
कार्यशाला was 0.0023474
कार्यशाला workshop 0.5000000
कार्यशाला organized 0.0250000
गुजरते NULL 0.0000850
गुजरते hawkers 0.5000000
मन्तर a 0.0005128
line starting 0.2500000
line for 0.0011099
line courses 0.3333333
line on-line 0.2500000
आषाढ़ी Ashadhi 0.5000000
लॉकर ourselves 0.0384615
लॉकर paid 0.0769231
लॉकर NULL 0.0000425
लॉकर lockers 0.2857143
लॉकर for 0.0011099
study study 0.0454545
ictoria selected 0.2500000
ictoria was 0.0023474
ictoria Victoria 0.5000000
राष्ट्र symbolises 0.1666667
राष्ट्र building 0.0500000
राष्ट्र awakening 0.3333333
राष्ट्र NULL 0.0001699
राष्ट्र nation 0.1408451
राष्ट्र our 0.0028736
राष्ट्र Nation 0.1666667
राष्ट्र leader 0.1428571
राष्ट्रों neighbouring 0.2500000
राष्ट्रों Allies 0.2000000
concentrate strain 0.2000000
concentrate myself 0.0476190
ठूंठ Earlier 0.1250000
ठूंठ stump 0.3333333
ठूंठ 6-6 0.1666667
ठूंठ now 0.0099010
ठूंठ stumps 0.3000000
ठूंठ those 0.0090909
ठूंठ NULL 0.0000425
ठूंठ very 0.0037879
ठूंठ them 0.0132450
गणपति Ganpati 0.5000000
गणपति ecofriendly 0.1428571
Persons Persons 0.3333333
खुशिया that 0.0008688
खुशिया sharing 0.0454545
खुशिया shine 0.1250000
खुशिया joy 0.1111111
खुशिया paucity 0.2500000
चाहते NULL 0.0003823
चाहते willing 0.2500000
चाहते want 0.0400000
चाहते magnificent 0.1428571
चाहते sell 0.2000000
चाहते wish 0.0344828
चाहते reveal 0.2000000
चाहते wanted 0.0769231
चाहते to 0.0027132
चाहते wants 0.1818182
चाहते future 0.0270270
चाहते en 0.2500000
लोहिया Lohia 0.5000000
इसको liquid 0.2000000
इसको therefore 0.0588235
इसको NULL 0.0002124
इसको further 0.0454545
इसको Read 0.3333333
इसको able 0.0185185
इसको acceptance 0.1666667
इसको channel 0.1666667
इसको see 0.0119048
इसको embraced 0.3333333
इसको it 0.0108499
इसको specific 0.3333333
इसको Make 0.1000000
इसको highlighted 0.1666667
इसको did 0.0204082
इसको chosen 0.2500000
इसको accepted 0.0833333
इसको promoted 0.1111111
इसको Trade 0.2500000
बुक NULL 0.0000425
बुक twitter 0.1428571
बुक does 0.0238095
बुक Guinness 0.1666667
बुक book 0.0666667
समूल harbourers 0.1428571
सात or 0.0080000
सात seven 0.6666667
सात NULL 0.0000425
सात 5-7 1.0000000
सात Five 0.2500000
urbaniation urbanization 0.2000000
urbaniation banked 1.0000000
urbaniation he 0.0072993
urbaniation reason 0.0500000
urbaniation upon 0.0204082
लंगर was 0.0023474
लंगर solely 0.1428571
लंगर by 0.0037594
लंगर initiated 0.0625000
बोतलें and 0.0004755
inormation information 0.0476190
प्रतिबद्धता commitment 0.2222222
प्रगट shall 0.0217391
राजू Raju 0.3333333
commitment concerted 0.3333333
commitment commitment 0.0555556
commitment efforts 0.0222222
नंदन Kaushalya-Nandan 0.3333333
नंदन women-Yashoda-Nandan 1.0000000
सम NULL 0.0000425
सम opportunity 0.0072464
सम Equality 0.5000000
सम equal 0.0714286
विघ्न idols 0.0769231
विघ्न such 0.0056497
विघ्न Ganeshji 0.2500000
विघ्न create 0.0370370
विघ्न problems 0.0322581
open Riyasi 0.2500000
इंडोनेशिया Indonesia 0.5000000
इंडोनेशिया me 0.0044643
पढाई underprivileged 0.1111111
पढाई in 0.0005747
पढाई Some 0.0212766
पढाई teaching 0.3333333
पढाई be 0.0016978
पढाई must 0.0080645
पढाई engaged 0.0909091
Nations has 0.0020243
Nations United 1.0000000
Nations Environment 0.1250000
Nations occasion 0.0181818
Nations the 0.0004638
Nations Nations 0.2500000
Nations World 0.0303030
Nations of 0.0003116
अमेय Ameya 0.2500000
विफल fail 0.3333333
विफल failed 0.1666667
विफल you 0.0015060
विफल have 0.0013459
aspirations in 0.0005747
aspirations been 0.0041667
aspirations arisen 0.3333333
फुल्का just 0.0086957
फुल्का light-hearted 0.2500000
समान akin 0.2500000
समान shoulder 0.0416667
समान unit 0.3333333
समान equality 0.0714286
समान fighting 0.1111111
समान NULL 0.0001274
समान common 0.0322581
परे geography 0.1666667
परे NULL 0.0000425
परे gender 0.5000000
suppression suppression 0.5000000
suppression its 0.0085470
सारथी amounts 0.0909091
Raj Raj 0.3333333
बैनर्जी me 0.0044643
मानसून monsoon 0.3333333
मानसून NULL 0.0000425
मानसून Monsoon 0.6000000
मानसून monsoons 0.2000000
मानसून many 0.0047847
मानसून about 0.0031153
रह do 0.0054645
रह we 0.0018587
रह get 0.0084034
रह residing 0.2000000
रह cant 0.0666667
रह origin 0.1666667
रह lag 0.1111111
रह bins 0.1111111
रह those 0.0090909
रह NULL 0.0002124
रह living 0.0714286
रह lamenting 0.1111111
रह left 0.0357143
देशों NULL 0.0001699
देशों countries 0.6585366
देशों ealous 0.5000000
देशों respective 0.0454545
देशों nations 0.1600000
देशों other 0.0277778
देशों almost 0.0333333
मुलाज़िम workers 0.1000000
मुलाज़िम Government 0.0153846
नजरे as 0.0023148
नजरे model 0.1250000
नजरे example 0.0285714
कमेटिया similar 0.0333333
कमेटिया committees 0.5000000
कमेटिया set 0.0400000
कमेटिया up 0.0140845
जज़्बा but 0.0039526
जज़्बा all 0.0023310
जज़्बा is 0.0023202
जज़्बा NULL 0.0000850
जज़्बा zeal 0.0833333
जज़्बा above 0.1250000
जज़्बा commendable 0.0555556
SmartGaon SmartGaonApp 0.2000000
150 150 0.5000000
150 celebrating 0.0625000
चिपक glued 0.2500000
निकलना came 0.0270270
कल Tomorrow 1.0000000
कल yesterday 0.7142857
कल NULL 0.0000850
कल Yesterday 0.7500000
कल yesterdayjune 0.3333333
कल tomorrow 0.8750000
भेंट present 0.0384615
भेंट NULL 0.0000850
भेंट close 0.0400000
भेंट Bima 0.2000000
भेंट gift 0.3333333
भेंट by 0.0037594
Ambassador contribution 0.0370370
प्रगति Pragati 0.3333333
प्रगति Indias 0.0294118
प्रगति progress 0.1000000
प्रगति only 0.0075188
प्रगति NULL 0.0000850
दोहराते NULL 0.0000425
दोहराते our 0.0014368
दोहराते Reiterating 0.5000000
टैगोर Gurudev 0.1000000
टैगोर Tagore 1.0000000
पैंतालीस There 0.0093458
पैंतालीस about 0.0031153
पैंतालीस 40-45 0.2000000
पैंतालीस are 0.0015552
पैंतालीस still 0.0256410
बढ़ाइए appeal 0.0312500
बढ़ाइए take 0.0113636
बढ़ाइए earnestly 0.3333333
गौरवपूर्वक Following 0.2000000
vision his 0.0046083
vision with 0.0017065
vision vision 0.1666667
vision continuance 1.0000000
vision In 0.0047847
vision NULL 0.0000425
statement an 0.0032051
statement displaying 1.0000000
statement e-cigaretteas 1.0000000
काटकर literally 0.5000000
अखिलेश brother 0.1111111
अखिलेश Akhilesh 1.0000000
यू disappearing 0.2000000
यू UAE 0.1428571
यू Canal 0.1428571
चर्चाओं strengthen 0.0666667
चर्चाओं making 0.0222222
चर्चाओं encouraging 0.1428571
चर्चाओं efforts 0.0222222
चर्चाओं democracy 0.0400000
चर्चाओं open-minded 1.0000000
चर्चाओं would 0.0058480
चर्चाओं debates 0.5000000
चर्चाओं constant 0.1428571
जीना We 0.0053191
जीना to 0.0003876
जीना preferred 0.2000000
जीना stress- 1.0000000
जीना hope 0.0208333
जीना live 0.1666667
जीना with 0.0017065
जीना living 0.0357143
कालखण्ड made 0.0114943
कालखण्ड have 0.0013459
कालखण्ड must 0.0080645
कालखण्ड one 0.0042553
कालखण्ड feel 0.0108696
कालखण्ड period 0.0500000
adventure some 0.0080000
adventure spirit 0.0222222
adventure adventure 0.6666667
ta prevailing 0.1666667
ta in 0.0005747
ta NULL 0.0000425
ta applicable 0.3333333
ta is 0.0007734
ta affairs 0.2500000
ta huge 0.0833333
ta taxes 0.5000000
ta reform 0.3333333
ta tax 0.8571429
गहरा you 0.0015060
गहरा vast 0.1250000
गहरा very 0.0037879
गहरा gives 0.0322581
गहरा heartache 0.1666667
गहरा special 0.0294118
गहरा relationship 0.1428571
गहरा satisfaction 0.0526316
गहरा It 0.0053191
गहरा deep 0.1666667
गहरा NULL 0.0000425
गहरा left 0.0357143
भुला No 0.0555556
भुला can 0.0024752
इस्तमाल hands 0.0833333
इस्तमाल in 0.0005747
इस्तमाल curbing 0.2500000
इस्तमाल join 0.0909091
working working-class 0.2500000
working The 0.0029499
देसाई Desai 0.5714286
देसाई times 0.0126582
देसाई Morarji 0.1818182
देसाई by 0.0037594
देसाई held 0.0312500
देसाई bhai 0.3333333
देसाई maximum 0.1000000
देसाई number 0.0204082
फ्री number 0.0204082
फ्री 1033 0.2500000
निभाऊगा honestly 0.5000000
महान realizing 0.2500000
महान great 0.1241830
महान purpose 0.1111111
महान leader 0.1428571
महान glorious 0.0909091
महान wizard 0.2000000
महान distinguished 0.3333333
महान physics 0.1428571
महान NULL 0.0000850
महान scientist 0.1428571
महान awesome 0.3333333
महान Mahadevi 0.1111111
महान a 0.0010256
Space Space 0.3333333
Space space 0.1176471
Space NULL 0.0000425
Space in 0.0005747
Space realms 0.2500000
Space successful 0.0312500
उसी handkerchiefs 0.2000000
उसी putting 0.1250000
उसी manner 0.0294118
उसी as 0.0069444
उसी NULL 0.0005522
उसी caught 0.1428571
उसी plan 0.0833333
उसी that 0.0026064
उसी same 0.0394737
उसी We 0.0053191
उसी Pt 1.0000000
उसी graduate 0.1428571
उसी very 0.0113636
उसी this 0.0024331
उसी Maazi 0.2000000
उसी strengthen 0.0666667
उसी wear 0.1666667
उसी Similarly 0.2352941
उसी ordinary 0.0909091
Table table-tennis 0.2000000
जुड़ synchronicity 0.2500000
जुड़ become 0.0090090
जुड़ NULL 0.0003823
जुड़ Magadh 1.0000000
जुड़ time 0.0045045
जुड़ phenomenon 0.1428571
जुड़ programmes 0.0714286
जुड़ kiBaat 0.2000000
जुड़ of 0.0003116
जुड़ this 0.0012165
जुड़ building 0.0500000
जुड़ part 0.0147059
जुड़ village-city 1.0000000
जुड़ Paradoxically 0.2500000
जुड़ stricken 1.0000000
जुड़ have 0.0026918
शोक people 0.0028571
शोक sadness 0.3333333
शोक NULL 0.0000425
सक्रिय active 0.8333333
सक्रिय actively 0.2857143
सक्रिय proactive 0.5000000
सक्रिय contributing 0.0769231
सक्रिय preventing 0.1250000
सक्रिय NULL 0.0000425
जुटें join 0.0909091
as NULL 0.0000425
as replacing 0.1666667
card NULL 0.0000425
card cards 0.2000000
card types 0.0625000
card Various 0.2500000
card debit 0.1666667
Nursery of 0.0003116
ज़माना time 0.0045045
ज़माना age 0.0250000
ज़माना There 0.0093458
लिखकर who 0.0044248
लिखकर written 0.0192308
लिखकर NULL 0.0000425
शास्त्री Shastri 1.0000000
शास्त्री Shashtri 0.5000000
शास्त्री Bahadur 0.8333333
बांधा thread 0.1666667
und fund 0.5000000
oices offices 0.1111111
oices it 0.0018083
action proactive 0.5000000
action taking 0.0344828
action informed 0.2000000
action action 0.2857143
वर्षीय year 0.0204082
वर्षीय Shivangi 0.1428571
वर्षीय old 0.0645161
पूर्वजों ancestors 0.5714286
पूर्वजों forefathers 0.4000000
पूर्वजों NULL 0.0000425
पूर्वजों made 0.0114943
पूर्वजों efforts 0.0222222
पूर्वजों by 0.0112782
पढ़ी benefitted 0.1250000
पढ़ी Maazi 0.2000000
पढ़ी comment 0.1666667
पढ़ी wouldve 0.3333333
पढ़ी my 0.0034483
पढ़ी Exam 0.1666667
पढ़ी replied 0.1111111
बांग्लादेश have 0.0013459
बांग्लादेश my 0.0034483
बांग्लादेश both 0.0434783
बांग्लादेश Bangladesh 1.0000000
बांग्लादेश extend 0.0400000
बांग्लादेश We 0.0053191
बांग्लादेश as 0.0023148
बांग्लादेश NULL 0.0000425
proessionals professionals 0.6000000
proessionals we 0.0018587
मागता in 0.0011494
मागता pour 0.3333333
मागता outset 0.3333333
स्टेशन the 0.0002319
स्टेशन station 0.5384615
स्टेशन stations 0.2000000
स्टेशन railway 0.2857143
स्टेशन in 0.0011494
स्टेशन NULL 0.0000425
परोसते serve 0.0714286
परोसते members 0.0555556
परोसते themselves 0.0217391
दरवाज़े seem 0.2500000
दरवाज़े doors 0.2500000
plant NULL 0.0000425
plant illuminated 1.0000000
1500 Baka 1.0000000
1500 1500 0.3333333
तालिका touch 0.0555556
transaction are 0.0015552
transaction witnessing 0.1666667
transaction transactions 0.2222222
transaction Digital 0.3333333
साक्षात्कार non-gazetted 0.2500000
साक्षात्कार posts 0.2500000
पादुका padukas 1.0000000
आफरीन Abhay 1.0000000
टोकते roads 0.2000000
करवाई NULL 0.0000425
घास wild 0.3333333
घास grass 0.3333333
घास filled 0.0555556
घास completely 0.0526316
घास with 0.0017065
घास was 0.0023474
ओह our 0.0014368
ओह notice 0.0555556
राज्यों other 0.0092593
राज्यों deserve 0.2500000
राज्यों states 0.7111111
राज्यों three 0.0217391
राज्यों holding 1.0000000
राज्यों these 0.0110294
राज्यों NULL 0.0001699
राज्यों of 0.0003116
क्षेत्रों areas 0.0588235
क्षेत्रों GobarDhanYojana 0.5000000
क्षेत्रों contributions 0.2500000
क्षेत्रों regions 0.2000000
क्षेत्रों fields 0.0454545
क्षेत्रों aegis 0.2000000
क्षेत्रों &apos; 0.0212766
क्षेत्रों sectors 0.2500000
क्षेत्रों respective 0.0454545
कृतसंकल्प committed 0.0769231
lab lab 1.0000000
lab their 0.0026596
बहने through 0.0058480
बहने routes 0.5000000
उम्मीद you 0.0030120
उम्मीद NULL 0.0000425
उम्मीद will 0.0020747
उम्मीद hope 0.1041667
उम्मीद sincerely 1.0000000
कोशिश tries 0.1428571
कोशिश one 0.0042553
कोशिश charge 0.1428571
कोशिश trying 0.0454545
कोशिश blast 0.2500000
कोशिश harder 0.2500000
कोशिश to 0.0038760
कोशिश NULL 0.0003398
कोशिश Moreover 0.1666667
कोशिश try 0.1956522
कोशिश tried 0.1081081
गुजारनी where 0.0227273
देखों nearby 0.1428571
रंगीन seas 0.0909091
शिवमोगा use 0.0192308
समेट scientifically 1.0000000
समेट aspects 0.0476190
समेट very 0.0037879
समेट ancestors 0.1428571
समेट NULL 0.0000425
समेट Our 0.0185185
समेट encompassed 0.3333333
समेट these 0.0036765
समेट had 0.0038023
छापे raids 0.5000000
सुदूर Far 1.0000000
सुदूर NULL 0.0000425
सुदूर remote 0.3636364
सुदूर off 0.1000000
aordable affordable 0.3333333
कारणों for 0.0011099
campaign few 0.0095238
campaign quite 0.0400000
campaign upon 0.0204082
campaign embarked 0.0833333
campaign has 0.0020243
campaign a 0.0005128
campaign campaigns 0.1000000
मज़दूरी generations 0.0625000
मज़दूरी older 0.5000000
मज़दूरी labourers 0.2000000
पोरबंदर Porbander 0.5000000
पोरबंदर Porbandar 0.2000000
पोरबंदर total 0.1111111
पोरबंदर ODF 0.1666667
पोरबंदर NULL 0.0000425
फलस्वरूप voting 0.2500000
फलस्वरूप took 0.0294118
फलस्वरूप on 0.0014859
फलस्वरूप place 0.0169492
पत्र This 0.0042017
पत्र Shree 0.2500000
पत्र letters 0.2666667
पत्र number 0.0204082
पत्र admit-card 0.3333333
पत्र Bhaiya 0.1111111
पत्र NULL 0.0001699
पत्र saying 0.0625000
पत्र letter 0.2432432
चलाते NULL 0.0000850
चलाते Sewa 0.5000000
चलाते driver 0.2000000
चलाते work 0.0091743
चलाते Hi 0.3333333
चलाते Swachchata 0.2000000
चलाते meal 0.2500000
चलाते countrywide 1.0000000
चलाते a 0.0015385
चलाते running 0.1428571
बुराइयों eliminate 0.2500000
बुराइयों NULL 0.0001274
बुराइयों bad 0.0833333
बुराइयों habits 0.1111111
बुराइयों from 0.0022321
बुराइयों child-marriage 0.2000000
बुराइयों Evil 0.2500000
रंग NULL 0.0004248
रंग colour 0.4000000
रंग blue 0.2500000
रंग colourful 0.2000000
रंग imbued 0.2500000
रंग hues 0.1428571
रंग fervor 0.1250000
रंग envelop 0.5000000
रंग spirit 0.0222222
रंग imbue 0.1111111
रंग green 0.1428571
रंग will 0.0020747
रंग Rang 0.3333333
जिसमें cancer 0.1000000
जिसमें our 0.0014368
जिसमें wherein 0.1428571
जिसमें NULL 0.0002549
जिसमें reforms 0.1000000
जिसमें Supreme 0.3333333
जिसमें marker 0.5000000
जिसमें BSF 0.1250000
जिसमें stating 0.3333333
जिसमें with 0.0017065
जिसमें of 0.0009349
जिसमें people 0.0028571
जिसमें Hai 0.3333333
जिसमें Europe 0.1428571
जिसमें which 0.0252525
जिसमें sublimity 1.0000000
जिसमें poorest 0.0625000
जिसमें dump 1.0000000
गहने sold 0.1111111
गहने jewellery 1.0000000
गहने family 0.0153846
क्रान्ति Agast 0.2500000
क्रान्ति Kranti 0.3333333
सकें peacefully 0.1250000
सकें aasans 0.1428571
सकें they 0.0105820
सकें can 0.0049505
सकें their 0.0026596
सकें curiosity 0.1111111
सकें increase 0.0526316
दिलचस्पी generating 0.1428571
दिलचस्पी lot 0.0178571
planning mapping 0.5000000
planning planning 0.2500000
कुरुक्षेत्र Kurukshetra 0.5000000
कुरुक्षेत्र In 0.0047847
कुरुक्षेत्र battlefield 0.5000000
N.P N. 0.3333333
मिल should 0.0043860
मिल march 0.1666667
मिल rewarded 0.3333333
मिल marathon 0.2500000
मिल for 0.0011099
मिल parties 0.1666667
मिल dynamism 0.2500000
मिल fingertips 0.1666667
मिल lease 0.2500000
मिल together 0.0493827
मिल getting 0.0312500
मिल dawned 0.2500000
मिल examples 0.1250000
मिल derive 0.1000000
मिल gather 0.2000000
मिल reaping 0.1250000
मिल NULL 0.0015716
मिल worries 1.0000000
मिल achieved 0.0454545
मिल millworkers 0.3333333
मिल benefits 0.1250000
मिल continuous 0.3333333
मिल that 0.0017376
मिल logging 0.1250000
मिल cheaper 0.0909091
मिल get 0.0336134
मिल biscuit 0.3333333
मिल Indu 0.2000000
मिल Commissioners 0.1428571
मिल Kutchh 0.1428571
भाग्यशाली travel 0.2500000
recall memory 0.0769231
recall effective 0.0625000
recall exists 0.1428571
recall recall 0.2222222
recall most 0.0222222
recall that 0.0008688
recall medicine 0.5000000
recall for 0.0011099
smooth smooth 0.2000000
smooth transition 0.5000000
smooth has 0.0020243
smooth place 0.0169492
smooth taken 0.0243902
भट्टा such 0.0056497
जोड़ना every 0.0071429
जोड़ना NULL 0.0000425
जोड़ना manifestation 0.2000000
जोड़ना citizen 0.0454545
जोड़ना connect 0.0285714
जोड़ना like 0.0071942
जोड़ना You 0.0081301
जोड़ना think 0.0181818
फेस twitter 0.1428571
धैर्य emphasized 0.1428571
धैर्य virtue 0.3333333
धैर्य patience 0.6666667
that stand 0.0909091
that that 0.0008688
मे NULL 0.0000425
मे drinking 0.1000000
मे become 0.0090090
मे around 0.0166667
मे among 0.0833333
मे implicit 1.0000000
मे moving 0.0400000
मे during 0.0319149
मे folk 0.1428571
मे thing 0.0303030
जन्मदिन anniversary 0.0196078
जन्मदिन birthday 0.3750000
जन्मदिन birth 0.0327869
जन्मदिन NULL 0.0000425
पेशेवर students 0.0175439
पेशेवर professionals 0.2000000
पेशेवर housewives 0.5000000
उन्होंने completion 0.1111111
उन्होंने Producers 1.0000000
उन्होंने connection 0.1428571
उन्होंने grateful 0.0571429
उन्होंने tribals 0.1428571
उन्होंने wrote 0.1739130
उन्होंने her 0.0108696
उन्होंने they 0.0793651
उन्होंने Suchitra 0.3333333
उन्होंने Hed 1.0000000
उन्होंने Satna 0.2500000
उन्होंने constructing 1.0000000
उन्होंने she 0.1276596
उन्होंने nice 0.1666667
उन्होंने street 0.0769231
उन्होंने posted 0.3333333
उन्होंने NULL 0.0026335
उन्होंने bunch 0.2000000
उन्होंने vertical 0.3333333
उन्होंने has 0.0161943
उन्होंने desire 0.1250000
उन्होंने winning 0.0500000
उन्होंने granddaughter 0.3333333
उन्होंने Assam 0.1666667
उन्होंने She 0.1666667
उन्होंने Giri 0.2500000
उन्होंने he 0.2116788
उन्होंने complaining 0.2500000
उन्होंने inspite 1.0000000
उन्होंने resort 0.1666667
उन्होंने sharing 0.0454545
उन्होंने lying 0.0909091
उन्होंने They 0.1012658
उन्होंने chose 0.2500000
उन्होंने Golden 0.3333333
उन्होंने handed 0.2000000
उन्होंने hardship 1.0000000
उन्होंने torch 0.3333333
उन्होंने He 0.3518519
week,16 two 0.0151515
पशुपालकों be 0.0016978
पशुपालकों cattle 0.2500000
पशुपालकों helped 0.1250000
पशुपालकों herders 0.2000000
पशुपालकों will 0.0020747
coverage Toilets 1.0000000
सिपाही for 0.0011099
सिपाही mutiny 0.1428571
सिपाही partners 0.1428571
सिपाही soldier 0.1000000
सिपाही a 0.0010256
सिपाही soldiers 0.0370370
कड़ी sheer 0.0500000
कड़ी that 0.0008688
कड़ी through 0.0116959
कड़ी worthwhile 0.2000000
कड़ी for 0.0011099
कड़ी fierce 0.5000000
कड़ी NULL 0.0000850
कड़ी hard 0.0833333
कड़ी his 0.0046083
scores scores 0.1428571
विनती prayer 0.2000000
विनती request 0.0188679
इलाहाबाद verdict 0.1666667
इलाहाबाद came 0.0270270
इलाहाबाद Allahabad 0.8333333
सड़क litter 0.1250000
सड़क a 0.0005128
सड़क road 0.0769231
सड़क accident 0.1111111
age limit 0.1666667
age there 0.0048077
जोड़ा have 0.0013459
जोड़ा we 0.0018587
जोड़ा added 0.3333333
जोड़ा mission 0.0357143
जोड़ा Group 0.5000000
जोड़ा NULL 0.0001274
जोड़ा been 0.0041667
आन्दोलन Movement 0.6666667
आन्दोलन imposition 0.5000000
आन्दोलन struggle 0.1176471
आन्दोलन Kalanjiyam 0.5000000
आन्दोलन NULL 0.0000850
आन्दोलन movement 0.2549020
आन्दोलन 1920 0.1428571
आन्दोलन into 0.0094340
उड़ान achievers 0.1428571
उड़ान You 0.0081301
उड़ान are 0.0015552
उड़ान Seetharaman 0.5000000
उड़ान . 0.0003786
उड़ान right 0.0303030
उड़ान absolutely 0.1000000
ओढ़ greenery 0.2000000
बाकि regionalism 0.2500000
बाकि other 0.0092593
साम्राज्य who 0.0044248
वज़नदार heaviest 0.2000000
प्रतिबंध bags 0.1250000
demonstration were 0.0068493
हिमावंतनु Which 0.2500000
हिमावंतनु ) 0.0588235
हिमावंतनु janakaraayanu 1.0000000
हिमावंतनु broohu 0.5000000
हिमावंतनु means 0.0212766
हिमावंतनु jasuvalendanu 1.0000000
market it 0.0018083
market markets 0.2500000
market NULL 0.0000425
medicine relying 0.5000000
medicine solely 0.1428571
पुनर्जन्म re-birth 0.3333333
दाग bullets 0.2000000
लाना NULL 0.0000850
लाना come 0.0101010
अंडे egg 1.0000000
electronic electronic 0.3333333
electronic unlike 0.3333333
पहल initiatives 0.1250000
पहल Mitra 1.0000000
पहल took 0.0294118
पहल Satellites 0.1428571
पहल initiative 0.1515152
पहल an 0.0032051
पहल NULL 0.0000425
उड़ाया what 0.0107527
ण indebtedness 0.4000000
ण as 0.0023148
ण my 0.0034483
ण express 0.0196078
संसद Parliament 0.5454545
संसद NULL 0.0001274
संसद Parliaments 0.1666667
सदस्यों gifted 0.1000000
सदस्यों members 0.0555556
सदस्यों me 0.0044643
पश्चिम east 0.2857143
पश्चिम NULL 0.0000425
पश्चिम West 0.8888889
पश्चिम western 1.0000000
पश्चिम from 0.0066964
structure the 0.0004638
structure What 0.0277778
structure structure 0.1666667
structure should 0.0043860
e that 0.0008688
e e-cigarettes 0.1666667
e scores 0.1428571
e e-book 0.2500000
e NULL 0.0000425
e an 0.0032051
sha Synthetic 0.5000000
होता impossible 0.0588235
होता communities 0.1250000
होता wondered 0.1428571
होता NULL 0.0028883
होता Revolution 0.2500000
होता goddess 0.2500000
होता ensues 0.2500000
होता conviction 0.1000000
होता gives 0.0645161
होता season 0.0625000
होता innate 0.1000000
होता quite 0.0400000
होता pleasure 0.0833333
होता losses 0.1428571
होता harmful 0.3333333
होता vitality 0.5000000
होता praying 0.3333333
होता driven 0.1250000
होता valuable 0.1428571
होता precious 0.1250000
होता Season 0.2500000
होता seasonal 0.1428571
होता enchanted 0.2000000
होता mired 0.3333333
होता does 0.0476190
होता restricted 0.2000000
होता stands 0.0769231
होता burden 0.0769231
होता Normally 0.3333333
होता means 0.0212766
होता Pranayam 0.3333333
होता place 0.0169492
होता unlike 0.3333333
होता amounts 0.0909091
होता paid 0.0769231
होता of 0.0003116
होता destination 0.2500000
होता criticism 0.0833333
होता experiencing 0.1250000
होता satisfied 0.2000000
होता significance 0.0434783
होता makes 0.0625000
होता depleted 0.2000000
होता there 0.0048077
होता changes 0.0769231
होता impact 0.0666667
होता lull 0.2500000
होता asset 0.1666667
होता spills 0.5000000
होता ineffective 0.1666667
होता germination 0.3333333
होता evident 0.1666667
होता a 0.0102564
होता forgives 0.2000000
होता benefitted 0.1250000
होता value 0.1000000
होता carrying 0.5000000
होता tension 0.0833333
होता exemplifies 0.3333333
होता is 0.0030936
होता happens 0.2941176
होता celebration 0.0952381
होता effort 0.0322581
होता exist 0.1666667
होता precisely 0.1666667
होता It 0.0106383
होता Life 0.0909091
होता attract 0.1000000
होता barrier 0.2500000
होता fertilizer 0.1428571
होता are 0.0046656
होता frost 1.0000000
होता orders 0.2500000
होता ease 0.1666667
होता appreciated 0.1666667
होता inbuilt 0.2500000
होता realisation 0.1250000
होता hard 0.0277778
होता vigour 0.1111111
होता booking 0.2500000
होता external 1.0000000
होता aesthetics 0.2500000
माध्यमों on 0.0014859
माध्यमों side 0.1250000
माध्यमों various 0.0277778
माध्यमों your 0.0040650
माध्यमों platforms 0.3333333
ओड़िशा Jagatsinghpur 0.3333333
twin personally 0.2500000
twin twin 0.5000000
twin demonstrated 0.1428571
जश्न that 0.0008688
जश्न harbinger 0.5000000
जश्न between 0.0625000
जश्न exists 0.1428571
जश्न bond 0.1428571
जश्न unbreakable 0.5000000
परिपक्व early 0.1111111
परिपक्व at 0.0042194
परिपक्व maturity 0.3333333
भरा with 0.0051195
भरा is 0.0030936
भरा diversities 0.0666667
भरा and 0.0004755
भरा heart 0.0188679
भरा climatic 0.1250000
भरा heavy 0.1000000
भरा fraught 0.3333333
भरा NULL 0.0003823
भरा brimming 0.2222222
भरा a 0.0005128
भरा collecting 0.1666667
भरा full 0.0731707
भरा filled 0.1111111
Reality The 0.0029499
अपना JanShakti4JalShakti 0.1428571
अपना future 0.0270270
अपना flag 0.2000000
अपना Satyagrah 0.1428571
अपना verdict 0.1666667
अपना 2029 0.3333333
अपना has 0.0020243
अपना litter 0.1250000
अपना lent 0.1250000
अपना focus 0.0769231
अपना introduction 0.1428571
अपना sagacity 0.5000000
अपना their 0.0398936
अपना NULL 0.0008920
अपना utilize 0.2000000
अपना contribute 0.1111111
अपना devoted 0.0833333
अपना significance 0.0869565
अपना functioning 0.1428571
अपना Guinness 0.1666667
अपना ugly 0.5000000
अपना amounts 0.0909091
अपना his 0.0368664
अपना entrepreneur 0.1666667
अपना Apna 1.0000000
अपना contribution 0.0370370
अपना contributing 0.0769231
अपना seasonal 0.1428571
अपना Old 0.2000000
अपना competing 0.1428571
अपना gentleman 0.1111111
अपना characteristic 0.3333333
अपना submit 0.1666667
अपना own 0.0361446
अपना flying 0.2500000
अपना leg 0.1111111
अपना pose 0.1428571
अपना exciting 0.3333333
अपना ShivaKumar 0.2500000
अपना tender 0.1428571
अपना zeal 0.0833333
अपना lives 0.0317460
अपना skills 0.0526316
अपना policy 0.1666667
अपना sell 0.2000000
अपना retirement 0.2500000
अपना fortunate 0.0434783
अपना coveted 1.0000000
वहीं At 0.0800000
वहीं NULL 0.0002124
वहीं Whereas 0.1666667
योगा exercises 0.2500000
योगा campaign 0.0105263
योगा Yoga 0.0117647
योगा yogic 0.1428571
योगा call 0.0285714
नज़रिया looking 0.0714286
नज़रिया our 0.0014368
नज़रिया perception 0.1428571
नज़रिया NULL 0.0000425
नज़रिया way 0.0116279
नज़रिया at 0.0042194
नज़रिया life 0.0058824
सोनाली skills 0.0526316
सोनाली Sonali 0.4000000
खबर is 0.0015468
खबर news 0.0204082
खबर development 0.0243902
खबर there 0.0048077
trends trends 0.5000000
ederalism federalism 0.8000000
ederalism co-operative 0.5000000
उपाध्याय , 0.0002255
उपाध्याय Upadhyaya 0.5000000
उपाध्याय Deendayal 1.0000000
उपाध्याय Dayal 0.2500000
व्यापकता sheer 0.0500000
व्यापकता spread 0.0400000
व्यापकता size 0.2000000
चढ़ endeavor 0.1428571
चढ़ part 0.0147059
चढ़ bane 0.2500000
चढ़ entire 0.0090090
चढ़ participating 0.2000000
प्राणवान full 0.0243902
प्राणवान grand 0.0625000
विनाश by 0.0037594
विनाश Destruction 0.3333333
विनाश destructive 1.0000000
विनाश NULL 0.0000850
विनाश environment 0.0243902
विनाश destroying 0.5000000
bags They 0.0126582
बर्फ़ snow 0.5000000
परिवेश attires 0.2500000
परिवेश environment 0.0243902
परिवेश maritime 0.3333333
octors Doctors 0.2500000
octors mention 0.0588235
प्रवृति instinct 0.2500000
प्रवृति well 0.0109890
प्रवृति an 0.0032051
प्रवृति as 0.0046296
देवीलाल Lal 0.0833333
एक.एक realize 0.0909091
प्रोग्राम program 0.0555556
प्रोग्राम Town 0.2500000
प्रोग्राम Hall 0.1666667
diabetes Diabetics 0.3333333
diabetes Diabetes 0.3333333
diabetes blood 0.3333333
diabetes is 0.0023202
diabetes defeat 0.1428571
diabetes NULL 0.0000850
जगाएगी together 0.0123457
जगाएगी performing 0.1250000
जगाएगी evoke 0.3333333
विमर्श NULL 0.0000425
विमर्श automatically 0.2000000
विमर्श ensues 0.2500000
विमर्श customers 0.1111111
डिजि Vyapari 1.0000000
डिजि In 0.0047847
डिजि Digi-Dhan 0.3076923
डिजि Vyapar 0.5000000
डिजि culmination 0.3333333
जावेद Jawed 0.6666667
जावेद especially 0.0188679
जावेद NULL 0.0000425
जावेद mentioning 0.1250000
जावेद just 0.0086957
जावेद his 0.0046083
जावेद because 0.0175439
जावेद Javed 0.1666667
जावेद case 0.0833333
जावेद Is 0.2500000
संध्या eve 0.5000000
page Newspaper 0.5000000
वाकई NULL 0.0000425
वाकई performance 0.0500000
वाकई striking 0.2000000
वाकई really 0.0800000
वाकई it 0.0018083
एस expressed 0.0344828
एस has 0.0020243
एस Ji 0.0172414
एस S. 0.4285714
एस feelings 0.0769231
एस his 0.0046083
एस Sunder 0.5000000
सुनानी die 0.0909091
प्रारम्भिक from 0.0022321
प्रारम्भिक time 0.0045045
निभायेगा . 0.0001893
butterly Garden 0.1666667
butterly Butterfly 1.0000000
विजयपताकायें won 0.0370370
टोपी to 0.0003876
टोपी NULL 0.0000850
टोपी wear 0.1666667
टोपी cap 0.2500000
घोषणा announcements 0.2000000
घोषणा announced 0.0909091
घोषणा have 0.0013459
घोषणा NULL 0.0000850
घोषणा an 0.0032051
घोषणा committee 0.2000000
घोषणा announcement 0.6666667
घोषणा Cabinet 0.3333333
घोषणा made 0.0114943
सपने very 0.0037879
सपने resolves 0.0909091
सपने get 0.0084034
सपने dream 0.1290323
सपने dreams 0.3333333
सपने nurture 0.1111111
सपने NULL 0.0000425
सपने fulfilled 0.2500000
सपने wish 0.0172414
सपने all 0.0023310
सपने that 0.0008688
नियम drafted 0.2000000
नियम rules 0.2307692
नियम have 0.0026918
नियम mandatory 0.3333333
द्वीप is 0.0007734
द्वीप Elephanta 0.2500000
द्वीप island 0.3333333
द्वीप Island 1.0000000
द्वीप islands 0.2500000
जंग who 0.0044248
जंग someone 0.0370370
जंग produce 0.0833333
जंग battle 0.3333333
जंग NULL 0.0000425
जंग fighting 0.1111111
जंग contributed 0.0666667
साधनों gainful 1.0000000
साधनों pursuing 1.0000000
साधनों means 0.0212766
वैचारिक intellectual 1.0000000
महादेवी what 0.0107527
महादेवी Ji 0.0172414
महादेवी us 0.0048544
महादेवी Mahadevi 0.2222222
महादेवी also 0.0028011
महादेवी do 0.0054645
महादेवी let 0.0250000
महादेवी used 0.0204082
तोड़ते everytime 0.1428571
तोड़ते NULL 0.0000850
पंढरपुर Wooden 0.3333333
पंढरपुर Pandharpur 0.8333333
पंढरपुर visit 0.0217391
राशि were 0.0068493
राशि a 0.0005128
राशि they 0.0052910
राशि sum 0.4000000
राशि provided 0.0833333
शासन NULL 0.0001274
शासन adopted 0.0909091
शासन shake 0.1666667
शासन people 0.0028571
शासन administrative 0.2500000
शासन government 0.0309278
शासन administration 0.1428571
शासन rule 0.5000000
संपर्क come 0.0101010
संपर्क contacted 0.3333333
संपर्क in 0.0011494
संपर्क with 0.0051195
संपर्क not 0.0026596
संपर्क touch 0.0555556
संपर्क form 0.0400000
संपर्क contact 0.3333333
संपर्क regular 0.1250000
संपर्क Im 0.0476190
आत्मा similarly 0.1111111
आत्मा soul 0.1250000
आत्मा : 0.0250000
आत्मा it 0.0018083
regularly basis 0.0666667
उतनी are 0.0015552
उतनी concerned 0.0500000
उतनी equal 0.0714286
उतनी NULL 0.0001274
उतनी saved 0.0833333
उतनी proclaimed 0.2500000
उतनी am 0.0062893
उतनी complimenting 0.1428571
उतनी involvement 0.3333333
6 illustrious 0.2000000
6 6th 1.0000000
6 six 0.3000000
6 6 0.7500000
6 oncoming 0.3333333
15 fifteen 0.6666667
15 15thAugust 0.6666667
15 NULL 0.0001274
15 15 0.8666667
15 15-20 0.2857143
15 15,000 0.3333333
15 on 0.0118871
15 15th 0.8500000
15 for 0.0011099
संगठन NULL 0.0001274
संगठन Youth 0.2500000
संगठन Social 0.1666667
संगठन organisations 0.8000000
संगठन citizens 0.0178571
संगठन organising 0.3333333
संगठन organisational 1.0000000
संगठन organizations 0.0833333
कचरा garbage 0.0714286
कचरा sift 0.3333333
कचरा or 0.0040000
कचरा with 0.0017065
कचरा useless 0.1428571
कचरा festivals 0.0169492
कचरा trash 0.2727273
कचरा surrounding 0.1428571
कचरा such 0.0056497
कचरा NULL 0.0001274
कचरा decomposed 0.2500000
कचरा collected 0.0909091
बताया Biswal 0.2500000
बताया replied 0.1111111
बताया now 0.0099010
बताया Porbandar 0.2000000
बताया have 0.0107672
बताया me 0.0133929
बताया NULL 0.0001274
बताया been 0.0375000
बताया told 0.3409091
बताया Disability 0.2500000
बताया am 0.0062893
बताया shared 0.0384615
ग्राहक Grahak 0.5000000
ग्राहक hundred 0.0270270
ग्राहक Graahak 1.0000000
ग्राहक 100 0.0833333
ग्राहक NULL 0.0000425
ग्राहक under 0.0161290
ग्राहक customers 0.1111111
ग्राहक Lucky 0.4000000
ग्राहक complete 0.0769231
रखूंगा . 0.0001893
seasonal it 0.0018083
आघात agonized 1.0000000
आघात harm 0.1111111
आठ loan 0.1666667
आठ week 0.0666667
आठ average 0.3333333
आठ NULL 0.0000425
आठ or 0.0040000
आठ eight 0.1666667
आठ so 0.0083333
लू typing 0.2500000
लू If 0.0129870
लू , 0.0004510
लू NULL 0.0000850
विदेशों abroad 0.1111111
विदेशों Perhaps 0.1250000
विदेशों The 0.0029499
विदेशों import 0.5000000
अवनी Avani 0.2000000
अवनी have 0.0013459
सुनवाई brief 0.1666667
सुनवाई a 0.0010256
सुनवाई hearing 0.1333333
biscuit favourite 1.0000000
biscuit if 0.0090090
biscuit on 0.0014859
biscuit your 0.0040650
biscuit possible 0.0312500
biscuit biscuit 0.3333333
बताना thing 0.0303030
बताना he 0.0072993
बताना about 0.0031153
बताना tell 0.0740741
बताना my 0.0034483
बताना you 0.0060241
बताना with 0.0034130
बताना to 0.0011628
बताना share 0.0344828
बताना another 0.0312500
बताना like 0.0071942
बताना does 0.0238095
बताना Javed 0.1666667
बताना NULL 0.0000850
sketch which 0.0050505
ऐसे Sikkim 0.1666667
ऐसे utilised 1.0000000
ऐसे structural 0.2500000
ऐसे mounted 1.0000000
ऐसे bargain 0.5000000
ऐसे NULL 0.0016990
ऐसे managed 1.0000000
ऐसे such 0.1581921
ऐसे Neither 0.3333333
ऐसे points 0.2000000
ऐसे Dhanera 1.0000000
ऐसे Goddess 0.1428571
ऐसे conscientious 0.4000000
ऐसे examples 0.0625000
ऐसे rending 0.2500000
ऐसे citations 1.0000000
ऐसे amazing 0.1000000
ऐसे met 0.1000000
ऐसे progressive 0.3333333
ऐसे 3rd 0.0588235
ऐसे leader 0.2857143
ऐसे There 0.0093458
ऐसे Officers 0.2500000
ऐसे dismal 1.0000000
ऐसे quick 0.1428571
ऐसे succour 1.0000000
ऐसे Mani 0.1666667
ऐसे Nelson 0.2000000
ऐसे colleges 0.0625000
ऐसे several 0.0714286
ऐसे In 0.0191388
ऐसे separating 0.5000000
कविताओं whether 0.0416667
घरेलू NULL 0.0000425
घरेलू units 0.1250000
घरेलू To 0.0555556
घरेलू household 0.1000000
पूजते On 0.0185185
इन्तजार well 0.0109890
इन्तजार a 0.0005128
इन्तजार awaits 0.3333333
इन्तजार doing 0.0250000
इन्तजार for 0.0011099
जिज्ञासुओं has 0.0020243
is Vyayam 0.1250000
is womanhood 0.1428571
is NULL 0.0000425
is Mercy 0.2000000
is is 0.0038670
माननीय ago 0.0156250
माननीय Honble 0.1666667
नेताजी Netajis 0.3333333
नेताजी Netaji 0.5000000
नेताजी NULL 0.0002124
चाहतें these 0.0036765
चाहतें want 0.0100000
चाहतें strengthen 0.0666667
चाहतें people 0.0028571
सिरे as 0.0023148
सिरे worldwide 0.1000000
सिरे recognition 0.1250000
सिरे attained 0.1428571
सिरे arrived 0.1666667
कोटि successful 0.0312500
कोटि achievement 0.0714286
कोटि crores 0.0416667
कोटि NULL 0.0002124
कोटि felicity 0.5000000
कोटि righteous 0.1666667
कोटि similar 0.0333333
कोटि millions 0.1200000
कोटि nonetheless 0.5000000
कोटि of 0.0012465
कोटि this 0.0012165
elebration Celebrations 1.0000000
रवीन्द्रनाथ Rabindranath 0.6666667
rest chords 0.2000000
अक्टूबर October 0.5952381
अक्टूबर 2nd 0.2500000
अक्टूबर 31stOctober 0.5000000
अक्टूबर NULL 0.0000425
उलझा entangled 1.0000000
उद्यमी entrepreneurs 0.1250000
सफलताए comes 0.0434783
वनस्पतियों fauna 0.3333333
वनस्पतियों flora 0.1428571
साक्षात् within 0.0322581
साक्षात् resides 0.3333333
साक्षात् master 1.0000000
साक्षात् Absolute 0.5000000
दिनचर्या take 0.0113636
दिनचर्या 20-25-30 0.3333333
दिनचर्या should 0.0043860
जयघोष Govinda-Govinda 0.1428571
detect been 0.0041667
जूझते who 0.0044248
जूझते their 0.0026596
संख्या large 0.2000000
संख्या figure 0.2000000
संख्या number 0.1836735
संख्या decreasing 0.1666667
संख्या numbers 0.2307692
संख्या NULL 0.0003398
संख्या dwindling 0.1428571
महीने fortnight 0.3333333
महीने for 0.0011099
महीने lantern 0.1666667
महीने months 0.4838710
महीने Blind 0.2500000
महीने 9th 0.0588235
महीने Ramazan 1.0000000
महीने April 0.0476190
महीने month 0.5970149
महीने NULL 0.0002973
केन्द्रित focus 0.0769231
केन्द्रित on 0.0014859
केन्द्रित NULL 0.0000425
केन्द्रित Beat 0.1250000
पका from 0.0022321
पका cigarettes 0.5000000
पका cooking 0.2000000
पका while 0.0256410
पका 400 0.3333333
पका food 0.0333333
जापान Japan 0.6000000
जापान take 0.0113636
जापान NULL 0.0000425
किस्मत had 0.0038023
walk Devnath 0.2500000
पहुंच even 0.0092593
पहुंच Youths 0.2000000
12वीं was 0.0023474
12वीं them 0.0066225
12वीं Shraddha 0.2500000
12वीं Thamban 0.2500000
12वीं from 0.0022321
अंधेरे darkness 0.0909091
अंधेरे fighting 0.1111111
अंधेरे darkened 1.0000000
हाल as 0.0023148
हाल market 0.1111111
हाल NULL 0.0000850
हाल recently 0.0526316
हाल Just 0.0571429
रंगबिरंगी cheer 0.5000000
रंगबिरंगी colourful 0.2000000
89.33 89 0.5000000
मंडल Mandals 0.2500000
पहुंचा hesitate 0.2000000
tag tagging 0.2000000
tag each 0.0188679
tag spread 0.0400000
tag are 0.0015552
tag they 0.0052910
नंबर this 0.0036496
नंबर number 0.0816327
नंबर 1033 0.2500000
नंबर larger 0.2500000
नंबर studying 0.1666667
रुकी prevention 0.2500000
दुर्घटना Columbia 0.3333333
दुर्घटना We 0.0053191
दुर्घटना accident 0.3333333
दुर्घटना visual 0.3333333
दुर्घटना NULL 0.0000850
दुर्घटना an 0.0064103
दुर्घटना witnessing 0.1666667
2967 2967 0.5000000
मंत्रियों ministers 0.5000000
स्थायी inherent 0.1250000
स्थायी permanent 0.1428571
स्थायी potent 0.2000000
जीता winning 0.0500000
जीता globe 0.1666667
जीता NULL 0.0000425
जीता javelin 0.2500000
जीता . 0.0001893
जीता won 0.0740741
चिंताओं he 0.0072993
चिंताओं probably 0.1428571
चिंताओं become 0.0090090
चिंताओं will 0.0020747
पगडंडियां comes 0.0434783
36 Team 0.2500000
36 long 0.0263158
36 Womens 0.2000000
36 qualified 1.0000000
36 Our 0.0185185
36 36 1.0000000
36 Hockey 0.5000000
36 for 0.0011099
herbal herbal 0.4000000
herbal medicines 0.1250000
टैग geo-tagging 0.3333333
टैग scheme 0.0588235
टैग involves 0.5000000
टैग incredibleindia 0.1428571
दिनों increasing 0.1428571
दिनों ten-day 0.2000000
दिनों Chaturthi 0.1250000
दिनों fire 0.0769231
दिनों I 0.0008460
दिनों days 0.4369748
दिनों travelling 0.3333333
दिनों Everybody 0.1666667
दिनों -Sheetal 1.0000000
दिनों few 0.1809524
दिनों recent 0.1666667
दिनों the 0.0002319
दिनों stirred 0.2500000
दिनों recently 0.1052632
दिनों meet 0.0243902
दिनों possibility 0.1250000
दिनों days- 0.5000000
दिनों past 0.0384615
दिनों NULL 0.0013167
दिनों , 0.0022548
दिनों ago 0.0312500
दिनों Raksha 0.1000000
दिनों Recently 0.3103448
दिनों borne 0.1428571
अर्थात He 0.0092593
बुद्धिमत्ता courage 0.0500000
बुद्धिमत्ता a 0.0005128
बुद्धिमत्ता to 0.0007752
बुद्धिमत्ता mirror 0.2500000
बुद्धिमत्ता show 0.0500000
तोड़ signals 0.2000000
तोड़ NULL 0.0000425
तोड़ decency 0.2500000
इलाकों Sabhas 0.1666667
इलाकों localities 0.2000000
इलाकों NULL 0.0000425
-एकमपि r 0.5000000
-एकमपि : 0.0250000
हसते merrily 0.1111111
शहीदों sacrificed 0.0666667
शहीदों NULL 0.0000425
शहीदों martyrs 0.8571429
शहीदों our 0.0014368
शहीदों who 0.0044248
कर्नाटक Karnataka 0.9285714
Kasrils Kasrils 0.5000000
Kasrils Ronnie 0.2000000
गुरुदेव was 0.0023474
गुरुदेव also 0.0028011
गुरुदेव see 0.0119048
गुरुदेव Gurudev 0.8000000
बनायेंगे will 0.0020747
gold Sovereign 0.3333333
gold Gold 0.1000000
चेहरों his 0.0046083
organiation organization 0.1428571
organiation inculcate 0.0909091
खड़ी facility 0.1111111
खड़ी challenges 0.1000000
खड़ी initiated 0.0625000
खड़ी Sarees 0.1666667
वनस्पति vegetation 0.5000000
वनस्पति medicinal 1.0000000
सक्रियता prudence 0.1666667
सक्रियता celebrated 0.0158730
सक्रियता connect 0.0285714
सक्रियता actively 0.1428571
सक्रियता activism 1.0000000
मेजबानी Diabetes 0.0555556
मेजबानी which 0.0050505
मेजबानी host 0.5000000
मेजबानी defeat 0.0714286
मेजबानी plays 0.1250000
केवल foresaw 1.0000000
केवल emphasized 0.1428571
केवल discovery 0.1111111
केवल entrepreneur 0.1666667
केवल only 0.1052632
केवल Nobel 0.2500000
केवल mutiny 0.1428571
केवल war 0.0555556
केवल Open 0.1111111
केवल ailments 0.1428571
केवल flag 0.2000000
केवल evaluated 0.2500000
84 about 0.0031153
84 84 0.5000000
फेंकता around 0.0166667
अनुकूल friendly 0.1666667
omen led 0.0526316
omen NULL 0.0000425
omen an 0.0032051
omen woman 0.0714286
omen crew 1.0000000
omen Kshamata 0.5000000
promotion excellence 0.1666667
promotion promotion 0.1250000
-जितना tread 0.1250000
-जितना shall 0.0217391
उधर wander 0.1666667
उधर side 0.1250000
बढ़ी NULL 0.0000425
बढ़ी increase 0.0526316
बढ़ी increased 0.4000000
बढ़ी substantially 1.0000000
बढ़ी also 0.0028011
बढ़ी high 0.0588235
बढ़ी has 0.0101215
जुट NULL 0.0000850
जुट up 0.0140845
जुट have 0.0013459
pad fake 0.1428571
pad pads 1.0000000
रिपुदमन RipudamanBelviji 0.4000000
रिपुदमन Ripudaman 0.6666667
बहाया together 0.0123457
बहाया toiled 0.0833333
बहाया came 0.0270270
बहाया and 0.0004755
बहाया collectively 0.1000000
बहाया They 0.0126582
शफ़ी Mohammad 0.6666667
शफ़ी Shafi 0.4000000
शफ़ी NULL 0.0000425
एलोरा Ellora 1.0000000
Arab Afghanistan 0.1111111
Arab and 0.0004755
Arab Saudi 0.3333333
Arab Iraq 0.5000000
Arab Arabia 0.3333333
तुम्हे his 0.0046083
हीरो.और hero 0.0833333
उभरती emerges 0.3333333
create create 0.0370370
create assets 0.1111111
create been 0.0041667
create given 0.0243902
National National 0.4230769
Train passenger 1.0000000
फिरना is 0.0007734
ealand ealand 1.0000000
ealand had 0.0038023
ealand recently 0.0526316
बराबर I 0.0016920
बराबर House 0.2000000
बराबर who 0.0088496
उन States 0.2500000
उन lyricism 1.0000000
उन figures 0.2500000
उन extraordinary 0.1428571
उन millworkers 0.3333333
उन municipalities 0.2500000
उन venues 0.5000000
उन Vizianagaram 0.2500000
उन those 0.2363636
उन thrice 0.1428571
उन NULL 0.0010194
उन remove 0.2500000
उन traditional 0.1250000
उन kindlewood 1.0000000
उन meagre 0.1111111
उन these 0.0183824
उन elements 0.0909091
उन men 0.0400000
उन laud 0.1111111
उन thwarted 0.2000000
उन Mudra 0.1250000
उन voices 0.5000000
ncubation well-equipped 0.2500000
ncubation Incubation 0.5000000
ncubation Centres 0.1428571
NAI NAVIC 1.0000000
NAI are 0.0015552
NAI devices 0.5000000
बल्कि foundations 0.2000000
बल्कि entrepreneurs 0.1250000
बल्कि led 0.0526316
बल्कि Medvedev 0.5000000
बल्कि but 0.0553360
बल्कि dent 0.1428571
बल्कि areaof 0.3333333
बल्कि cabinets 0.3333333
बल्कि physics 0.1428571
बल्कि application 0.3333333
बल्कि NULL 0.0000850
बल्कि protected 0.1666667
बल्कि protection 0.1428571
मंत्रालयों NULL 0.0000425
मंत्रालयों Ministries 0.5000000
Jan with 0.0017065
Jan along 0.0196078
inancial inclusion 1.0000000
कइयों NULL 0.0000425
कइयों are 0.0015552
कइयों who 0.0044248
कइयों Those 0.1666667
कइयों talented 1.0000000
कइयों artistically 0.5000000
आम्बेडकर NULL 0.0000425
आम्बेडकर Ambedkar 0.3750000
आम्बेडकर is 0.0007734
आम्बेडकर Dr. 0.0769231
सुनने NULL 0.0000850
सुनने to 0.0007752
सुनने them 0.0132450
सुनने fitting 0.2000000
सुनने speak 0.0384615
सुनने hear 0.0666667
सुनने After 0.0555556
सुनने listeners 0.2000000
सुनने Wednesday 0.2000000
सुनने listening 0.1818182
मार्गदर्शक bit 0.0666667
मार्गदर्शक guide 0.0833333
मार्गदर्शक is 0.0007734
मार्गदर्शक our 0.0014368
मार्गदर्शक forever 0.1000000
भी included 0.1428571
भी would 0.0350877
भी shortcoming 0.2500000
भी thought 0.0178571
भी similar 0.0333333
भी vigour 0.1111111
भी whenever 0.1500000
भी pot 0.1111111
भी heroes 0.0666667
भी Ki 0.0059524
भी ladder 0.5000000
भी beaches 0.2500000
भी Or 0.5000000
भी point 0.0400000
भी so 0.0250000
भी sacrificed 0.1333333
भी health 0.0238095
भी cultivation 0.2500000
भी purely 0.3333333
भी distributed 0.1428571
भी making 0.0666667
भी playing 0.0588235
भी disqualify 0.2500000
भी understanding 0.2000000
भी touring 0.5000000
भी surrounding 0.1428571
भी character 0.2500000
भी Whenever 0.1666667
भी wasted 0.2857143
भी it 0.0018083
भी promoting 0.1428571
भी Fortnight 0.1428571
भी well 0.1758242
भी guarantee 0.1428571
भी nominate 0.1666667
भी collapses 0.2500000
भी educative 0.1666667
भी storage 0.1666667
भी There 0.0093458
भी role 0.0222222
भी unparalleled 0.1250000
भी highlighted 0.1666667
भी restoration 0.1111111
भी despite 0.3684211
भी reverence 0.5714286
भी excessive 0.1666667
भी No 0.1111111
भी creating 0.0714286
भी realm 0.2500000
भी successful 0.0312500
भी come 0.0202020
भी work 0.0183486
भी Even 0.3571429
भी attractions 0.0769231
भी taken 0.0243902
भी reiterating 0.1428571
भी disgust 0.1666667
भी organized 0.0500000
भी healthcare 0.5000000
भी quite 0.0800000
