\data\
ngram 1=9369
ngram 2=47300
ngram 3=77121

\1-grams:
-4.6770377	<unk>	0
0	<s>	-0.85312796
-2.278011	</s>	0
-4.3857713	Come	-0.13806115
-2.0756624	on	-0.46041918
-1.3825223	,	-0.5369652
-2.5979536	I	-0.37452292
-4.2994843	invite	-0.10513432
-2.4697287	you	-0.39150283
-2.5183926	all	-0.35617763
-1.3785529	.	-1.2922376
-4.3857713	Oh	-0.10513429
-4.2994843	Yes	-0.10513429
-4.0340385	This	-0.11949429
-2.0585186	is	-0.39569756
-2.5801334	an	-0.23417614
-3.6189694	opportunity	-0.24607469
-2.0070596	for	-0.42272633
-4.146789	encouraging	-0.10513432
-4.3857713	entrepreneurship	-0.10513432
-4.2994843	RIO	-0.10513429
-3.3251286	going	-0.3911688
-1.7503889	to	-0.44906723
-4.5376773	resound	-0.10513432
-1.6955981	in	-0.5184722
-2.4779296	our	-0.25034797
-4.5376773	ears	-0.10513432
-2.8868809	time	-0.38940978
-1.6061658	and	-0.31017
-3.5173006	again	-0.18295096
-4.3857713	Recently	-0.10513429
-2.7334816	India	-0.37305856
-2.3297358	has	-0.38978115
-2.709314	had	-0.25372887
-2.7486553	many	-0.22036198
-3.8071914	achievements	-0.18624774
-3.5173006	sports	-0.20197523
-2.3644366	as	-0.40333202
-3.2879443	well	-0.24142615
-3.7029624	science	-0.32111433
-4.2994843	If	-0.13576941
-3.7029624	cannot	-0.19782251
-2.9394743	do	-0.2898452
-2.3773777	it	-0.41672286
-4.2994843	please	-0.10513432
-2.775186	not	-0.28587553
-4.146789	else	-0.13806115
-2.2642975	this	-0.29840848
-2.797643	too	-0.4060771
-2.402153	will	-0.3741322
-4.3857713	weigh	-0.10513432
-4.5376773	heavily	-0.10513432
-2.4068136	have	-0.37364727
-2.0574694	a	-0.3257209
-4.0340385	lot	-0.15912473
-1.6021065	of	-0.40024433
-3.6589386	faith	-0.28174195
-3.0581396	Yoga	-0.26710108
-4.2994843	Our	-0.1110152
-3.8071914	farmer	-0.1890617
-3.4607215	brothers	-0.50873446
-4.2994843	Telangana	-0.14380008
-2.6954336	through	-0.33567232
-3.6189694	Mission	-0.16273277
-4.5376773	Bhagirathi	-0.10513432
-3.126184	made	-0.23391965
-3.9446094	commendable	-0.12403705
-3.3657968	effort	-0.24250396
-4.5376773	optimally	-0.10513432
-3.3061385	use	-0.1801984
-1.8383007	the	-0.30662104
-4.3857713	waters	-0.18624777
-4.5376773	Godavari	-0.10513432
-4.0340385	Krishna	-0.10513432
-3.8704877	rivers	-0.18422341
-3.8704877	My	-0.12403705
-3.6589386	dear	-0.1526187
-3.4880903	countrymen	-0.27111667
-2.62035	we	-0.35634565
-2.347761	are	-0.2846161
-3.7029624	extremely	-0.12019011
-4.0340385	delighted	-0.10513432
-3.7029624	proud	-0.3217621
-4.2994843	Mars	-0.18624777
-3.221949	success	-0.24867581
-4.3857713	She	-0.11534279
-3.4349754	always	-0.15196419
-4.5376773	tries	-0.10513432
-3.4349754	help	-0.24614552
-3.5173006	others	-0.21576822
-2.6319966	but	-0.2852905
-2.6775908	one	-0.24522597
-3.7029624	habit	-0.21998872
-4.5376773	hers	-0.10513432
-4.5376773	amazes	-0.10513432
-2.7862692	me	-0.32799998
-3.8704877	The	-0.11418954
-3.8704877	capability	-0.2501615
-3.7029624	commitment	-0.20753488
-4.5376773	controlling	-0.10513432
-3.6189694	situation	-0.16967517
-4.0340385	rapid	-0.10513429
-4.0340385	decisions	-0.10513432
-4.2994843	NDRF	-0.10513432
-2.7538335	them	-0.3502983
-4.5376773	cynosure	-0.10513432
-2.9993262	every	-0.24821022
-3.4106708	Indians	-0.18928087
-4.0340385	eye	-0.15196419
-4.3857713	worthy	-0.10513432
-3.5173006	respect	-0.28747472
-4.5376773	admiration	-0.10513432
-3.9446094	We	-0.13153216
-2.7046378	should	-0.35012814
-3.7519577	contribute	-0.30201912
-2.9813678	towards	-0.22142798
-3.8704877	ensuring	-0.12791836
-4.2994843	reducing	-0.27847868
-4.0340385	cash	-0.10513429
-3.8071914	currency	-0.19520459
-4.0340385	notes	-0.16450553
-2.7285395	my	-0.25895238
-3.4349754	journey	-0.21151285
-2.241294	from	-0.3298737
-4.2994843	utilizing	-0.10513429
-4.2994843	Solar	-0.18624777
-4.5376773	Energy	-0.10513432
-4.3857713	Sun	-0.10513432
-4.5376773	illuminate	-0.10513432
-3.582371	houses	-0.15963899
-3.4880903	poor	-0.17142132
-4.2994843	He	-0.12158506
-3.8071914	turned	-0.3070554
-4.0340385	crisis	-0.13380614
-2.8274524	into	-0.32413995
-4.0340385	compassion	-0.18624777
-3.4106708	dedicated	-0.38278708
-2.7697487	his	-0.16620885
-2.9086459	life	-0.43796825
-3.237532	social	-0.20377085
-3.008592	work	-0.39505088
-3.7519577	21st	-0.2998572
-3.8704877	June	-0.22275703
-3.5173006	been	-0.1441547
-4.5376773	mandated	-0.10513432
-3.4880903	celebrated	-0.23817728
-3.7519577	International	-0.3257601
-3.344987	Day	-0.34968913
-3.6589386	entire	-0.14462428
-3.4349754	world	-0.21395062
-2.6241975	people	-0.39203978
-3.5486183	start	-0.1389552
-3.9446094	preparing	-0.2501615
-3.4880903	months	-0.23512353
-4.2994843	advance	-0.10513432
-2.833668	when	-0.43679258
-3.6189694	express	-0.34199452
-3.6589386	myself	-0.14380008
-3.1514602	Mann	-0.8646293
-4.146789	Ki	-0.10513432
-4.2994843	Baat	-0.13239704
-3.8071914	speaking	-0.13380614
-3.4106708	words	-0.14311054
-4.146789	mine	-0.18321475
-3.7519577	voice	-0.22924684
-3.7029624	story	-0.20593955
-4.146789	yours	-0.10513429
-4.5376773	Purusharth	-0.10513432
-3.8071914	pertaining	-0.70444745
-2.7000113	your	-0.21500775
-4.5376773	pursuits	-0.10513432
-3.9446094	goals	-0.14380008
-4.5376773	Parakram	-0.10513432
-3.7029624	achievement	-0.22991943
-4.2994843	A	-0.110208526
-3.3251286	while	-0.1461854
-3.7029624	ago	-0.25621516
-4.2994843	distinguished	-0.10513429
-4.5376773	dignitaries	-0.10513432
-4.5376773	ASEAN	-0.10513432
-4.5376773	Countries	-0.10513432
-2.738481	were	-0.16602708
-3.5173006	here	-0.19446391
-4.0340385	26th	-0.18624777
-3.7519577	January	-0.1788693
-2.8399737	they	-0.30647695
-4.5376773	accompanied	-0.10513432
-2.402153	by	-0.28926986
-3.7519577	cultural	-0.17563409
-4.5376773	troupes	-0.10513432
-2.503505	their	-0.19219615
-4.3857713	respective	-0.10513432
-3.3657968	countries	-0.24674466
-3.9446094	And	-0.15893067
-2.9315598	its	-0.14238283
-3.7519577	matter	-0.19134332
-4.0340385	immense	-0.10513432
-3.6589386	pride	-0.23961717
-2.0440536	that	-0.48129934
-4.5376773	majority	-0.10513432
-2.6280794	these	-0.22653396
-3.7029624	presented	-0.14380008
-4.3857713	Ramayan	-0.10513432
-4.146789	front	-0.20446095
-2.9237866	us	-0.25447708
-4.5376773	Equality	-0.10513432
-3.7029624	equal	-0.20135598
-3.0796578	two	-0.21675056
-4.146789	biggest	-0.12579697
-4.3857713	mantras	-0.23329818
-3.0180595	any	-0.11461596
-3.2069063	society	-0.38492668
-3.2069063	government	-0.23606303
-3.4607215	movement	-0.31845063
-3.1386383	become	-0.2740858
-3.6589386	peoples	-0.14070046
-4.5376773	While	-0.10513432
-3.7029624	talking	-0.37240785
-3.4106708	month	-0.35172534
-4.5376773	sawan	-0.10513432
-2.833668	be	-0.20962545
-4.0340385	glad	-0.2501615
-3.7029624	learn	-0.12487786
-3.5173006	number	-0.30966735
-4.146789	pilgrims	-0.10513432
-4.2994843	Amarnath	-0.16450553
-3.9446094	Yatra	-0.13380614
-3.221949	year	-0.29096723
-3.9446094	greatest	-0.10513429
-3.8704877	past	-0.15654492
-3.8704877	4	-0.10513432
-3.0376372	years	-0.46710682
-2.3730211	was	-0.2762409
-3.9446094	confined	-0.57950866
-3.6589386	having	-0.17162208
-2.9902544	just	-0.20418058
-4.3857713	closed	-0.10513432
-4.146789	door	-0.10513432
-4.5376773	seminar	-0.10513432
-3.6189694	importance	-0.22869743
-3.1386383	cleanliness	-0.27926186
-4.5376773	practically	-0.10513432
-3.9446094	demonstrated	-0.14380008
-2.4724452	at	-0.40565455
-4.3857713	Warangal	-0.10513432
-4.5376773	Will	-0.10513432
-2.9993262	he	-0.23258033
-3.7519577	able	-0.7556
-3.0796578	get	-0.2545624
-2.8594599	some	-0.19421203
-4.2994843	control	-0.10513429
-3.008592	over	-0.1868044
-4.2994843	destiny	-0.10513429
-3.4607215	step	-0.22314723
-4.2994843	achieve	-0.12403705
-4.5376773	holistic	-0.10513432
-3.3657968	development	-0.2913386
-3.6589386	fact	-0.1941339
-2.7236526	there	-0.48878643
-4.0340385	exists	-0.14380008
-3.9446094	huge	-0.11923366
-3.7519577	beyond	-0.12791836
-3.5173006	books	-0.1788693
-4.3857713	They	-0.10513432
-3.3251286	said	-0.30717313
-3.9446094	idea	-0.21702677
-4.3857713	Then	-0.14380008
-3.582371	asked	-0.19965637
-3.1386383	if	-0.33611387
-3.237532	she	-0.21543264
-2.9993262	only	-0.16038035
-4.5376773	reads	-0.10513432
-4.5376773	Geetha	-0.10513432
-2.4434593	or	-0.21668237
-3.1923673	does	-0.47237694
-3.5173006	read	-0.19910052
-3.0477674	something	-0.2762846
-3.6189694	post	-0.12128573
-3.6589386	written	-0.21467216
-4.0340385	MyGov	-0.15749347
-4.5376773	Komal	-0.10513432
-4.5376773	Thakkar	-0.10513432
-2.9315598	ji	-0.37296224
-3.2536945	where	-0.1822521
-4.146789	referred	-0.40341744
-4.146789	starting	-0.16450553
-4.5376773	on-line	-0.10513432
-4.2994843	courses	-0.10513429
-3.8071914	Sanskrit	-0.12791836
-4.5376773	Chhavi	-0.10513432
-4.3857713	Yadav	-0.10513432
-3.9446094	thank	-0.16306043
-2.9394743	very	-0.19020668
-3.2704818	much	-0.15084063
-3.582371	phone	-0.30201912
-3.7029624	call	-0.16077913
-4.5376773	initially	-0.10513432
-3.344987	thought	-0.2385626
-4.5376773	businessman	-0.10513432
-3.4349754	comes	-0.30505082
-4.0340385	definitely	-0.10513432
-3.4106708	talk	-0.49057713
-3.1140769	things	-0.25571096
-3.9446094	personal	-0.17116357
-3.4880903	interest	-0.3572072
-4.0340385	In	-0.1124736
-4.5376773	1921	-0.10513432
-4.3857713	Congress	-0.23329818
-4.146789	Session	-0.15196419
-4.146789	Ahmedabad	-0.18321475
-3.8071914	thousands	-0.5804224
-4.3857713	delegates	-0.10513432
-3.178299	across	-0.52350223
-3.3657968	country	-0.25288448
-4.5376773	slated	-0.10513432
-4.146789	participate	-0.22991943
-3.221949	festivals	-0.3188793
-3.8704877	celebrations	-0.13806115
-4.146789	merely	-0.10513432
-3.8071914	occasions	-0.1305253
-3.344987	joy	-0.3495889
-4.5376773	merriment	-0.10513432
-4.3857713	Yesterday	-0.18624777
-4.5376773	Krishna-	-0.10513432
-4.3857713	Janma	-0.10513432
-4.2994843	Mahotsav	-0.10513432
-3.3061385	festival	-0.324484
-3.5173006	birth	-0.32312995
-3.8071914	Lord	-0.16342123
-3.6589386	throughout	-0.2548153
-4.146789	These	-0.11637695
-3.7029624	officials	-0.15831968
-2.8868809	would	-0.31295612
-3.3876545	visit	-0.23839755
-4.0340385	districts	-0.10513432
-3.344987	villages	-0.30035678
-3.7519577	meet	-0.14942074
-4.0340385	local	-0.10513432
-3.8704877	representatives	-0.29686624
-3.3657968	citizens	-0.30853826
-2.9902544	those	-0.20624498
-4.2994843	regions	-0.10513429
-3.8071914	Kashmir	-0.19682339
-4.0340385	eager	-0.3251499
-3.9446094	join	-0.18422341
-4.146789	national	-0.13380614
-4.3857713	main	-0.10513432
-4.5376773	stream	-0.10513432
-3.8704877	enthusiasm	-0.14242218
-4.2994843	reflected	-0.16450553
-4.3857713	mechanism	-0.10513432
-3.4607215	programme	-0.29181847
-3.582371	Shri	-0.13313231
-4.5376773	Mangesh	-0.10513432
-3.8704877	Maharashtra	-0.17563409
-3.5173006	shared	-0.17907958
-4.0340385	photo	-0.18624777
-4.0340385	Narendra	-0.40433112
-3.8071914	Modi	-0.21852694
-4.146789	Mobile	-0.22823988
-3.6589386	App	-0.2694146
-4.3857713	On	-0.11764427
-3.1140769	day	-0.31515685
-3.6189694	celebrate	-0.19983423
-4.5376773	unbreakable	-0.10513432
-3.9446094	bond	-0.14380008
-3.5486183	between	-0.12128573
-3.3657968	living	-0.26239783
-3.102298	around	-0.29035762
-4.5376773	globe	-0.10513432
-3.9446094	April	-0.16967517
-3.8704877	2018	-0.3070554
-3.0908306	way	-0.3414038
-2.6819832	can	-0.3341321
-4.2994843	accomplish	-0.10513432
-3.4106708	task	-0.23608845
-3.8704877	safe	-0.13380614
-4.2994843	disposal	-0.18624777
-4.0340385	plastic	-0.13806115
-3.3061385	waste	-0.2385626
-3.1386383	before	-0.21201175
-3.3657968	Diwali	-0.28455573
-4.5376773	Since	-0.10513432
-3.8071914	beginning	-0.1305253
-2.5401313	about	-0.31235743
-4.5376773	two-three	-0.10513432
-3.8071914	clear	-0.1305253
-3.8704877	impact	-0.20446095
-3.582371	big	-0.13201311
-4.5376773	townships	-0.10513432
-3.6589386	cities	-0.35930598
-3.6589386	seeing	-0.13943739
-3.4349754	message	-0.2435514
-3.8704877	media	-0.19714758
-4.3857713	Someone	-0.10513432
-3.9446094	posted	-0.14380008
-3.9446094	picture	-0.15559849
-2.203022	with	-0.41298193
-4.5376773	Title	-0.10513432
-4.2994843	hero	-0.10513429
-3.3876545	Mahatma	-0.8620553
-3.5173006	Gandhi	-0.17982383
-4.146789	forgiveness	-0.15196419
-3.9446094	quality	-0.1305253
-3.0908306	great	-0.16395526
-3.6589386	men	-0.20438266
-4.0340385	ideals	-0.20066871
-2.668937	which	-0.2661541
-3.8071914	Bapu	-0.19002548
-4.2994843	practiced	-0.10513429
-3.8704877	imparted	-0.13806115
-4.146789	relevant	-0.16450553
-2.9315598	even	-0.20934728
-3.0477674	today	-0.42708182
-4.146789	It	-0.1451467
-2.6646738	also	-0.19158581
-4.0340385	amazing	-0.10513432
-4.5376773	coincidence	-0.10513432
-3.7519577	witnessed	-0.18422341
-4.2994843	First	-0.10513432
-4.5376773	Struggle	-0.10513432
-3.7519577	Independence	-0.22823988
-4.0340385	Veer	-0.18624777
-4.2994843	Savarkar	-0.10513432
-3.9446094	born	-0.24635713
-4.3857713	19th	-0.10513432
-3.7519577	completed	-0.10513432
-3.2704818	thousand	-0.21906115
-3.0477674	days	-0.32140496
-3.8704877	built	-0.10513432
-4.3857713	ancestors	-0.10513432
-4.5376773	sync	-0.10513432
-3.582371	nature	-0.3692877
-4.146789	surroundings	-0.20066871
-3.221949	place	-0.33911875
-3.8071914	saying	-0.21349221
-2.668937	such	-0.32229406
-3.8071914	feeling	-0.20066871
-3.4607215	think	-0.32475823
-4.146789	engineers	-0.16450553
-4.0340385	era	-0.10513432
-4.0340385	constructed	-0.10513429
-4.3857713	structures	-0.10513432
-4.146789	according	-0.40341744
-4.2994843	situations	-0.10513429
-3.7519577	kept	-0.15027991
-3.8071914	common	-0.13578661
-3.6189694	man	-0.16153505
-4.0340385	secured	-0.15196419
-3.5173006	played	-0.22195756
-4.5376773	pivotal	-0.10513432
-3.4607215	role	-0.46860212
-4.3857713	helping	-0.10513429
-4.0340385	win	-0.10513429
-4.3857713	Hockey	-0.10513432
-3.8704877	Gold	-0.10513432
-4.3857713	Medals	-0.23329818
-4.146789	Olympic	-0.40341744
-3.8704877	Games	-0.13806115
-4.5376773	1928	-0.10513432
-4.5376773	1932	-0.10513432
-4.5376773	1936	-0.10513432
-4.2994843	There	-0.14556193
-4.0340385	truth	-0.1305253
-4.2994843	But	-0.15338066
-4.146789	same	-0.114290036
-3.3061385	within	-0.28419057
-4.3857713	governmental	-0.10513432
-3.4349754	system	-0.21735094
-3.6189694	lakhs	-0.40459254
-2.7046378	who	-0.29529408
-3.582371	sense	-0.49107537
-3.8071914	duty	-0.18422341
-3.9446094	dedication	-0.13380614
-4.2994843	recognized	-0.10513429
-3.9446094	contributing	-0.14380008
-3.178299	campaign	-0.32537052
-3.7519577	own	-0.14712909
-4.5376773	worst	-0.10513432
-3.9446094	Haryana	-0.17116357
-4.5376773	Just	-0.10513432
-3.7519577	few	-0.19018866
-3.8071914	watching	-0.15559849
-3.6589386	Shriman	-0.15196419
-4.2994843	Yogesh	-0.17369066
-4.5376773	Saini	-0.10513432
-3.5486183	team	-0.22315527
-4.5376773	Paradoxically	-0.10513432
-4.0340385	TB	-0.10513432
-3.9446094	linked	-0.30815348
-3.7519577	death	-0.16876777
-3.1923673	used	-0.55223703
-4.2994843	duly	-0.10513429
-4.2994843	afraid	-0.18624777
-3.0180595	now	-0.23631671
-4.5376773	curable	-0.10513432
-3.5486183	almost	-0.13206616
-4.5376773	careless	-0.10513432
-3.9446094	25	-0.16450553
-4.5376773	billion	-0.10513432
-3.9446094	Lokmanya	-0.27984995
-4.146789	Tilak	-0.13806115
-3.4106708	started	-0.16126186
-4.5376773	Sarvjanik	-0.10513432
-4.146789	Ganeshotsav	-0.10513432
-4.2994843	basic	-0.15196419
-4.0340385	aim	-0.14380008
-4.2994843	inculcate	-0.15196419
-3.4880903	spirit	-0.28112683
-3.6589386	unity	-0.28725296
-4.3857713	enhance	-0.10513432
-3.3657968	awareness	-0.29965323
-4.146789	promote	-0.10513429
-3.6589386	culture	-0.31327978
-4.5376773	togetherness	-0.10513432
-4.5376773	Thousands	-0.10513432
-4.3857713	channels	-0.10513432
-3.8704877	newspapers	-0.22998089
-4.2994843	am	-0.11448284
-4.146789	unable	-0.40341744
-3.4607215	name	-0.1669466
-3.2879443	due	-0.74103886
-4.5376773	constraints	-0.10513432
-4.0340385	helped	-0.15196419
-3.5486183	run	-0.13380614
-4.5376773	As	-0.10513432
-4.2994843	revolutionary	-0.10513429
-4.2994843	challenged	-0.10513429
-4.0340385	British	-0.13206616
-4.3857713	rule	-0.10513429
-3.9446094	fought	-0.10513432
-3.2879443	against	-0.14982998
-4.3857713	questioned	-0.10513432
-4.5376773	subjugation	-0.10513432
-3.3061385	states	-0.28609523
-4.5376773	meal	-0.10513432
-3.8071914	campaigns	-0.16450553
-3.5486183	certain	-0.12072451
-4.3857713	dates	-0.10513432
-4.3857713	captain	-0.10513432
-4.5376773	Under-21	-0.10513432
-4.0340385	Women	-0.18321475
-3.1923673	&apos;s	-0.11666906
-4.3857713	Kabaddi	-0.10513432
-4.3857713	Sonali	-0.10513432
-4.5376773	Helvi	-0.10513432
-4.5376773	Satara	-0.10513432
-2.9993262	after	-0.227766
-4.5376773	mobilizing	-0.10513432
-4.2994843	funds	-0.10513429
-4.2994843	twelve	-0.10513429
-3.5173006	long	-0.1400685
-4.5376773	Saiduls	-0.10513432
-4.3857713	mammoth	-0.10513432
-3.1646724	efforts	-0.32330945
-3.7519577	paid	-0.18422341
-4.0340385	rich	-0.10513432
-4.5376773	dividends	-0.10513432
-4.146789	Today	-0.14070046
-3.9446094	sheer	-0.14070046
-3.4349754	hard	-0.31234267
-4.146789	firm	-0.16450553
-3.2704818	resolve	-0.38446048
-3.8071914	thirty	-0.13380614
-4.5376773	bedded	-0.10513432
-4.2994843	hospital	-0.10513432
-4.2994843	finally	-0.10513429
-3.178299	come	-0.41892558
-3.0477674	up	-0.25600013
-4.5376773	Punri	-0.10513432
-4.2994843	Village	-0.10513432
-3.8704877	near	-0.10513432
-4.0340385	Kolkata	-0.13806115
-4.0340385	injustice	-0.15196419
-3.8071914	thus	-0.10513432
-2.901269	like	-0.22643371
-4.2994843	European	-0.16450553
-4.3857713	Union	-0.10513432
-4.5376773	recognizing	-0.10513432
-3.2536945	Indian	-0.14246465
-4.3857713	origin	-0.10513432
-3.4349754	making	-0.16844417
-3.4349754	aware	-0.37013227
-4.0340385	exemplary	-0.10513432
-3.344987	got	-0.1595236
-3.0908306	young	-0.2672634
-4.5376773	dynamic	-0.10513432
-3.237532	students	-0.34273237
-4.146789	boys	-0.10513432
-3.7029624	girls	-0.10513429
-3.7519577	tea	-0.12791836
-3.4880903	won	-0.290951
-3.7519577	medals	-0.15963899
-4.146789	Sports	-0.12579697
-4.5376773	prayed	-0.10513432
-4.2994843	secure	-0.10513429
-4.3857713	exit	-0.10513432
-3.178299	children	-0.3058058
-4.3857713	Your	-0.10513432
-3.7519577	based	-0.28030804
-4.3857713	benchmark	-0.10513432
-3.344987	health	-0.32351106
-3.9446094	conscious	-0.10513429
-3.4349754	say	-0.25227666
-3.582371	space	-0.16342123
-3.344987	left	-0.18124838
-3.4349754	both	-0.12791836
-4.5376773	stomach	-0.10513432
-4.5376773	plate	-0.10513432
-4.2994843	With	-0.16873062
-3.9446094	comprising	-0.10513432
-4.2994843	65	-0.18624777
-3.8704877	population	-0.15749347
-3.3251286	no	-0.15346871
-3.7029624	reason	-0.21184835
-3.5486183	why	-0.20026259
-4.5376773	absent	-0.10513432
-3.3251286	go	-0.2855066
-3.9446094	empowerment	-0.16450553
-2.947536	new	-0.16143607
-4.146789	fervor	-0.2501615
-3.9446094	grand	-0.10513432
-3.5486183	results	-0.15976728
-4.3857713	landmark	-0.10513432
-3.0581396	being	-0.17380118
-4.0340385	embarked	-0.3251499
-3.2069063	upon	-0.23781574
-4.3857713	waterways	-0.10513432
-4.2994843	ports	-0.10513429
-3.2704818	village	-0.23190686
-3.9446094	Pradhans	-0.10513432
-4.2994843	spoke	-0.18624777
-3.7519577	topics	-0.13943739
-4.3857713	affection	-0.10513432
-4.5376773	openness	-0.10513432
-3.8704877	everything	-0.13380614
-3.8071914	touched	-0.23076169
-3.3876545	heart	-0.20214242
-4.5376773	Atharva	-0.10513432
-4.5376773	Veda	-0.10513432
-3.3657968	most	-0.2298555
-4.5376773	authentic	-0.10513432
-4.2994843	guiding	-0.10513429
-4.5376773	scripture	-0.10513432
-3.4880903	environment	-0.24614552
-3.9446094	All	-0.15507455
-4.0340385	departments	-0.14380008
-3.0180595	women	-0.2883259
-4.0340385	performing	-0.15196419
-3.7519577	duties	-0.20066871
-3.0796578	...	-0.43803102
-4.5376773	commercial	-0.10513432
-3.8704877	department	-0.1305253
-4.3857713	Railway	-0.10513432
-4.0340385	Police	-0.15196419
-4.5376773	Ticket	-0.10513432
-4.5376773	checking	-0.10513432
-4.5376773	Announcing	-0.10513432
-4.5376773	Point	-0.10513432
-3.6589386	persons	-0.15551065
-4.0340385	staff	-0.10513432
-4.146789	40	-0.15196419
-4.3857713	earnestly	-0.10513429
-3.8704877	gratitude	-0.22998089
-4.146789	gesture	-0.22823988
-3.8704877	tomorrow	-0.19754119
-3.8704877	31st	-0.4047887
-3.6189694	October	-0.21289201
-4.146789	anniversary	-0.17668411
-3.6189694	Sardar	-0.40466905
-4.5376773	Vallabhbhai	-0.10513432
-4.2994843	Patel	-0.14783859
-3.582371	son	-0.2412813
-4.2994843	vowed	-0.27847868
-4.146789	unite	-0.17116357
-4.5376773	sole	-0.10513432
-4.5376773	object	-0.10513432
-4.0340385	Bhagwan	-0.20974398
-4.3857713	Mahavir	-0.18624777
-3.4106708	remember	-0.29438615
-3.8071914	sacrifice	-0.18472862
-4.5376773	penance	-0.10513432
-4.146789	People	-0.15084058
-4.5376773	ascending	-0.10513432
-4.0340385	Everest	-0.18321475
-4.5376773	managed	-0.10513432
-3.5173006	reach	-0.176526
-4.146789	peak	-0.22823988
-3.582371	successfully	-0.17162208
-4.2994843	extend	-0.14380008
-3.0908306	good	-0.18032923
-3.7519577	wishes	-0.273466
-4.3857713	pious	-0.15196419
-4.3857713	Namaste	-0.15196419
-3.5173006	Prime	-0.59509486
-4.146789	Minister	-0.12487786
-2.8868809	during	-0.441678
-3.4349754	last	-0.2191692
-3.8704877	summer	-0.15749347
-3.8704877	holidays	-0.14380008
-3.8071914	birds	-0.15027991
-3.2536945	feel	-0.31296444
-4.0340385	heat	-0.14380008
-2.8399737	so	-0.352151
-3.9446094	fill	-0.12791836
-4.3857713	bowl	-0.10513432
-2.9394743	water	-0.27867463
-4.5376773	balcony	-0.10513432
-4.5376773	terrace	-0.10513432
-4.5376773	Imprudent	-0.10513432
-4.3857713	stones	-0.10513432
-4.0340385	gems	-0.15196419
-3.344987	important	-0.19656354
-3.5486183	understand	-0.37066856
-4.0340385	questions	-0.1305253
-4.3857713	revere	-0.10513432
-3.6189694	Mother	-0.32111433
-4.5376773	equivalent	-0.10513432
-4.5376773	god	-0.10513432
-3.6189694	since	-0.13206616
-3.8704877	source	-0.6464555
-4.2994843	existence	-0.10513429
-3.2536945	other	-0.15143034
-3.6189694	hand	-0.2386179
-3.2704818	times	-0.29438615
-4.3857713	Doctor	-0.10513432
-3.4880903	gives	-0.35015106
-4.5376773	re-birth	-0.10513432
-4.146789	toiled	-0.16450553
-4.2994843	relentlessly	-0.10513432
-4.5376773	quell	-0.10513432
-4.3857713	superstitions	-0.10513432
-4.146789	evil	-0.10513432
-4.2994843	customs	-0.10513432
-4.146789	That	-0.13943739
-3.7519577	went	-0.2412813
-4.146789	Maghar	-0.15196419
-4.0340385	chose	-0.14380008
-4.146789	attain	-0.10513429
-4.5376773	Samadhi	-0.10513432
-4.0340385	Water	-0.17369066
-4.3857713	Whatever	-0.13380614
-3.3251286	doing	-0.21014488
-3.2879443	take	-0.2283772
-4.2994843	break	-0.10513432
-4.5376773	stroll	-0.10513432
-3.8704877	outside	-0.10513432
-4.146789	enter	-0.14380008
-4.2994843	kitchen	-0.10513429
-3.6189694	look	-0.40505013
-4.5376773	relish	-0.10513432
-4.0340385	eat	-0.10513432
-4.5376773	munch	-0.10513432
-4.5376773	favourite	-0.10513432
-4.5376773	biscuit	-0.10513432
-3.5173006	possible	-0.25991777
-3.6589386	tell	-0.16967517
-3.6189694	listen	-0.51900685
-4.3857713	jokes	-0.23329818
-4.5376773	laugh	-0.10513432
-4.3857713	Two	-0.10513429
-3.344987	five	-0.27493286
-3.5486183	rupees	-0.23018746
-3.2879443	make	-0.2757452
-4.2994843	difference	-0.10513429
-3.0180595	how	-0.27217582
-4.5376773	heartache	-0.10513432
-4.5376773	petty	-0.10513432
-3.8071914	cause	-0.16306043
-3.102298	him	-0.33224845
-3.6189694	quite	-0.255943
-3.4607215	gets	-0.15976728
-4.5376773	underway	-0.10513429
-3.1923673	then	-0.17384905
-3.7029624	benefit	-0.12579697
-4.146789	cultivation	-0.10513432
-2.9161503	more	-0.28214315
-4.5376773	conserved	-0.10513432
-3.4880903	never	-0.12071867
-3.6189694	touch	-0.17369066
-3.8071914	hearts	-0.19562861
-3.8704877	led	-0.20135598
-4.2994843	availability	-0.27847868
-4.2994843	cheaper	-0.10513429
-3.582371	medicines	-0.15084058
-3.8071914	employment	-0.21349221
-3.9446094	opportunities	-0.1305253
-3.6589386	individual	-0.10513432
-4.146789	entrepreneurs	-0.23329818
-3.3876545	came	-0.32355002
-3.3876545	know	-0.325871
-3.8071914	Sri	-0.1305253
-4.5376773	Ruwala	-0.10513432
-4.5376773	Sugarcane	-0.10513432
-4.0340385	Festival	-0.14380008
-4.3857713	11th	-0.10513432
-3.7029624	March	-0.17242527
-3.7519577	shall	-0.15654492
-4.146789	detail	-0.10513429
-3.8071914	later	-0.13380614
-3.582371	right	-0.18034789
-3.8704877	hands	-0.19274347
-3.4607215	begin	-0.16277196
-3.7519577	practice	-0.15749347
-4.2994843	whereas	-0.10513432
-4.3857713	chalk	-0.10513432
-2.9161503	out	-0.3596628
-3.9446094	plan	-0.16450553
-4.2994843	Let	-0.20446095
-3.8704877	realize	-0.2677359
-3.8704877	mantra	-0.19167258
-4.3857713	Tain	-0.23329818
-4.5376773	Tyakten	-0.10513432
-4.5376773	Bhunjhita	-0.10513432
-4.5376773	Once	-0.10513432
-3.4106708	set	-0.21865775
-3.3657968	see	-0.21917324
-4.0340385	rest	-0.10513429
-3.2536945	keep	-0.18471345
-3.5173006	still	-0.11343413
-3.8704877	enough	-0.1623397
-4.3857713	Community	-0.10513432
-3.3876545	service	-0.26215136
-3.6189694	community	-0.15084058
-4.5376773	mobilization	-0.10513432
-4.2994843	virtues	-0.10513429
-4.5376773	imbibe	-0.10513432
-4.0340385	real	-0.10513432
-3.4349754	lives	-0.29694304
-4.3857713	44th	-0.10513432
-4.0340385	amendment	-0.15196419
-4.3857713	mandatory	-0.10513432
-4.5376773	proceedings	-0.10513432
-4.0340385	Parliament	-0.12791836
-4.5376773	Legislative	-0.10513432
-4.5376773	Assemblies	-0.10513432
-3.4106708	public	-0.18489714
-3.7029624	Deepawali	-0.16450553
-3.7029624	greetings	-0.40603858
-3.582371	August	-0.19428469
-3.7029624	September	-0.15551065
-3.7029624	celebration	-0.44382718
-3.5173006	given	-0.22598492
-4.5376773	brief	-0.10513432
-4.0340385	beautiful	-0.10513432
-4.5376773	undertakes	-0.10513432
-4.0340385	massive	-0.10513432
-4.3857713	immunization	-0.10513432
-3.9446094	programs	-0.10513429
-4.0340385	yet	-0.18624777
-3.582371	millions	-0.4712779
-4.5376773	immunized	-0.10513432
-4.0340385	fall	-0.20446095
-4.5376773	prey	-0.10513432
-3.7519577	diseases	-0.24635713
-3.3876545	till	-0.2501615
-4.146789	obtain	-0.10513432
-4.3857713	answer	-0.10513432
-4.5376773	Subhashit	-0.10513432
-4.3857713	epigrammatic	-0.23329818
-4.2994843	verses	-0.10513432
-4.146789	wisdom	-0.10513432
-3.4880903	happened	-0.18002601
-4.3857713	Vizianagaram	-0.10513432
-3.9446094	District	-0.13806115
-3.8704877	Andhra	-0.3251499
-4.0340385	Pradesh	-0.30911604
-3.5173006	itself	-0.21272175
-4.2994843	experienced	-0.18624777
-4.5376773	torrential	-0.10513432
-3.8071914	rains	-0.1675999
-3.5486183	without	-0.10513432
-3.6189694	season	-0.21457376
-4.3857713	duration	-0.10513432
-3.9446094	Tamil	-0.30815348
-4.5376773	Nadu	-0.10513429
-4.0340385	suffered	-0.10513432
-3.9446094	heavy	-0.10513432
-4.2994843	losses	-0.18624777
-3.8071914	fortunate	-0.20135598
-4.0340385	chance	-0.19520459
-4.5376773	Mhow	-0.10513432
-4.5376773	birthplace	-0.10513432
-3.8071914	revered	-0.15963899
-3.7519577	Baba	-0.5608688
-4.2994843	Saheb	-0.12255341
-3.9446094	Ambedkar	-0.15963899
-4.3857713	14th	-0.16450553
-4.0340385	You	-0.15140206
-3.7029624	imagine	-0.3587566
-3.0796578	what	-0.27713403
-4.3857713	undertaking	-0.10513432
-4.0340385	involve	-0.10513432
-3.6589386	yourself	-0.16450553
-4.2994843	physically	-0.10513429
-3.6189694	2	-0.13806115
-3.6189694	hours	-0.13470404
-3.8704877	cleaning	-0.10513432
-3.7029624	request	-0.21418001
-3.4880903	share	-0.23769704
-4.3857713	drive	-0.14380008
-4.146789	NarendraModiApp	-0.24635713
-3.9446094	memorial	-0.10513429
-4.3857713	erected	-0.10513432
-3.8071914	inspire	-0.43909323
-4.5376773	dalits	-0.10513432
-4.3857713	exploited	-0.10513429
-4.5376773	marginalized	-0.10513432
-3.178299	may	-0.31113937
-3.3061385	give	-0.18604487
-4.5376773	temporary	-0.10513432
-4.3857713	succor	-0.10513432
-3.6589386	completely	-0.13689527
-3.7519577	stop	-0.1305253
-3.344987	taking	-0.17762214
-4.3857713	antibiotics	-0.10513432
-4.3857713	advice	-0.10513432
-4.2994843	doctor	-0.10513432
-4.5376773	cut-off	-0.10513432
-3.6589386	active	-0.18472862
-4.3857713	politics	-0.10513432
-3.5486183	10	-0.13578661
-3.7519577	ideas	-0.17806041
-4.5376773	Third	-0.10513432
-3.582371	send	-0.21151285
-3.344987	suggestions	-0.27303058
-4.2994843	guidance	-0.10513429
-3.9446094	mobile	-0.20974398
-4.5376773	Application	-0.10513432
-4.2994843	rendered	-0.10513432
-4.5376773	portions	-0.10513432
-3.102298	her	-0.17162697
-3.582371	performance	-0.154297
-3.4106708	everyone	-0.13091338
-4.2994843	amazed	-0.10513432
-3.7519577	ask	-0.12255341
-3.9446094	curiosity	-0.14380008
-3.9446094	cant	-0.18624774
-3.7029624	gift	-0.15196419
-3.5486183	occasion	-0.23544174
-4.2994843	Raksha	-0.27847868
-4.5376773	Bandhan	-0.10513429
-3.7029624	Pradhan	-0.28053725
-4.5376773	Mantri	-0.10513429
-4.5376773	Suraksha	-0.10513432
-4.3857713	Bima	-0.23329818
-4.5376773	Yojna	-0.10513432
-4.5376773	Jeevan	-0.10513432
-4.146789	Jyoti	-0.10513432
-3.5486183	mothers	-0.37744725
-3.9446094	sisters	-0.16134319
-4.5376773	Prevention	-0.10513432
-3.4349754	better	-0.15061624
-3.2536945	than	-0.17973918
-4.5376773	cure	-0.10513432
-3.5173006	person	-0.19101804
-4.2994843	practicing	-0.18624777
-3.8071914	Yog	-0.15559849
-4.0340385	easily	-0.15027991
-4.2994843	staying	-0.18624777
-3.5486183	healthy	-0.19987626
-3.9446094	maintaining	-0.13806115
-4.146789	balance	-0.10513432
-4.5376773	richly	-0.10513432
-4.2994843	endowed	-0.27847868
-3.6189694	strong	-0.11697679
-3.582371	power	-0.20834748
-4.3857713	nurturing	-0.10513432
-3.9446094	supreme	-0.10513432
-3.6589386	self	-0.14242218
-3.6589386	confidence	-0.15559849
-4.5376773	concentration	-0.10513432
-4.146789	sold	-0.10513432
-4.2994843	What	-0.12680584
-4.0340385	happen	-0.16450553
-3.5486183	mother	-0.19220766
-4.5376773	inhale	-0.10513432
-4.146789	smoke	-0.10513432
-4.5376773	400	-0.10513432
-4.5376773	cigarettes	-0.10513432
-4.2994843	cooking	-0.10513429
-3.3876545	food	-0.19548726
-4.2994843	Chulha	-0.16450553
-4.2994843	burns	-0.10513429
-4.3857713	wood	-0.10513432
-4.3857713	fuel	-0.23329818
-4.3857713	Whereas	-0.10513432
-3.8071914	school	-0.147492
-3.9446094	Punjab	-0.31788787
-4.5376773	Goa	-0.10513432
-3.4880903	working	-0.2237056
-4.0340385	topic	-0.10513432
-4.2994843	management	-0.10513432
-3.4607215	schools	-0.25885692
-4.5376773	tinkering	-0.10513432
-4.5376773	lab	-0.10513432
-4.3857713	After	-0.12791836
-4.5376773	Jallianwallah	-0.10513432
-4.5376773	Massacre	-0.10513432
-4.5376773	1919	-0.10513432
-4.2994843	Rabindranath	-0.27847868
-4.146789	Tagore	-0.12791836
-4.5376773	legendary	-0.10513432
-4.2994843	figures	-0.10513429
-4.146789	raised	-0.10513432
-4.3857713	voices	-0.10513432
-4.3857713	protest	-0.10513432
-3.4607215	event	-0.20416468
-3.582371	deep	-0.1452069
-4.5376773	twelve-year-old	-0.10513432
-4.2994843	boy	-0.10513429
-3.8071914	listening	-0.5292699
-3.7029624	thoughts	-0.21806175
-4.3857713	hesitate	-0.10513432
-3.6589386	sharing	-0.19782251
-4.2994843	appreciate	-0.16450553
-4.146789	flowing	-0.10513432
-3.5173006	coming	-0.13872328
-4.2994843	Rashid	-0.18624777
-4.5376773	represents	-0.10513432
-4.5376773	constitutes	-0.10513432
-3.5173006	best	-0.1842602
-3.9446094	Afghanistan	-0.17116357
-4.3857713	Right	-0.10513429
-4.5376773	vedic	-0.10513432
-3.7519577	period	-0.15027991
-3.7029624	present	-0.1416769
-3.582371	tradition	-0.40494138
-3.582371	festivities	-0.2501615
-3.8704877	course	-0.15831968
-4.5376773	matched	-0.10513432
-3.3876545	different	-0.14538476
-4.5376773	periods	-0.10513432
-3.7029624	courage	-0.4052111
-3.582371	away	-0.2412813
-4.3857713	outdated	-0.10513432
-3.7029624	traditions	-0.20593955
-3.7519577	President	-0.1664352
-4.3857713	France	-0.16450553
-4.3857713	Kashi	-0.10513432
-4.3857713	Varanasi	-0.10513432
-4.2994843	Prashant	-0.10513429
-4.0340385	Kumar	-0.15196419
-4.3857713	glimpses	-0.23329818
-4.2994843	touching	-0.16450553
-4.3857713	appealing	-0.10513432
-3.8704877	field	-0.17242527
-3.9446094	increase	-0.14070046
-4.5376773	needful	-0.10513432
-3.8071914	receive	-0.12019011
-3.5173006	true	-0.12255341
-4.5376773	obtained	-0.10513432
-3.5173006	someone	-0.11534279
-4.3857713	donates	-0.10513432
-4.3857713	organs	-0.10513432
-4.2994843	So	-0.13576941
-3.7029624	speak	-0.1992759
-4.146789	Hindi	-0.14380008
-3.582371	heard	-0.18883377
-4.2994843	English	-0.22823988
-3.0687654	because	-0.32212126
-4.5376773	communication	-0.10513432
-3.4880903	became	-0.22961386
-4.2994843	easy	-0.15196419
-3.9446094	aspect	-0.14380008
-3.344987	technology	-0.29310575
-3.8704877	writes	-0.17116357
-3.2704818	family	-0.3009174
-3.2879443	exams	-0.28116795
-4.146789	constant	-0.10513432
-3.6589386	create	-0.20479026
-3.5486183	positive	-0.1611269
-3.5173006	atmosphere	-0.19548726
-4.3857713	neighbouring	-0.10513432
-3.344987	families	-0.21184835
-4.5376773	Many	-0.10513432
-4.146789	Governments	-0.10513432
-4.5376773	Parliaments	-0.10513432
-4.5376773	ruling	-0.10513432
-4.2994843	classes	-0.10513432
-4.2994843	joining	-0.10513429
-4.0340385	medium	-0.10513429
-4.146789	knew	-0.16450553
-4.5376773	hub	-0.10513432
-4.146789	industry	-0.16450553
-4.146789	imperative	-0.16450553
-3.5173006	future	-0.28043905
-4.146789	instant	-0.10513432
-3.9446094	relief	-0.15749347
-4.5376773	random	-0.10513432
-4.5376773	pill	-0.10513432
-4.5376773	popping	-0.10513432
-3.5486183	land	-0.24300638
-4.146789	trouble	-0.15196419
-4.146789	banks	-0.10513432
-4.5376773	sensitized	-0.10513432
-4.0340385	glory	-0.14380008
-4.5376773	ascribed	-0.10513432
-4.5376773	crying	-0.10513432
-3.344987	small	-0.13111994
-4.3857713	misfortune	-0.10513432
-4.5376773	befalls	-0.10513432
-3.0581396	must	-0.3584688
-3.3657968	places	-0.32087195
-4.3857713	supplied	-0.23329818
-3.3657968	farmers	-0.24666351
-3.5173006	care	-0.27496374
-3.7029624	soil	-0.154297
-4.3857713	willing	-0.23329818
-4.3857713	improve	-0.10513432
-3.8704877	whose	-0.10513432
-4.5376773	deteriorated	-0.10513432
-4.3857713	chemical	-0.10513432
-4.3857713	fertilizers	-0.23329818
-4.5376773	Participants	-0.10513432
-4.146789	hailing	-0.40341744
-3.5486183	age	-0.28538194
-3.9446094	group	-0.10513432
-3.7029624	participated	-0.34679672
-4.2994843	purchased	-0.10513429
-4.5376773	tanker	-0.10513432
-3.5486183	told	-0.25924972
-4.0340385	already	-0.12791836
-4.146789	returned	-0.22823988
-3.221949	lakh	-0.17724967
-3.7029624	short	-0.17369066
-4.146789	span	-0.20066871
-4.5376773	An	-0.10513432
-4.146789	e-cigarette	-0.10513432
-4.146789	type	-0.22823988
-4.5376773	electronic	-0.10513432
-4.5376773	device	-0.10513432
-4.5376773	unlike	-0.10513432
-4.5376773	typical	-0.10513432
-4.5376773	cigarette	-0.10513432
-3.4106708	contribution	-0.34927118
-4.146789	positively	-0.10513432
-3.582371	mission	-0.18482718
-3.3251286	forward	-0.31615523
-4.146789	heartiest	-0.19274347
-4.3857713	until	-0.10513432
-3.7519577	next	-0.12915128
-3.8071914	episode	-0.3251499
-3.2704818	once	-0.4061166
-4.2994843	When	-0.14556193
-2.9902544	could	-0.32057
-4.0340385	arrangements	-0.10513432
-4.0340385	collected	-0.10513432
-3.9446094	litter	-0.14380008
-3.6189694	corner	-0.37975407
-4.5376773	Though	-0.10513432
-4.3857713	minor	-0.10513429
-3.7519577	issue	-0.16342123
-3.2704818	took	-0.26227954
-4.0340385	note	-0.10513432
-4.5376773	previously	-0.10513432
-3.7519577	One	-0.12872575
-4.2994843	predicament	-0.10513429
-4.3857713	teenagers	-0.10513432
-3.7029624	face	-0.13578661
-3.8071914	second	-0.10513432
-4.3857713	fraught	-0.23329818
-4.146789	danger	-0.16450553
-4.5376773	slogged	-0.10513432
-4.2994843	10th	-0.16450553
-4.3857713	12th	-0.10513429
-4.5376773	Class	-0.10513432
-4.3857713	Under	-0.10513432
-3.6189694	letter	-0.22315527
-3.582371	reached	-0.1890617
-3.582371	wrote	-0.1675999
-3.4349754	back	-0.28925338
-3.0180595	under	-0.37274587
-3.7519577	providing	-0.14070046
-4.3857713	ladies	-0.10513432
-3.5173006	getting	-0.13806115
-3.5173006	freedom	-0.20702672
-4.146789	points	-0.10513432
-3.344987	need	-0.3561414
-4.5376773	pondered	-0.10513432
-3.6189694	observe	-0.10513432
-4.146789	Engineers	-0.22823988
-4.2994843	case	-0.10513432
-4.146789	e-cigarettes	-0.10513432
-4.146789	forms	-0.16450553
-4.2994843	Dengue	-0.10513429
-3.4106708	first	-0.13052534
-4.2994843	enters	-0.10513429
-4.3857713	affluent	-0.10513432
-4.2994843	localities	-0.18624777
-3.4607215	try	-0.54760885
-3.6589386	Government	-0.16602822
-4.2994843	chalked	-0.27847868
-4.5376773	annual	-0.10513432
-4.3857713	calendar	-0.10513432
-3.9446094	early	-0.14380008
-4.3857713	stage	-0.10513432
-3.4880903	put	-0.2822101
-4.0340385	saved	-0.10513429
-3.9446094	fellow	-0.26673537
-3.221949	Ji	-0.2369286
-3.3657968	:	-0.11730141
-4.3857713	Pranaam	-0.16450553
-4.0340385	Didi	-0.23329818
-4.5376773	Earlier	-0.10513432
-4.146789	status	-0.10513432
-4.3857713	conducting	-0.10513432
-4.5376773	survey	-0.10513432
-4.5376773	73	-0.10513432
-3.4880903	sometimes	-0.12189564
-4.3857713	distance	-0.10513429
-4.5376773	faded	-0.10513432
-4.5376773	tiny	-0.10513432
-4.5376773	spark	-0.10513432
-4.5376773	re-emerges	-0.10513432
-3.9446094	takes	-0.14380008
-3.4106708	old	-0.10513435
-4.0340385	memories	-0.15196419
-4.2994843	Eid	-0.10513432
-4.3857713	Savita	-0.23329818
-4.3857713	Rai	-0.10513432
-3.8704877	suggestion	-0.14380008
-3.8704877	whole	-0.15196422
-3.4880903	nation	-0.24020833
-3.4607215	taken	-0.17963687
-3.8704877	Army	-0.10513432
-3.7519577	personnel	-0.22998089
-4.2994843	Air	-0.18624777
-4.3857713	Force	-0.10513429
-4.5376773	Paramilitary	-0.10513432
-3.9446094	forces	-0.19134332
-3.7519577	everybody	-0.1305253
-4.5376773	succour	-0.10513432
-4.146789	disaster	-0.10513432
-4.5376773	stricken	-0.10513432
-4.146789	Mukherjee	-0.10513432
-3.6589386	dream	-0.22948277
-4.5376773	industrially	-0.10513432
-4.2994843	self-reliant	-0.10513429
-4.5376773	competent	-0.10513432
-4.3857713	prosperous	-0.10513429
-4.3857713	sphere	-0.10513432
-4.3857713	earned	-0.10513429
-3.4607215	daughters	-0.27156824
-4.0340385	organic	-0.2598388
-4.0340385	farming	-0.13806115
-3.6589386	fields	-0.21418001
-4.0340385	guide	-0.10513432
-3.9446094	regarding	-0.10513429
-3.5173006	dont	-0.15971167
-3.3061385	friends	-0.321924
-4.0340385	walk	-0.13380614
-3.9446094	alone	-0.14380008
-4.5376773	droops	-0.10513432
-4.5376773	flipping	-0.10513432
-4.3857713	pages	-0.23329818
-3.8071914	moment	-0.15831968
-3.7029624	peace	-0.21797687
-3.5173006	mind	-0.29579693
-4.5376773	confronted	-0.10513432
-3.7519577	question	-0.12128573
-3.7029624	earlier	-0.2713736
-4.146789	runs	-0.10513432
-4.5376773	complimenting	-0.10513432
-4.5376773	congratulating	-0.10513432
-3.582371	scientists	-0.28181577
-4.5376773	Whenever	-0.10513432
-4.3857713	reminded	-0.10513432
-4.5376773	Khaadi	-0.10513432
-4.5376773	Gobardhan	-0.10513432
-4.2994843	Scheme	-0.10513429
-3.9446094	rural	-0.14380008
-4.146789	encouraged	-0.10513432
-3.8704877	consider	-0.14597625
-4.146789	dung	-0.3251499
-4.0340385	income	-0.14380008
-4.5376773	Local	-0.10513432
-3.6189694	innovative	-0.12255341
-4.3857713	convenience	-0.10513432
-4.3857713	visiting	-0.10513432
-4.3857713	tourists	-0.10513432
-4.146789	villagers	-0.10513432
-3.7029624	facilities	-0.19274347
-3.4106708	home	-0.18424644
-4.2994843	stays	-0.18624777
-4.5376773	finest	-0.10513432
-3.7029624	examples	-0.147492
-3.6589386	show	-0.13578661
-3.8071914	bringing	-0.15831968
-3.3657968	change	-0.26847458
-3.582371	human	-0.18364674
-3.7029624	values	-0.17563409
-3.9446094	include	-0.13806115
-4.3857713	walks	-0.23329818
-4.3857713	segment	-0.23329818
-4.3857713	Vidushis	-0.10513432
-3.8704877	contributed	-0.20066871
-4.5376773	composing	-0.10513432
-4.146789	Vedas	-0.16450553
-3.7519577	carried	-0.21637897
-4.2994843	bags	-0.18624777
-4.5376773	shoes	-0.10513432
-3.7519577	inside	-0.18422341
-3.2879443	free	-0.2768974
-3.8071914	tension	-0.1305253
-4.5376773	footwear	-0.10513432
-4.5376773	stolen	-0.10513432
-4.5376773	habituated	-0.10513432
-3.5173006	using	-0.14881732
-3.9446094	unfair	-0.40433112
-3.3061385	means	-0.29795942
-3.9446094	desire	-0.22991943
-3.7519577	actually	-0.10513432
-3.8071914	anything	-0.10513432
-3.2069063	did	-0.43335462
-3.4880903	youth	-0.17250492
-4.2994843	reverence	-0.10513429
-4.146789	devotion	-0.20066871
-3.5486183	form	-0.23894829
-3.8704877	homage	-0.3260655
-4.3857713	Besides	-0.13806115
-4.3857713	centres	-0.10513432
-4.3857713	attraction	-0.10513432
-4.5376773	Cactus	-0.10513432
-4.146789	Garden	-0.15196419
-4.5376773	Butterfly	-0.10513432
-4.3857713	Jungle	-0.10513432
-4.5376773	Safari	-0.10513432
-4.3857713	Childrens	-0.10513432
-4.5376773	Nutrition	-0.10513432
-4.2994843	Park	-0.10513429
-4.0340385	Ekta	-0.14380008
-4.5376773	Nursery	-0.10513432
-4.0340385	constantly	-0.10513432
-4.5376773	evolving	-0.10513432
-4.5376773	fillip	-0.10513432
-3.7029624	economy	-0.27448168
-4.5376773	Business	-0.10513432
-4.5376773	barter	-0.10513432
-3.582371	generation	-0.18124838
-4.2994843	todays	-0.10513432
-4.3857713	computer	-0.10513429
-4.0340385	alert	-0.18624777
-3.7519577	playing	-0.12791836
-3.5173006	far	-0.17483276
-3.4880903	play	-0.25449127
-3.8071914	station	-0.20066871
-4.5376773	Vallabh	-0.10513432
-4.146789	Bhai	-0.10513432
-4.2994843	elected	-0.10513429
-4.5376773	Mayor	-0.10513432
-4.3857713	municipal	-0.10513432
-4.5376773	corporation	-0.10513432
-3.8071914	immediately	-0.22915551
-4.2994843	selected	-0.10513429
-4.3857713	Victoria	-0.23329818
-4.3857713	venue	-0.10513432
-3.8071914	Lok	-0.45456994
-4.5376773	Manya	-0.10513429
-4.3857713	Tilaks	-0.10513432
-3.8071914	named	-0.12791836
-4.2994843	ueen	-0.10513429
-4.5376773	mustve	-0.10513432
-3.9446094	hardly	-0.14380008
-3.2704818	part	-0.6351325
-4.0340385	produce	-0.18321475
-3.7029624	struggle	-0.19134332
-4.5376773	spanned	-0.10513432
-3.8704877	centuries	-0.17116357
-4.3857713	S.	-0.10513429
-4.2994843	didnt	-0.10513429
-4.5376773	bore	-0.10513432
-4.3857713	influence	-0.10513432
-4.146789	offer	-0.15196419
-3.6589386	blessed	-0.37129587
-3.7519577	Im	-0.10513432
-4.3857713	experiencing	-0.10513429
-4.5376773	toll-free	-0.10513432
-4.5376773	1033	-0.10513432
-3.4349754	information	-0.23697332
-3.582371	incidents	-0.13578661
-4.5376773	ambulance	-0.10513432
-3.6589386	services	-0.19729808
-4.0340385	accidents	-0.20066871
-4.3857713	pleasing	-0.10513432
-3.5173006	inspiring	-0.20999448
-4.2994843	loving	-0.10513429
-4.5376773	humankind	-0.10513432
-3.3657968	happy	-0.26165745
-3.7519577	process	-0.19315624
-4.0340385	discovery	-0.10513432
-3.9446094	sons	-0.2677359
-3.6589386	move	-0.4311176
-3.6189694	ahead	-0.22402057
-3.7519577	path	-0.26686072
-4.2994843	converting	-0.10513429
-3.6189694	garbage	-0.17378767
-3.4349754	gold	-0.20916031
-4.5376773	Over	-0.10513432
-4.5376773	lately	-0.10513432
-4.0340385	subject	-0.1305253
-3.8704877	telling	-0.15749347
-4.5376773	Give	-0.10513432
-3.4349754	special	-0.11969623
-4.3857713	Ambedkars	-0.10513432
-4.5376773	BHIM	-0.10513432
-4.5376773	breathe	-0.10513432
-3.8071914	deeply	-0.10513432
-3.1923673	three	-0.19915451
-4.2994843	tolerate	-0.10513429
-4.5376773	committing	-0.10513432
-4.5376773	rapes	-0.10513432
-3.6189694	point	-0.22195756
-3.7519577	view	-0.20886879
-4.2994843	provision	-0.16450553
-4.5376773	strictest	-0.10513432
-4.5376773	punishment	-0.10513432
-4.0340385	passing	-0.15196419
-4.5376773	Criminal	-0.10513432
-3.9446094	Act	-0.14380008
-4.3857713	Amendment	-0.10513432
-4.3857713	Bill	-0.10513432
-3.9446094	often	-0.10513432
-3.8704877	hear	-0.15963899
-3.7519577	war	-0.17032811
-4.3857713	Everyone	-0.10513432
-4.146789	talks	-0.23329818
-3.7519577	responsibility	-0.17806041
-3.9446094	conservation	-0.18472862
-4.5376773	See	-0.10513429
-4.3857713	pathways	-0.10513432
-3.9446094	leading	-0.18624777
-4.2994843	production	-0.22823988
-4.2994843	pulses	-0.15196419
-4.5376773	yeoman	-0.10513432
-4.5376773	confident	-0.10513432
-4.5376773	Sufi	-0.10513432
-3.4349754	associated	-1.0566299
-3.6189694	love	-0.37910628
-4.3857713	generosity	-0.10513432
-3.9446094	wide	-0.1305253
-3.7029624	humanity	-0.154297
-4.3857713	Islam	-0.10513432
-3.582371	let	-0.27174103
-4.5376773	strivings	-0.10513432
-4.2994843	realisation	-0.18624777
-4.146789	resolves	-0.10513429
-3.7029624	Kerala	-0.18866862
-4.146789	fighting	-0.10513432
-4.0340385	darkness	-0.10513429
-3.7029624	light	-0.13380614
-4.5376773	notably	-0.10513432
-4.0340385	limited	-0.17116357
-4.146789	communities	-0.16450553
-3.8071914	governments	-0.17242527
-4.146789	organisations	-0.22823988
-4.3857713	wholeheartedly	-0.10513432
-4.5376773	gaiety	-0.10513432
-4.0340385	fervour	-0.15196419
-4.5376773	functionaries	-0.10513432
-3.5173006	initiative	-0.17728664
-3.582371	participation	-0.27386805
-4.3857713	masses	-0.15196419
-3.5173006	becomes	-0.3125632
-4.2994843	stronger	-0.10513429
-4.5376773	How	-0.10513432
-3.8071914	turn	-0.147492
-3.7519577	Beti	-0.40601072
-4.5376773	Bachao	-0.10513432
-4.5376773	Padhao	-0.10513432
-4.146789	mass	-0.15196419
-4.2994843	North-East	-0.18624777
-4.0340385	remote	-0.1623397
-3.5486183	areas	-0.24801746
-4.3857713	hills	-0.10513432
-3.8704877	forests	-0.26673537
-4.3857713	communicate	-0.10513429
-4.5376773	apprehensive	-0.10513432
-3.6589386	GST	-0.17958388
-4.3857713	wondering	-0.23329818
-4.3857713	begun	-0.18624777
-3.6589386	feels	-0.28892967
-4.146789	easier	-0.16450553
-4.146789	behalf	-0.16450553
-4.5376773	commend	-0.10513432
-3.7029624	plant	-0.12255341
-3.4607215	trees	-0.29656067
-4.3857713	boundaries	-0.10513432
-3.9446094	instead	-0.40433112
-4.0340385	putting	-0.14380008
-4.5376773	barricades	-0.10513432
-4.3857713	painful	-0.10513432
-3.8704877	river	-0.12255341
-3.6189694	filled	-0.44000888
-4.3857713	wild	-0.10513432
-4.5376773	grass	-0.10513432
-4.5376773	hyacinth	-0.10513432
-3.6189694	hope	-0.30760407
-3.8071914	physical	-0.12791836
-3.8704877	fitness	-0.13380614
-4.3857713	prevent	-0.10513429
-3.9446094	depression	-0.19520459
-4.5376773	unfortunately	-0.10513432
-4.0340385	gone	-0.10513432
-4.5376773	pull	-0.10513432
-4.5376773	Alongside	-0.10513432
-3.8071914	prepare	-0.14597625
-4.2994843	Chhathh	-0.27847868
-4.2994843	Pooja	-0.10513429
-3.6589386	building	-0.17806041
-4.0340385	traditional	-0.13806115
-4.146789	methods	-0.15196419
-4.5376773	Matunga	-0.10513432
-4.0340385	Mumbai	-0.18422341
-3.7519577	woman	-0.16306043
-4.2994843	increasing	-0.15196419
-3.2704818	each	-0.2753977
-3.582371	organized	-0.22998089
-3.4880903	another	-0.11534279
-4.2994843	invitation	-0.10513429
-4.2994843	From	-0.12579697
-4.5376773	bridges	-0.10513432
-4.2994843	walls	-0.10513429
-4.5376773	hutments	-0.10513432
-3.3876545	gave	-0.21759406
-4.0340385	talent	-0.10513432
-4.5376773	garnering	-0.10513432
-3.7029624	support	-0.12791836
-3.8071914	lines	-0.18422341
-3.8704877	effective	-0.10513432
-4.5376773	guru	-0.10513432
-4.3857713	Jagatguru	-0.10513432
-3.6189694	Guru	-0.40537775
-4.5376773	Nanak	-0.10513432
-4.0340385	Dev	-0.14070046
-4.3857713	Koppal	-0.23329818
-3.5173006	district	-0.25755084
-4.146789	Karnataka	-0.16873062
-4.5376773	sixteen	-0.10513432
-3.9446094	girl	-0.14380008
-4.2994843	Mallamma	-0.10513429
-4.2994843	Satyagrah	-0.10513429
-3.8704877	mere	-0.10513432
-3.8071914	treatment	-0.17563409
-4.3857713	ailments	-0.23329818
-3.9446094	belief	-0.18321475
-3.9446094	Service	-0.2677359
-4.0340385	God	-0.1623397
-4.2994843	innate	-0.18624777
-3.7029624	enjoy	-0.22946112
-4.3857713	eating	-0.23329818
-4.5376773	dressing	-0.10513432
-4.5376773	usher	-0.10513432
-3.8704877	changes	-0.17116357
-3.8704877	add	-0.1623397
-4.3857713	existing	-0.10513432
-4.146789	dirt	-0.15196419
-4.5376773	pile	-0.10513432
-4.3857713	Can	-0.13380614
-4.3857713	Ayush	-0.10513432
-4.5376773	Nobody	-0.10513432
-3.3876545	attention	-0.29488006
-3.2704818	money	-0.21032068
-4.5376773	productively	-0.10513432
-3.8071914	appeared	-0.19754119
-4.2994843	charged	-0.27847868
-4.146789	emotions	-0.10513432
-3.8704877	act	-0.17116357
-3.8704877	sending	-0.15196419
-4.5376773	greeting	-0.10513432
-3.582371	messages	-0.1963713
-3.9446094	including	-0.10513432
-4.3857713	defence	-0.23329818
-4.5376773	rejoicing	-0.10513432
-4.5376773	elicited	-0.10513432
-4.146789	wonderful	-0.10513432
-4.0340385	response	-0.20446095
-4.3857713	organise	-0.10513429
-4.3857713	debates	-0.10513432
-4.0340385	hold	-0.14380008
-4.2994843	essay	-0.18624777
-3.9446094	competitions	-0.14380008
-4.5376773	rangoli	-0.10513432
-3.4349754	want	-0.57357407
-3.9446094	blessings	-0.15559849
-4.3857713	Therefore	-0.10513432
-3.5173006	example	-0.36826056
-3.5173006	job	-0.17378767
-4.5376773	adapt	-0.10513432
-3.3876545	ourselves	-0.20416468
-3.8704877	require	-0.10513432
-4.5376773	coins	-0.10513432
-4.5376773	Businesses	-0.10513432
-4.146789	function	-0.10513432
-4.0340385	automatically	-0.15196419
-4.3857713	resulting	-0.23329818
-4.3857713	transparency	-0.10513432
-3.4607215	pay	-0.24041213
-3.6189694	trust	-0.13806115
-4.2994843	liked	-0.10513429
-3.7519577	Mr.	-0.15027991
-4.5376773	Gautam	-0.10513432
-4.5376773	Pal	-0.10513432
-3.582371	felt	-0.14242218
-4.5376773	thoroughly	-0.10513432
-3.582371	tried	-0.6156421
-4.5376773	explore	-0.10513432
-3.4880903	find	-0.21109946
-3.4607215	various	-0.12189564
-4.5376773	copying	-0.10513432
-4.0340385	wasted	-0.10513432
-4.5376773	mostly	-0.10513432
-4.5376773	threshold	-0.10513432
-4.5376773	courts	-0.10513432
-4.5376773	emperors	-0.10513432
-4.5376773	kings	-0.10513432
-4.0340385	positivity	-0.10513432
-4.5376773	pervaded	-0.10513432
-4.2994843	Lakhwinder	-0.27847868
-3.8704877	Singh	-0.18422341
-4.146789	major	-0.10513429
-4.0340385	rise	-0.15196419
-4.3857713	sale	-0.10513432
-3.8704877	khadi	-0.10513432
-4.0340385	Teachers	-0.50032747
-4.0340385	salute	-0.16873062
-4.5376773	Pulela	-0.10513432
-4.3857713	Gopi	-0.23329818
-4.2994843	Chand	-0.16450553
-3.3061385	manner	-0.40605795
-4.146789	finding	-0.10513432
-3.4607215	happiness	-0.24866885
-4.3857713	disciples	-0.10513432
-4.146789	mean	-0.16450553
-4.146789	lights	-0.15749347
-3.7519577	becoming	-0.20651917
-3.582371	inspiration	-0.24925253
-4.0340385	probably	-0.10513432
-3.7029624	known	-0.20886879
-3.8704877	Gurudev	-0.2677359
-4.2994843	date	-0.10513432
-4.3857713	writer	-0.10513432
-4.5376773	musician	-0.10513432
-4.0340385	circle	-0.14380008
-4.5376773	row	-0.10513432
-4.2994843	dense	-0.18624777
-4.146789	eagerly	-0.16450553
-4.0340385	wait	-0.20066871
-4.3857713	flow	-0.10513432
-3.6589386	urge	-0.31888843
-4.146789	register	-0.10513432
-3.2704818	themselves	-0.25038147
-4.146789	voters	-0.10513432
-4.2994843	eligible	-0.10513429
-4.3857713	fraud	-0.10513432
-3.7519577	digital	-0.15196419
-4.3857713	teach	-0.23329818
-3.7519577	citizen	-0.13279578
-4.3857713	techniques	-0.10513432
-4.5376773	worries	-0.10513432
-3.8704877	endeavour	-0.13806115
-3.6589386	safety	-0.2397072
-3.7519577	daily	-0.147492
-3.5486183	level	-0.40607214
-3.7029624	difficult	-0.19002548
-4.146789	disasters	-0.20446095
-3.6189694	decision	-0.189223
-4.5376773	cub	-0.10513432
-4.5376773	lioness	-0.10513432
-4.5376773	grown-up	-0.10513432
-3.3657968	state	-0.2095939
-4.5376773	scrutiny	-0.10513432
-4.2994843	publicity	-0.10513429
-4.0340385	material	-0.10513432
-3.8704877	seven	-0.10513432
-3.4106708	received	-0.17917013
-3.8071914	tourist	-0.19520459
-4.3857713	destination	-0.10513429
-3.7029624	developed	-0.10513432
-3.7519577	keeping	-0.31888843
-4.2994843	aspirations	-0.10513429
-3.7519577	individuals	-0.12791836
-3.582371	held	-0.24663977
-4.0340385	discussions	-0.10513429
-4.146789	conducted	-0.10513432
-4.146789	poetry	-0.10513432
-4.5376773	recitals	-0.10513432
-4.5376773	Lead	-0.10513432
-4.5376773	Marks	-0.10513432
-4.3857713	mark-sheet	-0.10513432
-4.146789	serve	-0.13380614
-4.0340385	purpose	-0.15196419
-4.146789	non-violence	-0.16450553
-3.8071914	faces	-0.15749347
-4.3857713	Mandela	-0.10513432
-3.8704877	appear	-0.13380614
-4.5376773	Firstly	-0.10513432
-3.5486183	created	-0.32171863
-4.146789	image	-0.22823988
-4.3857713	thumb	-0.23329818
-4.5376773	prints	-0.10513432
-4.5376773	piece	-0.10513432
-4.3857713	cloth	-0.10513432
-4.5376773	underscores	-0.10513432
-4.5376773	sponsor	-0.10513432
-4.146789	professionals	-0.20446095
-4.5376773	Swachchhata	-0.10513432
-4.3857713	mistake	-0.18624777
-4.2994843	hence	-0.10513429
-4.3857713	P	-0.23329818
-3.8704877	plays	-0.16450553
-4.5376773	blossoms	-0.10513432
-4.2994843	shines	-0.18624777
-4.5376773	remedy	-0.10513432
-4.0340385	vigour	-0.15196419
-4.3857713	brain	-0.10513432
-3.582371	body	-0.17116357
-3.8071914	six	-0.12791836
-4.2994843	illustrious	-0.10513429
-4.5376773	circumnavigated	-0.10513432
-4.5376773	250	-0.10513432
-4.0340385	board	-0.18321475
-4.5376773	INSV	-0.10513432
-4.5376773	Tarini	-0.10513432
-4.3857713	returning	-0.10513432
-3.8704877	May	-0.10513429
-4.3857713	head	-0.10513429
-3.5173006	high	-0.11839152
-4.2994843	vices	-0.10513429
-4.3857713	widespread	-0.10513432
-4.5376773	deep-rooted	-0.10513432
-4.5376773	vicious	-0.10513432
-3.8704877	habits	-0.13380614
-4.3857713	refuse	-0.10513432
-4.2994843	die	-0.14380008
-4.5376773	bears	-0.10513432
-3.9446094	names	-0.10513432
-3.582371	soldiers	-0.2360079
-3.4106708	letters	-0.2764008
-4.0340385	Holi	-0.17116357
-3.6589386	makes	-0.14597625
-3.8704877	forget	-0.1305253
-4.5376773	rancours	-0.10513432
-4.3857713	tidings	-0.10513432
-4.2994843	conveys	-0.18624777
-4.2994843	brotherhood	-0.10513432
-4.5376773	Around	-0.10513432
-3.7519577	100	-0.14597625
-3.582371	similar	-0.12830932
-4.5376773	dismal	-0.10513432
-4.5376773	skewed	-0.10513432
-4.5376773	sex	-0.10513432
-4.3857713	ratio	-0.10513432
-3.7519577	seen	-0.16277196
-4.5376773	structure	-0.10513432
-4.2994843	Public	-0.10513429
-4.3857713	insisted	-0.10513432
-3.7029624	homes	-0.2102451
-4.2994843	towns	-0.20446095
-3.6589386	Cleanliness	-0.15831968
-4.5376773	inextricably	-0.10513432
-4.5376773	ceaselessly	-0.10513432
-4.3857713	foster	-0.10513432
-4.3857713	communal	-0.23329818
-3.8704877	harmony	-0.17806041
-3.8071914	happens	-0.21637897
-4.5376773	wiped	-0.10513432
-3.6589386	collective	-0.12915128
-3.7519577	memory	-0.18422341
-3.1514602	together	-0.3513254
-4.2994843	instances	-0.18624777
-4.5376773	three-four	-0.10513432
-3.8071914	generations	-0.15831968
-4.3857713	Brothers	-0.23329818
-4.3857713	Sisters	-0.10513432
-3.3876545	wish	-0.29972786
-4.5376773	aegis	-0.10513432
-4.2994843	Swachch	-0.22823988
-3.4349754	Bharat	-0.18442538
-3.8704877	Campaign	-0.21702677
-4.5376773	Riyasi	-0.10513432
-4.5376773	Block	-0.10513432
-3.9446094	Jammu	-0.40596682
-3.7029624	open	-0.14070046
-4.3857713	defecation	-0.16450553
-3.8071914	receiving	-0.12791836
-4.5376773	trophy	-0.10513432
-4.5376773	warmly	-0.10513432
-3.9446094	invited	-0.17741983
-4.3857713	international	-0.10513432
-3.7029624	match	-0.10513432
-4.146789	pose	-0.10513432
-4.3857713	photographs	-0.10513432
-4.2994843	Amitabh	-0.18624777
-3.6589386	connect	-0.19305006
-4.5376773	warm	-0.10513432
-3.8704877	household	-0.15196419
-4.3857713	mosquito	-0.10513432
-4.5376773	repellent	-0.10513432
-4.5376773	nets	-0.10513432
-4.5376773	Particularly	-0.10513432
-4.2994843	Satellite	-0.10513429
-4.3857713	Cartosat	-0.23329818
-4.5376773	2D	-0.10513432
-3.9446094	immensely	-0.10513432
-4.3857713	helpful	-0.10513432
-4.146789	subjects	-0.16450553
-3.9446094	knowing	-0.10513432
-4.146789	sources	-0.16450553
-4.0340385	regard	-0.17369066
-4.2994843	nobody	-0.16450553
-3.5486183	ever	-0.14081034
-3.3876545	ways	-0.24132435
-3.7029624	parts	-0.48424476
-4.0340385	remembered	-0.18624777
-4.0340385	member	-0.20066871
-4.146789	sensitive	-0.10513432
-4.5376773	orator	-0.10513432
-4.146789	popular	-0.10513432
-3.7519577	continue	-0.3006424
-4.146789	assure	-0.15196419
-3.7519577	whatever	-0.10513432
-3.9446094	whenever	-0.2102451
-3.8704877	required	-0.19520459
-3.4880903	done	-0.19376215
-4.3857713	core	-0.10513432
-4.5376773	Eidgah	-0.10513432
-4.3857713	sensitivity	-0.10513432
-4.3857713	lad	-0.10513432
-4.5376773	unsullied	-0.10513432
-4.5376773	grandmother	-0.10513432
-4.5376773	maturity	-0.10513432
-4.3857713	learnt	-0.10513432
-4.2994843	17th	-0.16450553
-4.146789	November	-0.15196419
-4.0340385	marriage	-0.13806115
-4.5376773	solemnised	-0.10513432
-4.3857713	Chai	-0.23329818
-4.5376773	Par	-0.10513432
-4.3857713	Charcha	-0.10513429
-4.146789	Surat	-0.16450553
-3.4607215	launched	-0.21975741
-4.0340385	radio	-0.14380008
-4.5376773	channel	-0.10513432
-3.7029624	brave	-0.19404101
-4.5376773	thwarted	-0.10513432
-4.3857713	attempts	-0.10513432
-4.5376773	enemies	-0.10513432
-4.5376773	caring	-0.10513432
-4.5376773	foreseen	-0.10513432
-3.9446094	result	-0.21486893
-3.7029624	difficulties	-0.18624777
-4.5376773	day-to-day	-0.10513432
-4.5376773	bunch	-0.10513432
-3.5173006	really	-0.12507537
-4.5376773	Operation	-0.10513432
-4.5376773	Malyuddh	-0.10513432
-3.7519577	hearing	-0.16306043
-3.8071914	direction	-0.2213065
-3.6189694	players	-0.1305253
-3.9446094	twice	-0.13806115
-4.3857713	thrice	-0.10513432
-3.6189694	four	-0.12255341
-4.5376773	answering	-0.10513432
-4.0340385	simple	-0.10513432
-4.5376773	answered	-0.10513432
-4.0340385	Lakshmi	-0.20066871
-4.5376773	term	-0.10513432
-4.146789	strengthening	-0.16450553
-4.2994843	Indo	-0.18624777
-4.0340385	Africa	-0.14070046
-4.2994843	ties	-0.10513429
-4.5376773	struggling	-0.10513432
-4.5376773	drought-like	-0.10513432
-4.146789	conditions	-0.15196419
-3.8071914	facing	-0.15559849
-4.3857713	fury	-0.10513432
-3.8071914	floods	-0.16873062
-3.7519577	especially	-0.16942722
-4.5376773	Along	-0.10513432
-3.8704877	20	-0.13380614
-4.5376773	gm	-0.10513432
-4.5376773	Gunion	-0.10513432
-3.6189694	available	-0.23894829
-4.2994843	Similarly	-0.18624777
-4.5376773	Satya	-0.10513432
-3.7029624	Prakash	-0.15027991
-4.5376773	Mehra	-0.10513432
-4.5376773	NarednraModiApp	-0.10513432
-3.9446094	focus	-0.1623397
-4.5376773	extra-curricular	-0.10513432
-3.582371	activities	-0.21184835
-4.5376773	recipe	-0.10513432
-3.9446094	brings	-0.14380008
-3.4880903	125	-0.6822171
-3.3876545	crore	-0.2620398
-3.9446094	decide	-0.2501615
-4.5376773	realise	-0.10513429
-3.7029624	New	-0.28799915
-4.2994843	fulfilled	-0.18624777
-4.2994843	lifetime	-0.27847868
-4.3857713	realms	-0.10513432
-4.2994843	Space	-0.10513429
-3.9446094	2019	-0.147492
-4.3857713	fruitful	-0.10513432
-4.5376773	heartily	-0.10513432
-3.7519577	congratulate	-0.25682533
-4.5376773	Garima	-0.10513432
-4.3857713	1600	-0.23329818
-4.3857713	HRD	-0.10513432
-3.9446094	Ministry	-0.18321475
-4.2994843	protect	-0.27847868
-4.3857713	reap	-0.23329818
-3.7029624	benefits	-0.21702677
-4.3857713	Friends	-0.15196419
-4.3857713	constructive	-0.10513432
-4.2994843	elder	-0.10513429
-3.8071914	witness	-0.17668411
-3.8071914	myriad	-0.10513432
-4.5376773	phases	-0.10513432
-4.3857713	eras	-0.10513432
-3.8071914	passed	-0.12791836
-4.5376773	abandon	-0.10513432
-3.7519577	50	-0.14070046
-4.2994843	empathy	-0.10513429
-4.0340385	lady	-0.20446095
-3.5173006	crores	-0.33599627
-4.3857713	strengthens	-0.10513432
-4.146789	accomplished	-0.10513432
-3.9446094	rather	-0.15749347
-3.8704877	leaders	-0.16450553
-3.4106708	involved	-0.4813143
-3.5173006	recently	-0.16342123
-3.6189694	lost	-0.19266516
-4.0340385	18	-0.10513432
-4.3857713	terrorist	-0.10513432
-4.146789	attack	-0.16450553
-4.3857713	Uri	-0.10513432
-4.5376773	Sector	-0.10513432
-3.4607215	brought	-0.29842928
-4.5376773	Neeru	-0.10513432
-4.5376773	Pragati	-0.10513432
-4.2994843	ground	-0.16450553
-4.5376773	recharging	-0.10513432
-3.7029624	2017	-0.15196419
-4.3857713	permeated	-0.10513432
-4.5376773	agitated	-0.10513432
-3.7519577	nothing	-0.18472862
-4.0340385	No	-0.147492
-4.3857713	bouquet	-0.10513429
-3.7519577	book	-0.1452069
-4.0340385	urged	-0.13380614
-4.3857713	choose	-0.10513432
-4.146789	flowers	-0.16450553
-4.0340385	welcome	-0.15196419
-4.3857713	felicitation	-0.10513432
-4.5376773	ceremonies	-0.10513432
-3.9446094	monsoon	-0.15749347
-4.5376773	lashing	-0.10513432
-4.0340385	weather	-0.10513432
-3.8704877	changed	-0.19754119
-4.3857713	examination	-0.10513432
-4.5376773	arrived	-0.10513432
-3.6189694	education	-0.22948277
-4.2994843	anew	-0.10513429
-3.6589386	bring	-0.22314723
-3.8704877	pleasant	-0.14597625
-4.3857713	fragrance	-0.10513432
-4.5376773	aroma	-0.10513432
-3.7519577	end	-0.17032811
-3.7519577	record	-0.16876777
-4.3857713	launching	-0.10513432
-4.0340385	104	-0.50032747
-3.8704877	satellites	-0.12579697
-4.146789	simultaneously	-0.15196419
-4.5376773	spacecraft	-0.10513432
-3.7519577	Science	-0.16873062
-4.2994843	strikes	-0.10513432
-4.5376773	Ratna	-0.10513429
-4.0340385	Sir	-0.3251499
-4.3857713	C.	-0.10513432
-4.3857713	V.	-0.10513432
-4.5376773	average	-0.10513432
-4.0340385	eight	-0.10513432
-3.7519577	half	-0.23041722
-4.3857713	grandeur	-0.10513432
-2.9086459	&apos;	-0.20560469
-4.5376773	Statue	-0.10513432
-4.0340385	Unity	-0.13380614
-3.7519577	mention	-0.13470404
-3.8704877	complete	-0.10513432
-4.5376773	citing	-0.10513432
-4.3857713	Chattisgarh	-0.10513432
-3.8704877	tribal	-0.10513432
-4.5376773	broke	-0.10513432
-4.5376773	stereotype	-0.10513432
-3.8071914	several	-0.10513432
-4.5376773	abundant	-0.10513432
-4.3857713	showers	-0.10513432
-4.3857713	Lets	-0.10513432
-3.4349754	whether	-0.20017435
-3.8704877	succeed	-0.17369066
-4.5376773	Youre	-0.10513432
-4.5376773	ride	-0.10513432
-4.5376773	bicycle	-0.10513432
-4.5376773	operate	-0.10513432
-4.5376773	three-wheeler	-0.10513432
-4.146789	cycle	-0.10513432
-4.3857713	rickshaw	-0.10513432
-4.5376773	transports	-0.10513432
-4.3857713	Lots	-0.23329818
-4.5376773	youLata	-0.10513432
-4.5376773	Greetings	-0.10513432
-4.3857713	correct	-0.10513432
-4.146789	reaching	-0.10513432
-4.3857713	28th	-0.18624777
-4.5376773	Afterwards	-0.10513432
-3.8071914	showed	-0.16450553
-4.5376773	thread-spun	-0.10513432
-4.2994843	handkerchief	-0.10513429
-4.146789	eyes	-0.10513429
-4.0340385	lit	-0.20066871
-4.3857713	emotion	-0.10513432
-3.6589386	sent	-0.22915551
-4.2994843	wedding	-0.10513429
-4.2994843	Be	-0.16450553
-4.3857713	Navratri	-0.10513432
-4.146789	Durga	-0.18321475
-4.3857713	Puja	-0.10513429
-4.5376773	SHAKTI-UPASANA	-0.10513432
-4.0340385	celebrating	-0.10513432
-4.3857713	2500	-0.10513432
-4.3857713	exchange	-0.10513432
-3.9446094	listeners	-0.18624777
-4.0340385	engaged	-0.50032747
-4.2994843	ponder	-0.16450553
-4.5376773	Komaljis	-0.10513432
-4.5376773	Time	-0.10513432
-4.5376773	advisories	-0.10513432
-3.9446094	goal	-0.13380614
-4.146789	committed	-0.16450553
-3.1386383	experience	-0.25577548
-4.3857713	intellect	-0.10513432
-3.8704877	certainly	-0.10513432
-4.146789	extent	-0.16450553
-4.5376773	lacks	-0.10513432
-4.3857713	complain	-0.23329818
-4.5376773	ruined	-0.10513432
-4.5376773	communist	-0.10513432
-4.2994843	terrorists	-0.10513432
-3.3876545	successful	-0.16581114
-4.0340385	feat	-0.10513429
-4.5376773	felicity	-0.10513432
-3.7029624	Delhi	-0.22915551
-4.0340385	morning	-0.1623397
-4.0340385	organised	-0.13806115
-3.8704877	Run	-0.4712779
-4.3857713	Play	-0.10513432
-4.5376773	Live	-0.10513432
-4.5376773	Blossom	-0.10513432
-3.6589386	discussed	-0.12403705
-4.3857713	company	-0.10513432
-4.3857713	striking	-0.10513432
-3.7519577	greater	-0.12579697
-4.0340385	donation	-0.17369066
-3.8071914	festive	-0.19274347
-4.3857713	massage	-0.10513432
-4.3857713	separatist	-0.23329818
-4.3857713	sympathy	-0.10513432
-3.7029624	expressed	-0.1675999
-4.5376773	blend	-0.10513432
-4.0340385	lend	-0.15196419
-4.3857713	dimension	-0.10513429
-4.0340385	undertook	-0.20446095
-4.0340385	significant	-0.10513432
-4.146789	spiritual	-0.10513432
-4.3857713	journeys	-0.10513432
-3.582371	called	-0.10513432
-4.3857713	Udaasi	-0.10513432
-4.5376773	e-book	-0.10513432
-4.5376773	Website	-0.10513432
-4.5376773	clandestinely	-0.10513432
-4.2994843	usual	-0.10513429
-4.2994843	mood	-0.16450553
-4.3857713	Before	-0.10513429
-4.2994843	monsoons	-0.16450553
-4.5376773	machinery	-0.10513432
-4.5376773	preparedness	-0.10513432
-4.5376773	mock	-0.10513432
-4.5376773	drills	-0.10513432
-4.0340385	undertaken	-0.10513429
-3.8704877	2nd	-0.34679672
-4.0340385	Sunday	-0.10513432
-4.5376773	Tripathi	-0.10513429
-4.2994843	urging	-0.10513429
-4.2994843	Subhash	-0.16450553
-4.3857713	Babu	-0.10513432
-3.9446094	soldier	-0.15196419
-4.3857713	adept	-0.10513432
-4.5376773	organiser	-0.10513432
-4.5376773	Moreover	-0.10513432
-4.2994843	pass	-0.18624777
-3.7029624	exam	-0.14783859
-4.146789	caught	-0.10513432
-4.3857713	undergo	-0.10513432
-4.5376773	distress	-0.10513432
-4.3857713	Varun	-0.10513432
-4.5376773	Bhati	-0.10513432
-4.3857713	bronze	-0.10513432
-3.8704877	medal	-0.14380008
-4.3857713	High	-0.10513432
-4.5376773	Jump	-0.10513432
-3.7519577	says	-0.18624774
-3.8071914	organ	-0.4047887
-3.5173006	hundred	-0.2234514
-4.5376773	retributive	-0.10513432
-3.8704877	action	-0.17369066
-3.7029624	race	-0.19782251
-4.0340385	planned	-0.10513429
-4.2994843	excited	-0.10513429
-4.5376773	Most	-0.10513432
-4.5376773	derived	-0.10513432
-3.7029624	political	-0.15831968
-4.5376773	conclusions	-0.10513432
-3.9446094	February	-0.19520459
-4.2994843	Ravidas	-0.15196419
-4.146789	Jayanti	-0.17369066
-4.3857713	chat	-0.10513432
-4.5376773	genial	-0.10513432
-3.582371	amidst	-0.34392425
-4.0340385	warmth	-0.20066871
-3.5173006	ones	-0.1389552
-3.8071914	130	-0.5292699
-4.5376773	re-iterate	-0.10513432
-4.3857713	Richa	-0.23329818
-3.7029624	mentioned	-0.19002548
-4.5376773	PRATISPARDHA	-0.10513432
-3.9446094	meaning	-0.13806115
-3.6589386	competition	-0.17806041
-4.5376773	Another	-0.10513429
-3.5486183	thing	-0.17375936
-4.5376773	Sovereign	-0.10513432
-4.5376773	Bonds	-0.10513432
-3.9446094	views	-0.147492
-4.3857713	corners	-0.23329818
-4.146789	adds	-0.16450553
-3.3061385	strength	-0.36821425
-3.6589386	democracy	-0.2289722
-3.9446094	perhaps	-0.10513432
-3.8071914	among	-0.35930598
-3.582371	stories	-0.18888871
-4.5376773	wasnt	-0.10513432
-3.8704877	single	-0.1305253
-4.5376773	theirs	-0.10513432
-4.3857713	Hence	-0.10513429
-3.6189694	examinations	-0.19861124
-4.2994843	festivity	-0.10513432
-3.6189694	amongst	-0.1905044
-4.3857713	neighbourhood	-0.15196419
-4.5376773	well-equipped	-0.10513432
-4.5376773	Incubation	-0.10513432
-4.3857713	Centres	-0.10513429
-4.146789	innovations	-0.10513432
-4.5376773	start-ups	-0.10513432
-4.5376773	experimentation	-0.10513432
-3.6589386	stress	-0.20651917
-4.2994843	evident	-0.16450553
-3.8071914	specially	-0.10513432
-3.7029624	personality	-0.17741983
-4.5376773	Unlike	-0.10513432
-4.2994843	tread	-0.16450553
-4.5376773	oft	-0.10513432
-4.5376773	beaten	-0.10513432
-4.0340385	track	-0.3251499
-3.9446094	build	-0.19520459
-4.3857713	empowered	-0.10513432
-4.3857713	capable	-0.10513429
-4.3857713	CRPF	-0.10513432
-3.9446094	tributes	-0.40433112
-3.9446094	Dhyan	-0.57950866
-4.2994843	remind	-0.18624777
-4.2994843	invaluable	-0.10513429
-4.2994843	fast	-0.18624777
-4.5376773	paced	-0.10513432
-4.5376773	rat	-0.10513432
-4.3857713	Empire	-0.10513432
-4.5376773	feared	-0.10513432
-4.3857713	hurry	-0.10513432
-4.5376773	hall	-0.10513432
-4.3857713	rush	-0.23329818
-4.5376773	quickly	-0.10513432
-4.5376773	seated	-0.10513432
-4.5376773	vastness	-0.10513432
-3.6189694	diversity	-0.21797687
-4.5376773	hide	-0.10513432
-4.146789	seek	-0.10513432
-4.5376773	partiality	-0.10513432
-4.5376773	laced	-0.10513432
-4.3857713	likes	-0.10513432
-4.5376773	dislikes	-0.10513432
-4.3857713	blame	-0.10513432
-4.5376773	dependent	-0.10513432
-4.3857713	lets	-0.10513432
-4.2994843	valiant	-0.10513432
-4.146789	sign	-0.17116357
-4.5376773	denying	-0.10513432
-3.9446094	perform	-0.10513432
-3.7519577	expectations	-0.24274865
-4.5376773	dumped	-0.10513432
-3.3657968	along	-0.58146906
-4.5376773	poorly	-0.10513432
-4.3857713	distressed	-0.10513432
-4.3857713	disappointed	-0.10513432
-4.5376773	envy	-0.10513432
-4.5376773	devour	-0.10513432
-4.2994843	consume	-0.10513432
-4.5376773	competitor	-0.10513432
-4.0340385	pace	-0.15196419
-4.5376773	standstill	-0.10513432
-4.146789	failure	-0.10513432
-3.7029624	games	-0.154297
-4.3857713	spheres	-0.10513432
-3.4349754	parents	-0.2938773
-3.8071914	saw	-0.15027991
-3.9446094	1857	-0.17116357
-3.8704877	1942	-0.1944319
-4.5376773	yearning	-0.10513432
-4.5376773	grassroots	-0.10513432
-4.5376773	At	-0.10513432
-4.2994843	rising	-0.10513432
-4.146789	concerns	-0.16450553
-3.8704877	account	-0.12579697
-4.2994843	excessive	-0.10513429
-4.5376773	anxiously	-0.10513432
-4.2994843	waiting	-0.27847868
-4.0340385	Sonal	-0.15196419
-3.4349754	daughter	-0.1808692
-4.2994843	Pune	-0.16450553
-4.3857713	surely	-0.10513432
-3.4349754	teachers	-0.273466
-4.5376773	pupils	-0.10513432
-3.9446094	despite	-0.14070046
-4.3857713	sake	-0.10513429
-4.5376773	Eid-ul-Fitr	-0.10513432
-4.3857713	Agast	-0.23329818
-4.146789	Kranti	-0.20066871
-4.2994843	9th	-0.10513429
-3.6189694	15th	-0.43824267
-4.5376773	reminding	-0.10513432
-3.8704877	2022	-0.1623397
-3.8071914	75	-0.40601072
-3.4607215	Indias	-0.11343413
-4.3857713	BHARAT	-0.23329818
-4.3857713	KI	-0.10513432
-4.5376773	LAMI	-0.10513432
-3.7519577	kind	-0.50169873
-3.8071914	learning	-0.1305253
-4.3857713	Niti	-0.23329818
-4.5376773	Aayog	-0.10513429
-4.3857713	incorporate	-0.10513429
-4.146789	practices	-0.10513432
-4.5376773	forgotten	-0.10513432
-4.3857713	payments	-0.10513432
-4.2994843	20th	-0.10513429
-4.3857713	Sanitation	-0.10513432
-4.146789	continued	-0.10513432
-4.3857713	vein	-0.10513429
-4.0340385	Ive	-0.15196419
-4.5376773	Saturday	-0.10513432
-4.2994843	Morna	-0.18624777
-3.8704877	cleaned	-0.2501615
-4.0340385	clothes	-0.10513429
-4.3857713	Waste	-0.23329818
-3.7519577	wealth	-0.21637897
-4.5376773	components	-0.10513432
-4.3857713	therefore	-0.13806115
-4.2994843	Compost	-0.10513429
-4.5376773	warmest	-0.10513432
-4.2994843	Easter	-0.16450553
-4.3857713	collectiveness	-0.18624777
-4.2994843	force	-0.10513429
-4.2994843	adventure	-0.16450553
-4.146789	laurels	-0.20446095
-4.0340385	raising	-0.10513432
-4.0340385	Navy	-0.10513432
-4.146789	significantly	-0.16450553
-4.5376773	conveying	-0.10513432
-3.7029624	less	-0.19167258
-4.0340385	novel	-0.10513432
-3.4880903	scheme	-0.22417322
-4.3857713	harvest	-0.10513432
-4.5376773	Anganwadi	-0.10513432
-3.8704877	workers	-0.15749347
-4.2994843	collect	-0.10513432
-4.3857713	handful	-0.23329818
-4.5376773	rice	-0.10513432
-4.2994843	grain	-0.10513429
-4.2994843	convey	-0.17116357
-4.5376773	newlyweds	-0.10513432
-4.5376773	Dakshaa	-0.10513432
-4.5376773	profusely	-0.10513432
-4.2994843	compliment	-0.10513429
-3.7519577	transformed	-0.14380008
-4.146789	offering	-0.14380008
-4.3857713	thereby	-0.10513429
-4.0340385	order	-0.14380008
-4.5376773	uproot	-0.10513432
-4.3857713	ills	-0.10513432
-4.2994843	worlds	-0.15196419
-4.5376773	longest	-0.10513432
-4.2994843	chain	-0.10513432
-4.3857713	spanning	-0.10513429
-4.5376773	thirteen	-0.10513432
-4.146789	kilometers	-0.10513432
-4.146789	formed	-0.16450553
-4.5376773	opposition	-0.10513432
-4.3857713	forth	-0.10513429
-4.5376773	incredible	-0.10513432
-4.2994843	appealed	-0.18624777
-4.3857713	corporate	-0.10513429
-4.2994843	amount	-0.27847868
-3.7029624	pressure	-0.14597625
-4.5376773	Among	-0.10513429
-4.3857713	recipients	-0.10513432
-3.9446094	Padma	-0.15749347
-4.2994843	award	-0.18624777
-4.5376773	Shabbir	-0.10513432
-4.5376773	Sayyed	-0.10513432
-4.5376773	Marathwada	-0.10513432
-4.5376773	servant	-0.10513432
-4.5376773	Gau-Mata	-0.10513432
-4.3857713	variety	-0.23329818
-4.2994843	sorts	-0.18624777
-3.6189694	write	-0.20770447
-4.2994843	whichever	-0.10513429
-4.3857713	NarendraModi	-0.18624777
-3.7029624	Dr.	-0.25502637
-4.146789	emphasized	-0.16450553
-4.5376773	missionary	-0.10513432
-4.3857713	retired	-0.23329818
-3.8071914	teacher	-0.17483276
-4.3857713	pension	-0.10513432
-4.5376773	donating	-0.10513432
-4.0340385	fifty	-0.20066871
-4.146789	gas	-0.10513432
-4.146789	connection	-0.10513432
-3.9446094	save	-0.13206616
-4.3857713	ill	-0.10513432
-4.3857713	effects	-0.10513432
-4.0340385	2014	-0.15196419
-3.9446094	walking	-0.13806115
-3.7519577	1	-0.40506348
-3.8071914	moving	-0.21893944
-4.5376773	terrify	-0.10513432
-4.5376773	patient	-0.10513432
-4.5376773	references	-0.10513432
-4.3857713	ailment	-0.10513432
-4.5376773	gallery	-0.10513432
-4.3857713	inscribed	-0.10513432
-4.3857713	tales	-0.23329818
-4.0340385	valour	-0.19520459
-4.5376773	Indradhanush	-0.10513432
-4.146789	operation	-0.10513432
-4.3857713	involves	-0.10513432
-4.5376773	vaccination	-0.10513432
-3.7519577	program	-0.16873062
-4.5376773	covering	-0.10513432
-4.0340385	kids	-0.10513429
-4.0340385	previous	-0.10513432
-4.5376773	empowers	-0.10513432
-4.5376773	immunity	-0.10513432
-4.3857713	serious	-0.10513432
-4.5376773	KshamavaniParva	-0.10513432
-4.2994843	traditionally	-0.10513429
-4.5376773	greet	-0.10513432
-4.3857713	michhamidukkadam	-0.23329818
-3.8704877	accorded	-0.15559849
-4.146789	highest	-0.10513432
-3.6589386	significance	-0.24012281
-4.5376773	sympathise	-0.10513432
-4.3857713	sufferings	-0.10513429
-3.9446094	self-confidence	-0.14380008
-4.5376773	A-Sat	-0.10513429
-4.3857713	hectic	-0.10513432
-4.2994843	engagements	-0.10513429
-4.146789	Elections	-0.22823988
-4.3857713	prominent	-0.10513429
-4.2994843	discourse	-0.10513432
-4.5376773	Bhawnaji	-0.10513432
-3.9446094	sentiments	-0.13380614
-4.0340385	Red	-0.50032747
-4.5376773	Fort	-0.10513432
-4.3857713	interviews	-0.18624777
-4.2994843	lower	-0.10513432
-4.146789	posts	-0.10513432
-4.5376773	514	-0.10513432
-4.2994843	centers	-0.10513429
-4.3857713	testing	-0.10513429
-4.146789	dengue	-0.15196419
-4.5376773	cases	-0.10513432
-4.146789	absolutely	-0.16450553
-4.0340385	cost	-0.22991943
-3.4106708	connected	-0.5808799
-4.2994843	keeps	-0.10513429
-4.2994843	imparting	-0.10513429
-3.6589386	knowledge	-0.19280116
-4.146789	usage	-0.16450553
-4.3857713	passengers	-0.10513432
-4.5376773	acquainted	-0.10513432
-4.5376773	Subhashitas	-0.10513432
-4.5376773	crisp	-0.10513432
-4.3857713	precise	-0.10513432
-4.3857713	statement	-0.23329818
-4.5376773	subhashitas	-0.10513432
-4.5376773	geographical	-0.10513432
-4.146789	belonging	-0.16450553
-4.5376773	assimilate	-0.10513432
-4.5376773	Mahaparva	-0.10513432
-4.5376773	mega-festival	-0.10513432
-3.7519577	stands	-0.24635713
-4.146789	equality	-0.22991943
-4.2994843	integrity	-0.18624777
-4.3857713	honesty	-0.23329818
-4.3857713	Haripura	-0.10513432
-4.5376773	1937-38	-0.10513432
-4.3857713	Principal	-0.10513432
-4.5376773	Shantiniketan	-0.10513432
-4.5376773	Kala	-0.10513432
-4.5376773	Bhavan	-0.10513432
-4.146789	Nandlal	-0.40341744
-4.0340385	Bose	-0.16873062
-4.2994843	Harda	-0.18624777
-4.0340385	closely	-0.10513432
-3.9446094	Ram	-0.10513432
-4.5376773	Naam	-0.10513432
-4.5376773	chant	-0.10513432
-4.5376773	Rams	-0.10513432
-4.2994843	Bapus	-0.18624777
-4.3857713	Now	-0.12128573
-4.3857713	nominate	-0.10513432
-4.146789	defeat	-0.15196419
-3.8704877	Diabetes	-0.15196419
-4.3857713	host	-0.10513432
-4.0340385	standards	-0.10513432
-3.8071914	follow	-0.15559849
-3.9446094	bestowed	-0.18321475
-4.146789	inspires	-0.16450553
-4.5376773	disparities	-0.10513432
-4.3857713	exhorts	-0.10513432
-4.0340385	bit	-0.147492
-3.9446094	fight	-0.28030804
-4.3857713	disparity	-0.10513432
-4.3857713	onset	-0.23329818
-4.146789	17	-0.16450553
-3.8704877	types	-0.4712779
-4.3857713	taxes	-0.10513432
-4.2994843	prevailing	-0.16450553
-4.0340385	tax	-0.20066871
-4.5376773	applicable	-0.10513432
-3.8704877	agriculture	-0.15559849
-4.5376773	fundamentals	-0.10513432
-4.146789	countrys	-0.10513429
-4.2994843	Sandesh	-0.27847868
-4.2994843	Soldiers	-0.10513432
-4.5376773	Never	-0.10513432
-3.9446094	5th	-0.21250662
-4.3857713	Monday	-0.10513432
-4.5376773	Spectacular	-0.10513432
-3.7029624	achieved	-0.1416769
-4.5376773	airplane	-0.10513432
-4.5376773	floating	-0.10513432
-4.3857713	mid	-0.10513432
-4.146789	air	-0.10513429
-4.0340385	writing	-0.10513432
-4.2994843	Central	-0.20446095
-4.5376773	banned	-0.10513432
-4.5376773	intoxication	-0.10513432
-4.5376773	destroy	-0.10513432
-4.5376773	demographically	-0.10513432
-4.5376773	During	-0.10513432
-4.3857713	Gurunanak	-0.10513432
-3.8704877	travelled	-0.17369066
-4.3857713	north	-0.18624777
-4.5376773	neighboring	-0.10513432
-4.3857713	ambience	-0.10513432
-4.5376773	bid	-0.10513432
-4.5376773	adieu	-0.10513432
-4.5376773	Phalgun	-0.10513432
-4.3857713	awaiting	-0.10513432
-4.5376773	arrival	-0.10513432
-4.3857713	Chaitra	-0.10513432
-4.5376773	ably	-0.10513432
-4.0340385	Birsa	-0.50032747
-4.3857713	Munda	-0.10513432
-4.0340385	met	-0.10513429
-4.2994843	extraordinary	-0.10513429
-4.5376773	significanty	-0.10513432
-4.5376773	Anyway	-0.10513432
-4.146789	adopted	-0.13380614
-3.5486183	found	-0.1675999
-4.2994843	passion	-0.27847868
-4.5376773	marathon	-0.10513432
-3.6589386	winning	-0.19404101
-3.582371	World	-0.23658052
-4.5376773	Cup	-0.10513429
-4.5376773	twenty-five	-0.10513432
-4.3857713	million	-0.10513432
-4.3857713	shoulders	-0.23329818
-4.5376773	letting	-0.10513432
-3.9446094	burden	-0.17563409
-3.7029624	down	-0.14380008
-4.2994843	ours	-0.10513429
-4.5376773	flower	-0.10513432
-4.2994843	heads	-0.10513429
-4.2994843	fruit	-0.10513429
-4.3857713	mango	-0.10513432
-4.5376773	manifest	-0.10513432
-4.2994843	spring	-0.10513432
-4.3857713	Monsoon	-0.23329818
-3.8704877	session	-0.26062644
-4.0340385	jointly	-0.14380008
-4.2994843	ideal	-0.10513429
-4.3857713	approach	-0.10513432
-4.2994843	For	-0.12403705
-3.6189694	reading	-0.12255341
-3.8071914	proved	-0.17563409
-4.2994843	depth	-0.10513432
-4.2994843	relationship	-0.18624777
-3.8071914	inspirational	-0.10513432
-4.0340385	Swaraj	-0.15196419
-4.5376773	birthright	-0.10513432
-3.7519577	programmes	-0.17741983
-4.3857713	Transform	-0.10513432
-4.5376773	40-50	-0.10513432
-4.146789	video	-0.10513432
-4.5376773	bridge	-0.10513432
-4.3857713	Of	-0.16450553
-4.5376773	couldnt	-0.10513429
-4.3857713	travelling	-0.10513432
-4.146789	Earth	-0.17369066
-4.2994843	representative	-0.10513429
-4.5376773	Sevak	-0.10513432
-4.3857713	dirty	-0.10513432
-4.5376773	E-Marketplace	-0.10513432
-4.0340385	initiated	-0.10513432
-4.0340385	NGOs	-0.18321475
-4.2994843	Start	-0.10513429
-4.3857713	ups	-0.10513432
-4.146789	endeavor	-0.10513432
-4.5376773	associations	-0.10513432
-3.7029624	discuss	-0.19782251
-3.7029624	issues	-0.12579697
-4.3857713	submit	-0.10513432
-4.5376773	memoranda	-0.10513432
-4.3857713	4th	-0.10513432
-3.5486183	National	-0.22936371
-4.3857713	Safety	-0.10513432
-4.5376773	raise	-0.10513432
-4.5376773	intensely	-0.10513432
-4.5376773	1969	-0.10513432
-4.2994843	centenary	-0.20066871
-4.146789	150th	-0.40341744
-3.9446094	similarly	-0.10513429
-3.582371	decided	-0.58005667
-4.5376773	positions	-0.10513432
-4.5376773	anticipation	-0.10513432
-3.9446094	ensure	-0.14070046
-3.9446094	proper	-0.10513432
-4.3857713	newborn	-0.10513432
-3.9446094	pledge	-0.13806115
-3.6589386	remains	-0.16873062
-4.2994843	To	-0.10513432
-4.2994843	encourage	-0.10513432
-4.146789	sportspersons	-0.18624777
-4.146789	leaving	-0.10513432
-4.2994843	Rio	-0.16450553
-3.9446094	Olympics	-0.28030804
-4.2994843	boost	-0.10513429
-4.146789	morale	-0.10513432
-4.5376773	Shree	-0.10513432
-3.9446094	honour	-0.17369066
-4.5376773	vehicle	-0.10513432
-4.3857713	educational	-0.10513432
-4.3857713	Students	-0.10513429
-4.0340385	studies	-0.18624777
-4.146789	gentleman	-0.10513429
-4.3857713	reveal	-0.10513432
-4.146789	Onam	-0.14380008
-4.3857713	Kerela	-0.23329818
-4.2994843	privileged	-0.10513432
-3.8704877	launch	-0.13380614
-4.5376773	mega	-0.10513429
-4.2994843	Sankalp	-0.18624777
-4.5376773	se	-0.10513432
-4.2994843	Siddhi	-0.10513429
-4.5376773	Attainment	-0.10513432
-4.3857713	Resolve	-0.18624777
-3.7519577	live	-0.1842602
-4.5376773	educator	-0.10513432
-3.9446094	felicitate	-0.17116357
-4.3857713	residents	-0.23329818
-4.3857713	Mubarakpur	-0.10513432
-4.2994843	transforming	-0.18624777
-4.146789	Ramzan	-0.16450553
-4.0340385	welfare	-0.20446095
-4.3857713	Programmes	-0.10513429
-3.8071914	broadcast	-0.10513432
-4.146789	Azad	-0.13380614
-4.3857713	Hind	-0.10513429
-3.9446094	Radio	-0.10513432
-4.2994843	populace	-0.10513432
-4.3857713	Their	-0.10513432
-4.3857713	fighters	-0.10513432
-4.5376773	smoker	-0.10513432
-3.9446094	knows	-0.13806115
-4.5376773	theres	-0.10513432
-4.5376773	innovate	-0.10513432
-4.5376773	AIM	-0.10513432
-3.9446094	Atal	-0.10513429
-4.5376773	Innovation	-0.10513432
-3.4106708	might	-0.38583523
-4.5376773	signals	-0.10513432
-4.5376773	indicate	-0.10513432
-4.2994843	broken	-0.10513429
-4.2994843	records	-0.18624777
-4.146789	declared	-0.10513432
-4.146789	Open	-0.22823988
-4.5376773	Defecation	-0.10513432
-4.5376773	Free	-0.10513429
-4.5376773	Sikkim	-0.10513432
-4.2994843	Himachal	-0.27847868
-3.5173006	energy	-0.215788
-4.5376773	superstition	-0.10513432
-4.2994843	newspaper	-0.10513432
-3.8071914	5	-0.12579697
-4.5376773	Leaders	-0.10513432
-4.5376773	54	-0.10513432
-4.0340385	African	-0.18321475
-4.5376773	unions	-0.10513432
-3.6589386	believe	-0.33448243
-4.0340385	excellent	-0.10513432
-4.3857713	Minimum	-0.10513432
-4.5376773	Maximum	-0.10513432
-4.3857713	Governance	-0.10513432
-4.146789	objective	-0.10513432
-4.5376773	Price	-0.10513432
-4.3857713	Ease	-0.10513432
-4.5376773	Efficiency	-0.10513432
-4.3857713	Transparency	-0.10513432
-4.5376773	Providing	-0.10513432
-3.4880903	security	-0.23032774
-4.2994843	administration	-0.13806115
-4.5376773	Those	-0.10513432
-3.7519577	pleasure	-0.12791836
-4.5376773	repent	-0.10513432
-4.3857713	Every	-0.10513429
-4.5376773	rushes	-0.10513432
-4.0340385	seems	-0.20974398
-4.0340385	corruption	-0.10513429
-4.0340385	levels	-0.15196419
-4.2994843	24th	-0.18624777
-4.5376773	KALAM	-0.10513432
-4.5376773	SAT	-0.10513432
-4.5376773	fashioned	-0.10513432
-4.3857713	righteous	-0.10513432
-4.3857713	Some	-0.12791836
-4.2994843	suggested	-0.16450553
-4.3857713	simplifying	-0.10513432
-4.3857713	registration	-0.10513432
-4.3857713	Small	-0.10513432
-4.5376773	Scale	-0.10513432
-4.3857713	Industries	-0.10513432
-3.6189694	transformation	-0.15963899
-4.2994843	compliments	-0.27847868
-4.5376773	visualized	-0.10513432
-4.146789	childrens	-0.10513432
-4.0340385	seriously	-0.15196419
-4.146789	construct	-0.16450553
-4.2994843	toilet	-0.10513432
-4.2994843	meant	-0.27847868
-4.0340385	essence	-0.27847868
-4.3857713	inbuilt	-0.10513432
-4.146789	informed	-0.10513432
-4.2994843	afoot	-0.10513429
-4.5376773	Mutthi	-0.10513432
-4.3857713	Bhar	-0.10513432
-4.5376773	Dhaanya	-0.10513432
-4.5376773	Nashik	-0.10513432
-4.5376773	flight	-0.10513432
-4.2994843	courageous	-0.10513429
-4.5376773	Defence	-0.10513432
-4.5376773	Nirmala	-0.10513432
-4.5376773	Seetharaman	-0.10513432
-4.5376773	Sukhoi	-0.10513432
-4.2994843	30	-0.10513429
-4.2994843	fighter	-0.10513429
-4.5376773	plane	-0.10513432
-3.6589386	little	-0.10513432
-4.5376773	lure	-0.10513432
-3.8704877	remain	-0.10513429
-4.5376773	cautious	-0.10513432
-4.5376773	false	-0.10513432
-4.5376773	communications	-0.10513432
-3.8071914	notice	-0.2726605
-4.5376773	Television	-0.10513432
-4.2994843	News	-0.10513429
-4.0340385	Social	-0.15196419
-4.2994843	Media	-0.10513429
-4.0340385	check	-0.13806115
-4.2994843	trained	-0.10513429
-4.5376773	pursuing	-0.10513432
-4.5376773	gainful	-0.10513432
-4.5376773	importantly	-0.10513432
-4.0340385	integrated	-0.15196419
-4.5376773	roll	-0.10513432
-3.8704877	awards	-0.10513432
-3.8071914	12	-0.1623397
-4.0340385	renewed	-0.13806115
-4.5376773	dedicating	-0.10513432
-4.5376773	upliftment	-0.10513432
-4.2994843	youre	-0.10513429
-3.7029624	South	-0.50169873
-4.3857713	Asia	-0.10513432
-4.5376773	Satellites	-0.10513432
-3.6589386	unique	-0.10513432
-3.9446094	gifted	-0.10513429
-4.2994843	hues	-0.27847868
-4.5376773	Allies	-0.10513432
-4.3857713	helps	-0.10513432
-4.5376773	relieving	-0.10513432
-3.8704877	leads	-0.4712779
-4.146789	Abhi	-0.23329818
-4.5376773	GOBAR-	-0.10513432
-4.5376773	DHAN	-0.10513432
-4.2994843	generating	-0.10513429
-4.146789	cattle	-0.16450553
-4.0340385	solid	-0.10513432
-3.8704877	agricultural	-0.1623397
-4.146789	Bio	-0.16450553
-4.5376773	Gas	-0.10513432
-4.0340385	routine	-0.10513429
-4.5376773	rekindled	-0.10513432
-4.5376773	Thus	-0.10513432
-3.9446094	younger	-0.2501615
-4.0340385	heroes	-0.17116357
-4.0340385	ancient	-0.10513432
-3.8071914	heritage	-0.32767168
-3.5486183	history	-0.30787852
-3.9446094	Ek	-0.40433112
-4.3857713	Shreshth	-0.23329818
-4.5376773	scored	-0.10513432
-3.7029624	ten	-0.15196419
-3.6189694	minutes	-0.1788693
-4.5376773	avenged	-0.10513432
-4.2994843	hit	-0.18624777
-4.5376773	scoring	-0.10513432
-4.2994843	difficulty	-0.10513429
-4.146789	figure	-0.10513432
-4.5376773	-the	-0.10513432
-4.5376773	condemned	-0.10513432
-4.2994843	unaware	-0.10513429
-4.146789	scholars	-0.10513432
-4.3857713	proceed	-0.10513429
-3.8704877	zeal	-0.18422341
-4.5376773	Sakal	-0.10513432
-4.5376773	conveyed	-0.10513432
-3.8071914	sleep	-0.21852694
-4.3857713	peacefully	-0.10513432
-3.8071914	night	-0.16450553
-3.7029624	stand	-0.15196419
-3.9446094	wrong	-0.10513429
-4.5376773	illustrated	-0.10513432
-4.3857713	dignity	-0.23329818
-3.8071914	labour	-0.18422341
-4.146789	thanks	-0.22991943
-4.0340385	Bangladesh	-0.13380614
-4.5376773	collaborating	-0.10513432
-4.5376773	Last	-0.10513432
-4.0340385	ki	-0.10513432
-4.146789	requested	-0.10513429
-4.0340385	memorable	-0.14380008
-4.0340385	pictures	-0.13806115
-4.3857713	vacation	-0.10513432
-4.146789	anywhere	-0.22823988
-4.2994843	kindly	-0.10513432
-4.3857713	Incredible	-0.23329818
-4.146789	hashtag	-0.22823988
-4.5376773	eminent	-0.10513432
-4.5376773	campaigning	-0.10513432
-4.0340385	spreading	-0.15196419
-4.146789	voter	-0.16450553
-4.5376773	casting	-0.10513432
-4.2994843	vote	-0.10513429
-4.0340385	polling	-0.20446095
-4.146789	summit	-0.14380008
-4.0340385	clearly	-0.15196419
-3.8704877	priority	-0.13380614
-4.5376773	Javed	-0.10513432
-4.2994843	Ahmed	-0.10513432
-4.2994843	visitors	-0.10513429
-4.146789	sport	-0.16450553
-4.5376773	conducive	-0.10513432
-4.146789	sporting	-0.10513432
-4.0340385	surprised	-0.15559849
-4.5376773	center	-0.10513432
-3.6189694	tourism	-0.1842602
-3.6189694	close	-0.273466
-4.5376773	proximity	-0.10513432
-4.0340385	electricity	-0.10513432
-4.5376773	hadnt	-0.10513432
-4.146789	Elephanta	-0.10513429
-4.0340385	independence	-0.13380614
-4.5376773	engrossed	-0.10513432
-4.2994843	engaging	-0.10513429
-3.9446094	matters	-0.20974398
-4.3857713	bows	-0.10513432
-4.5376773	visualize	-0.10513432
-4.2994843	heartwarming	-0.10513429
-3.9446094	initiatives	-0.10513429
-4.0340385	8	-0.10513429
-4.5376773	harvested	-0.10513432
-4.5376773	Actually	-0.10513429
-4.3857713	Aligarh	-0.10513429
-4.2994843	railway	-0.20446095
-4.2994843	context	-0.10513429
-3.9446094	interesting	-0.13380614
-4.5376773	co-operation	-0.10513432
-4.5376773	army	-0.10513429
-3.8704877	Jawans	-0.15196419
-4.5376773	defense	-0.10513432
-4.0340385	martyrdom	-0.10513432
-4.5376773	avalanche	-0.10513432
-3.3657968	full	-0.3203406
-4.5376773	Commonwealth	-0.10513432
-4.0340385	humility	-0.15196419
-4.5376773	simplicity	-0.10513432
-4.5376773	epitome	-0.10513432
-4.5376773	sportsmanship	-0.10513432
-4.5376773	truest	-0.10513432
-4.2994843	attract	-0.15196419
-4.5376773	Pranam	-0.10513432
-4.5376773	Naina	-0.10513432
-3.5486183	himself	-0.15551065
-4.0340385	forever	-0.15196419
-4.5376773	sincerely	-0.10513432
-3.9446094	large	-0.16306043
-4.0340385	numbers	-0.13380614
-4.146789	registered	-0.16450553
-4.3857713	forging	-0.10513432
-4.5376773	partnership	-0.10513432
-4.3857713	quest	-0.18624777
-3.5173006	further	-0.1461854
-4.146789	strengthen	-0.18422341
-4.5376773	quote	-0.10513432
-4.2994843	doha	-0.18624777
-4.146789	saint	-0.10513432
-4.5376773	recognizes	-0.10513432
-4.5376773	understands	-0.10513432
-4.0340385	organizing	-0.15196419
-4.5376773	mobilisation	-0.10513432
-4.5376773	programme-	-0.10513432
-4.2994843	Back	-0.27847868
-4.3857713	teaching	-0.10513432
-4.3857713	preached	-0.10513432
-4.5376773	abolish	-0.10513432
-4.3857713	evils	-0.10513432
-4.146789	folk	-0.10513432
-4.3857713	donated	-0.10513432
-4.2994843	sweat	-0.10513429
-4.3857713	toiling	-0.10513432
-3.8071914	collectively	-0.1623397
-4.146789	mountain	-0.10513432
-4.5376773	selection	-0.10513432
-4.2994843	diverse	-0.10513429
-4.5376773	conserve	-0.10513432
-4.2994843	flora	-0.16450553
-4.5376773	fauna	-0.10513432
-4.0340385	wherein	-0.14380008
-4.2994843	flourish	-0.10513429
-4.5376773	properly	-0.10513432
-4.5376773	pressing	-0.10513432
-4.0340385	Nation	-0.15749347
-3.9446094	father	-0.13380614
-3.9446094	brother	-0.13380614
-3.6189694	skills	-0.2652941
-3.8704877	player	-0.13380614
-4.5376773	opposite	-0.10513432
-3.9446094	hockey	-0.18321475
-4.146789	stick	-0.22823988
-4.5376773	Paralympic	-0.10513432
-4.146789	athletes	-0.13380614
-4.5376773	progressing	-0.10513432
-3.9446094	developing	-0.14380008
-4.146789	Paralympics	-0.18624777
-3.7029624	needs	-0.2713736
-4.5376773	mindsets	-0.10513432
-4.5376773	formalities	-0.10513432
-4.146789	interview	-0.10513432
-4.5376773	non-gazetted	-0.10513432
-4.5376773	D	-0.10513432
-4.3857713	C	-0.10513432
-4.5376773	B	-0.10513432
-4.5376773	cited	-0.10513432
-4.5376773	retaliated	-0.10513432
-4.146789	measure	-0.10513432
-3.7519577	language	-0.15196419
-4.5376773	attackers	-0.10513432
-4.5376773	24x7	-0.10513432
-4.3857713	helpline	-0.10513432
-4.0340385	facility	-0.13806115
-4.2994843	Its	-0.10513432
-4.5376773	1800	-0.10513432
-4.5376773	114	-0.10513432
-4.5376773	770	-0.10513432
-4.2994843	Like	-0.13380614
-4.0340385	3rd	-0.3251499
-4.2994843	December	-0.10513432
-4.5376773	Disability	-0.10513432
-4.0340385	attached	-0.18321475
-4.3857713	farms	-0.10513432
-4.2994843	sentence	-0.10513432
-4.2994843	said-	-0.10513429
-4.5376773	dig	-0.10513432
-3.9446094	earth	-0.13806115
-4.2994843	tend	-0.18624777
-4.5376773	Whole-hearted	-0.10513432
-4.2994843	conviction	-0.10513429
-4.0340385	indeed	-0.10513432
-4.2994843	constitute	-0.10513432
-4.5376773	anti-corruption	-0.10513432
-4.5376773	cadre	-0.10513432
-4.3857713	slogan	-0.10513432
-4.5376773	catch-phrase	-0.10513432
-3.9446094	saving	-0.13380614
-3.9446094	senior	-0.14380008
-4.146789	basis	-0.10513432
-4.3857713	savings	-0.10513432
-4.5376773	marketing	-0.10513432
-3.6189694	crops	-0.17242527
-4.2994843	reaping	-0.10513429
-4.5376773	profits	-0.10513432
-4.3857713	attempt	-0.10513429
-4.2994843	guarantee	-0.16450553
-4.3857713	Savarkarji	-0.10513429
-4.5376773	honorable	-0.10513432
-4.5376773	Bihari	-0.10513432
-4.146789	Vajpayee	-0.10513432
-4.3857713	minister	-0.10513432
-4.5376773	colossal	-0.10513432
-4.146789	historic	-0.10513432
-4.5376773	integrating	-0.10513432
-4.5376773	Princely	-0.10513432
-4.3857713	Even	-0.12579697
-4.146789	though	-0.10513432
-3.4607215	clean	-0.18888871
-4.3857713	maintain	-0.10513429
-3.9446094	bright	-0.17116357
-4.5376773	yellow	-0.10513432
-4.5376773	mustard	-0.10513432
-4.5376773	swaying	-0.10513432
-4.5376773	kindle	-0.10513432
-3.7029624	laid	-0.12791836
-4.2994843	foundation	-0.20066871
-4.3857713	Team	-0.10513432
-4.5376773	Bhimrao	-0.10513432
-4.146789	reality	-0.10513432
-4.2994843	extensively	-0.10513429
-3.9446094	conversation	-0.18321475
-4.5376773	Bear	-0.10513432
-4.5376773	Grylls	-0.10513432
-3.4880903	problems	-0.2861413
-4.2994843	solve	-0.10513432
-4.5376773	Janbhagidari	-0.10513432
-4.5376773	Janshakti	-0.10513432
-4.3857713	bound	-0.10513432
-4.2994843	solution	-0.15196419
-4.146789	cooperation	-0.10513432
-4.146789	resolution	-0.10513432
-4.5376773	Shrey	-0.10513432
-4.0340385	Gupta	-0.20446095
-4.146789	stressed	-0.10513432
-4.2994843	resides	-0.18624777
-4.3857713	wheat	-0.10513432
-4.3857713	oilseeds	-0.10513432
-4.3857713	data	-0.10513429
-4.3857713	indicates	-0.23329818
-4.0340385	sowing	-0.15196419
-3.8704877	increased	-0.13380614
-4.5376773	substantially	-0.10513432
-3.9446094	compared	-0.40433112
-4.5376773	Possibly	-0.10513432
-4.5376773	uncles	-0.10513432
-4.5376773	aunts	-0.10513432
-4.5376773	Wherever	-0.10513432
-3.7519577	tribute	-0.40506348
-4.0340385	martyrs	-0.17369066
-4.3857713	privilege	-0.10513432
-4.3857713	releasing	-0.23329818
-4.146789	tiger	-0.20066871
-4.5376773	census	-0.10513432
-4.0340385	yesterday	-0.10513432
-4.2994843	nine	-0.10513429
-4.3857713	upload	-0.16450553
-4.0340385	videos	-0.15196419
-4.5376773	websites	-0.10513432
-4.5376773	nominating	-0.10513432
-4.3857713	Jawed	-0.18624777
-4.3857713	martyred	-0.10513432
-3.8071914	leave	-0.15749347
-4.5376773	G-20	-0.10513432
-4.5376773	Summit	-0.10513432
-3.8704877	feelings	-0.13380614
-4.3857713	Gita	-0.10513432
-4.5376773	ashwatth	-0.10513432
-4.5376773	sarvvrikshanam	-0.10513432
-4.5376773	Peepal	-0.10513432
-4.3857713	Tree	-0.10513432
-4.3857713	flame	-0.10513432
-4.3857713	Amar	-0.10513432
-3.8704877	Chakra	-0.20974398
-4.5376773	symbolizes	-0.10513432
-4.5376773	immortality	-0.10513432
-3.7519577	schemes	-0.15963899
-3.8704877	accepted	-0.17369066
-3.9446094	grateful	-0.57950866
-4.3857713	bottom	-0.10513432
-4.0340385	Atalji	-0.13380614
-4.5376773	patriot	-0.10513432
-4.5376773	conclude	-0.10513432
-4.5376773	Mahayagya	-0.10513432
-4.5376773	paramilitary	-0.10513432
-4.5376773	discharged	-0.10513432
-4.5376773	persevered	-0.10513432
-3.9446094	diligence	-0.14380008
-4.146789	lots	-0.40341744
-4.3857713	generated	-0.10513432
-4.5376773	gain	-0.10513432
-3.8071914	fresh	-0.16450553
-4.0340385	momentum	-0.15196419
-4.0340385	pit	-0.10513429
-4.5376773	useless	-0.10513432
-3.7519577	considered	-0.17668411
-4.3857713	angle	-0.10513432
-4.5376773	fertiliser	-0.10513432
-3.8071914	black	-0.5292699
-4.146789	armed	-0.22823988
-4.146789	Divyang	-0.10513432
-4.5376773	athuniaji	-0.10513432
-4.5376773	discus	-0.10513432
-4.2994843	throw	-0.10513429
-4.3857713	Para	-0.10513432
-4.3857713	Athletics	-0.10513432
-4.2994843	Grand	-0.10513429
-4.5376773	Prix	-0.10513432
-4.5376773	Berlin	-0.10513432
-4.5376773	bettered	-0.10513432
-4.5376773	Sundar	-0.10513432
-4.5376773	Gurjar	-0.10513432
-4.5376773	javelin	-0.10513432
-4.5376773	Information	-0.10513432
-4.5376773	disseminated	-0.10513432
-3.8704877	soon	-0.17563409
-4.5376773	enforced	-0.10513432
-3.9446094	jobs	-0.14380008
-3.8704877	shoulder	-0.28053725
-4.5376773	Have	-0.10513429
-4.2994843	Do	-0.10513432
-3.8071914	followed	-0.16450553
-4.5376773	mohallas	-0.10513432
-3.7029624	city	-0.19782251
-4.5376773	institution	-0.10513432
-3.8704877	offices	-0.1623397
-3.9446094	felicitations	-0.31008077
-4.146789	West	-0.3251499
-4.2994843	East	-0.10513429
-4.5376773	Fertilizer	-0.10513432
-4.3857713	companies	-0.10513432
-3.9446094	buy	-0.12579697
-3.4607215	news	-0.16332291
-4.2994843	stations	-0.22823988
-4.3857713	depicting	-0.10513432
-3.9446094	identity	-0.18624777
-4.2994843	arts	-0.10513429
-3.8704877	credit	-0.10513432
-3.7519577	goes	-0.17563409
-4.2994843	parties	-0.15196419
-4.3857713	Facebook	-0.10513432
-4.5376773	twitter	-0.10513432
-4.5376773	email	-0.10513432
-4.5376773	Schools	-0.10513432
-3.9446094	colleges	-0.19754119
-4.0340385	underprivileged	-0.10513432
-4.0340385	traders	-0.14380008
-4.3857713	shopkeepers	-0.10513432
-4.5376773	cine	-0.10513432
-4.3857713	lamp	-0.10513429
-4.2994843	joined	-0.15196419
-4.3857713	salutation	-0.23329818
-4.3857713	27	-0.10513432
-4.2994843	meetings	-0.10513429
-4.3857713	Council	-0.10513432
-4.3857713	ideologies	-0.10513432
-4.3857713	poorest	-0.18624777
-4.3857713	avail	-0.10513432
-4.2994843	test	-0.10513432
-4.3857713	Honble	-0.18624777
-4.5376773	Vice	-0.10513432
-4.2994843	Madam	-0.10513429
-4.5376773	Speaker	-0.10513432
-4.5376773	inspite	-0.10513432
-4.5376773	stature	-0.10513432
-4.5376773	winners	-0.10513432
-4.146789	Asian	-0.15196419
-4.3857713	remaining	-0.10513432
-4.5376773	element	-0.10513432
-4.5376773	economics	-0.10513432
-4.3857713	situated	-0.10513432
-4.5376773	midst	-0.10513432
-4.5376773	Sabrimala	-0.10513432
-3.8704877	temple	-0.17369066
-4.2994843	challenge	-0.10513429
-4.3857713	converted	-0.10513429
-4.3857713	sanskar	-0.10513432
-3.8704877	tremendous	-0.10513432
-4.3857713	police	-0.10513432
-4.2994843	officer	-0.10513429
-4.2994843	P.	-0.18624777
-4.5376773	picturesque	-0.10513432
-4.3857713	islands	-0.10513432
-4.5376773	pristine	-0.10513432
-4.5376773	beaches	-0.10513432
-3.8704877	looking	-0.22915551
-4.146789	direct	-0.10513432
-4.0340385	appropriate	-0.10513432
-4.2994843	measures	-0.10513429
-4.3857713	solving	-0.10513432
-4.5376773	absorbed	-0.10513432
-4.2994843	files	-0.10513429
-4.146789	least	-0.10513432
-4.2994843	warriors	-0.10513429
-4.5376773	astounded	-0.10513432
-4.5376773	yogasans	-0.10513432
-4.146789	sky	-0.20066871
-3.582371	15	-0.15831968
-4.0340385	feet	-0.20066871
-3.9446094	above	-0.18624777
-4.5376773	Despite	-0.10513432
-4.5376773	persist	-0.10513432
-4.5376773	bravely	-0.10513432
-3.5173006	natural	-0.18766527
-4.2994843	calamities	-0.16450553
-3.8704877	standing	-0.10513432
-4.2994843	odds	-0.10513432
-4.5376773	showcases	-0.10513432
-4.5376773	radiating	-0.10513432
-4.5376773	subsides	-0.10513432
-4.5376773	dissipates	-0.10513432
-4.5376773	radiant	-0.10513432
-4.2994843	glow	-0.10513429
-4.3857713	emerges	-0.10513432
-4.2994843	Please	-0.12791836
-4.5376773	kiBaat	-0.10513432
-3.7029624	aspects	-0.50169873
-4.2994843	governance	-0.10513429
-4.5376773	co-operative	-0.10513432
-4.146789	federalism	-0.16450553
-4.3857713	competitive	-0.10513432
-4.3857713	cooperative	-0.10513432
-4.5376773	belong	-0.10513432
-4.3857713	backward	-0.18624777
-4.146789	heartfelt	-0.18321475
-3.9446094	officers	-0.10513432
-4.0340385	jawans	-0.20066871
-4.0340385	Coast	-0.3251499
-4.5376773	Guard	-0.10513432
-4.5376773	indigenously	-0.10513432
-4.5376773	126	-0.10513432
-4.3857713	ships	-0.10513432
-4.5376773	62	-0.10513432
-4.5376773	aircrafts	-0.10513432
-4.2994843	carved	-0.27847868
-4.5376773	coveted	-0.10513432
-4.5376773	Guards	-0.10513432
-3.8071914	displayed	-0.10513432
-4.3857713	deal	-0.10513432
-3.7519577	determination	-0.15559849
-4.146789	justice	-0.10513432
-3.9446094	members	-0.15831968
-4.2994843	model	-0.10513432
-4.146789	standard	-0.10513432
-4.5376773	Twin	-0.10513432
-4.5376773	Pit	-0.10513432
-4.2994843	Toilet	-0.10513432
-4.5376773	Tendulkar-ji	-0.10513432
-4.5376773	historically	-0.10513432
-4.5376773	sickness	-0.10513432
-3.7519577	house	-0.20238851
-4.3857713	Workshops	-0.10513432
-4.5376773	felicitated	-0.10513432
-4.3857713	Nari	-0.23329818
-4.2994843	Shakti	-0.10513432
-4.5376773	Puraskar	-0.10513432
-3.7029624	performed	-0.12255341
-3.9446094	tasks	-0.10513429
-4.5376773	sectors	-0.10513432
-4.3857713	artistic	-0.10513432
-3.8071914	painting	-0.1305253
-4.2994843	noticed	-0.14380008
-4.5376773	treat	-0.10513432
-4.5376773	Shakespeare	-0.10513432
-4.3857713	Merchant	-0.10513432
-4.3857713	Venice	-0.10513432
-4.5376773	explaining	-0.10513432
-4.5376773	Mercy	-0.10513432
-4.5376773	blest	-0.10513432
-4.5376773	blesseth	-0.10513432
-4.5376773	forgiver	-0.10513432
-4.5376773	forgiven	-0.10513432
-4.2994843	divine	-0.10513429
-4.2994843	blessing	-0.10513429
-4.2994843	awaken	-0.10513432
-4.3857713	carelessness	-0.10513432
-4.2994843	accumulated	-0.10513429
-4.2994843	onwards	-0.10513429
-4.2994843	explain	-0.10513432
-3.7519577	dreams	-0.17032811
-4.3857713	cell	-0.23329818
-4.146789	comments	-0.14380008
-4.5376773	lac	-0.10513432
-3.9446094	precious	-0.14380008
-4.146789	schedule	-0.10513432
-4.5376773	apply	-0.10513432
-3.8704877	provide	-0.10513432
-4.5376773	PMO	-0.10513432
-4.5376773	applications	-0.10513432
-4.5376773	Revolution	-0.10513432
-4.0340385	innumerable	-0.10513429
-4.5376773	Anushasan	-0.10513432
-4.2994843	Parv	-0.10513429
-4.5376773	Mahabharata	-0.10513432
-3.8071914	tree	-0.12791836
-4.5376773	offspring	-0.10513432
-4.3857713	salvation	-0.10513432
-3.8071914	herself	-0.10513432
-4.3857713	fulfill	-0.10513432
-4.5376773	societys	-0.10513432
-4.3857713	Respected	-0.10513432
-3.8071914	congratulations	-0.2713736
-4.5376773	fore	-0.10513429
-4.3857713	kin	-0.23329818
-4.5376773	1915	-0.10513432
-4.3857713	1917	-0.23329818
-4.0340385	Bihar	-0.25846452
-4.5376773	NDMA	-0.10513432
-4.5376773	workshops	-0.10513432
-4.5376773	wave	-0.10513432
-4.2994843	His	-0.10513432
-3.9446094	running	-0.20974398
-4.5376773	veins	-0.10513432
-4.2994843	Swachchh	-0.16450553
-4.3857713	Tann	-0.23329818
-4.3857713	Mera	-0.10513432
-4.5376773	Parichay	-0.10513432
-4.3857713	LoPN	-0.10513429
-4.5376773	ru	-0.10513432
-4.146789	&#93;	-0.16450553
-4.5376773	eu	-0.10513432
-4.5376773	Hkkjr	-0.10513432
-4.5376773	esjk	-0.10513432
-4.5376773	ifjp	-0.10513432
-3.8071914	week	-0.21893944
-4.146789	Womens	-0.16450553
-3.9446094	Cricket	-0.17369066
-4.2994843	speed	-0.10513432
-4.3857713	aimed	-0.10513432
